<?xml version="1.0"?>
<opencv_storage>
<stage3>
  <maxWeakCount>10</maxWeakCount>
  <stageThreshold>-1.0733028650283813e+00</stageThreshold>
  <weakClassifiers>
    <_>
      <internalNodes>
        0 -1 23172 -9.4491139054298401e-02</internalNodes>
      <leafValues>
        8.0298119783401489e-01 -5.1225203275680542e-01</leafValues></_>
    <_>
      <internalNodes>
        0 -1 41669 -5.7256940752267838e-02</internalNodes>
      <leafValues>
        7.8364819288253784e-01 -3.3606079220771790e-01</leafValues></_>
    <_>
      <internalNodes>
        0 -1 40867 6.1951288953423500e-03</internalNodes>
      <leafValues>
        -2.9856520891189575e-01 4.5969468355178833e-01</leafValues></_>
    <_>
      <internalNodes>
        0 -1 35770 6.9522507488727570e-02</internalNodes>
      <leafValues>
        -2.4349622428417206e-01 6.0638725757598877e-01</leafValues></_>
    <_>
      <internalNodes>
        0 -1 29425 -1.3383070006966591e-02</internalNodes>
      <leafValues>
        5.9422355890274048e-01 -2.8071624040603638e-01</leafValues></_>
    <_>
      <internalNodes>
        0 -1 26707 -1.3340355455875397e-01</internalNodes>
      <leafValues>
        9.0512257814407349e-01 -1.2589077651500702e-01</leafValues></_>
    <_>
      <internalNodes>
        0 -1 27922 -1.5061840415000916e-02</internalNodes>
      <leafValues>
        5.3928953409194946e-01 -2.6666739583015442e-01</leafValues></_>
    <_>
      <internalNodes>
        0 -1 37900 8.6896866559982300e-04</internalNodes>
      <leafValues>
        1.9935038685798645e-01 -7.4552714824676514e-01</leafValues></_>
    <_>
      <internalNodes>
        0 -1 24080 -1.6775809228420258e-02</internalNodes>
      <leafValues>
        6.4998269081115723e-01 -2.2709481418132782e-01</leafValues></_>
    <_>
      <internalNodes>
        0 -1 6056 5.6305723264813423e-03</internalNodes>
      <leafValues>
        2.1213331818580627e-01 -7.3509895801544189e-01</leafValues></_></weakClassifiers></stage3>
</opencv_storage>
