<?xml version="1.0"?>
<opencv_storage>
<stage1>
  <maxWeakCount>5</maxWeakCount>
  <stageThreshold>-1.2400668859481812e+00</stageThreshold>
  <weakClassifiers>
    <_>
      <internalNodes>
        0 -1 39104 4.3705545365810394e-02</internalNodes>
      <leafValues>
        -6.3615816831588745e-01 8.9966994524002075e-01</leafValues></_>
    <_>
      <internalNodes>
        0 -1 31021 -5.8875478804111481e-02</internalNodes>
      <leafValues>
        8.3663564920425415e-01 -4.2143306136131287e-01</leafValues></_>
    <_>
      <internalNodes>
        0 -1 36349 -5.0215866416692734e-02</internalNodes>
      <leafValues>
        6.0855859518051147e-01 -5.0394743680953979e-01</leafValues></_>
    <_>
      <internalNodes>
        0 -1 38226 1.1222762987017632e-02</internalNodes>
      <leafValues>
        -3.2776680588722229e-01 7.7281981706619263e-01</leafValues></_>
    <_>
      <internalNodes>
        0 -1 28919 7.1636058390140533e-02</internalNodes>
      <leafValues>
        -3.5171398520469666e-01 6.4923864603042603e-01</leafValues></_></weakClassifiers></stage1>
</opencv_storage>
