<?xml version="1.0"?>
<opencv_storage>
<stage3>
  <maxWeakCount>11</maxWeakCount>
  <stageThreshold>-1.0835596323013306e+00</stageThreshold>
  <weakClassifiers>
    <_>
      <internalNodes>
        0 -1 9035 -1.9185867905616760e-01</internalNodes>
      <leafValues>
        7.2380495071411133e-01 -5.3713673353195190e-01</leafValues></_>
    <_>
      <internalNodes>
        0 -1 38701 -3.9644632488489151e-02</internalNodes>
      <leafValues>
        4.8214727640151978e-01 -4.2291665077209473e-01</leafValues></_>
    <_>
      <internalNodes>
        0 -1 5115 4.0758967399597168e-02</internalNodes>
      <leafValues>
        -2.8591099381446838e-01 5.1581287384033203e-01</leafValues></_>
    <_>
      <internalNodes>
        0 -1 18446 -1.9615730643272400e-01</internalNodes>
      <leafValues>
        7.9033344984054565e-01 -1.5667612850666046e-01</leafValues></_>
    <_>
      <internalNodes>
        0 -1 49966 1.4839058276265860e-03</internalNodes>
      <leafValues>
        1.6255107522010803e-01 -6.6479378938674927e-01</leafValues></_>
    <_>
      <internalNodes>
        0 -1 35859 -8.0781592987477779e-04</internalNodes>
      <leafValues>
        -3.8896101713180542e-01 2.5985458493232727e-01</leafValues></_>
    <_>
      <internalNodes>
        0 -1 5510 1.2250057188794017e-03</internalNodes>
      <leafValues>
        1.2470877915620804e-01 -7.0350164175033569e-01</leafValues></_>
    <_>
      <internalNodes>
        0 -1 40239 6.2013566493988037e-02</internalNodes>
      <leafValues>
        -1.8227531015872955e-01 6.2187659740447998e-01</leafValues></_>
    <_>
      <internalNodes>
        0 -1 41955 -8.8847607374191284e-02</internalNodes>
      <leafValues>
        8.1773191690444946e-01 -1.3751125335693359e-01</leafValues></_>
    <_>
      <internalNodes>
        0 -1 50063 2.5886348448693752e-03</internalNodes>
      <leafValues>
        1.5893079340457916e-01 -7.6745462417602539e-01</leafValues></_>
    <_>
      <internalNodes>
        0 -1 2241 -1.5946062048897147e-03</internalNodes>
      <leafValues>
        -6.2017124891281128e-01 1.4804098010063171e-01</leafValues></_></weakClassifiers></stage3>
</opencv_storage>
