<?xml version="1.0"?>
<opencv_storage>
<stage0>
  <maxWeakCount>5</maxWeakCount>
  <stageThreshold>-1.0393128395080566e+00</stageThreshold>
  <weakClassifiers>
    <_>
      <internalNodes>
        0 -1 19043 -5.4811183363199234e-02</internalNodes>
      <leafValues>
        8.8139885663986206e-01 -7.1957159042358398e-01</leafValues></_>
    <_>
      <internalNodes>
        0 -1 35668 -4.9008846282958984e-02</internalNodes>
      <leafValues>
        7.4884510040283203e-01 -6.2646728754043579e-01</leafValues></_>
    <_>
      <internalNodes>
        0 -1 27638 -3.9454057812690735e-02</internalNodes>
      <leafValues>
        8.0644214153289795e-01 -2.7222436666488647e-01</leafValues></_>
    <_>
      <internalNodes>
        0 -1 25968 -1.8705938011407852e-02</internalNodes>
      <leafValues>
        7.5600928068161011e-01 -2.5892129540443420e-01</leafValues></_>
    <_>
      <internalNodes>
        0 -1 19248 -2.6402205228805542e-02</internalNodes>
      <leafValues>
        9.2097318172454834e-01 -1.7705890536308289e-01</leafValues></_></weakClassifiers></stage0>
</opencv_storage>
