<?xml version="1.0"?>
<opencv_storage>
<stage1>
  <maxWeakCount>7</maxWeakCount>
  <stageThreshold>-1.3002020120620728e+00</stageThreshold>
  <weakClassifiers>
    <_>
      <internalNodes>
        0 -1 19043 -7.4387848377227783e-02</internalNodes>
      <leafValues>
        8.4244793653488159e-01 -5.7175928354263306e-01</leafValues></_>
    <_>
      <internalNodes>
        0 -1 31716 -3.8472939282655716e-02</internalNodes>
      <leafValues>
        7.0702433586120605e-01 -4.5090839266777039e-01</leafValues></_>
    <_>
      <internalNodes>
        0 -1 32835 -4.1167721152305603e-02</internalNodes>
      <leafValues>
        6.2044972181320190e-01 -4.5659518241882324e-01</leafValues></_>
    <_>
      <internalNodes>
        0 -1 31016 -4.4251203536987305e-02</internalNodes>
      <leafValues>
        8.0524384975433350e-01 -2.0833154022693634e-01</leafValues></_>
    <_>
      <internalNodes>
        0 -1 34648 1.7611054703593254e-02</internalNodes>
      <leafValues>
        -3.7054747343063354e-01 6.2149685621261597e-01</leafValues></_>
    <_>
      <internalNodes>
        0 -1 23108 -2.4810966104269028e-02</internalNodes>
      <leafValues>
        9.0652751922607422e-01 -1.6591984033584595e-01</leafValues></_>
    <_>
      <internalNodes>
        0 -1 43187 5.7156905531883240e-03</internalNodes>
      <leafValues>
        -1.4858762919902802e-01 6.7692047357559204e-01</leafValues></_></weakClassifiers></stage1>
</opencv_storage>
