<?xml version="1.0"?>
<opencv_storage>
<stage1>
  <maxWeakCount>10</maxWeakCount>
  <stageThreshold>-8.1630235910415649e-01</stageThreshold>
  <weakClassifiers>
    <_>
      <internalNodes>
        0 -1 19048 -1.1442546546459198e-01</internalNodes>
      <leafValues>
        8.7369376420974731e-01 -4.3447384238243103e-01</leafValues></_>
    <_>
      <internalNodes>
        0 -1 38701 -4.6861100941896439e-02</internalNodes>
      <leafValues>
        6.9788479804992676e-01 -2.3932439088821411e-01</leafValues></_>
    <_>
      <internalNodes>
        0 -1 40883 2.4516191333532333e-02</internalNodes>
      <leafValues>
        -1.9680990278720856e-01 6.0918676853179932e-01</leafValues></_>
    <_>
      <internalNodes>
        0 -1 19066 -5.6803710758686066e-02</internalNodes>
      <leafValues>
        7.0415210723876953e-01 -1.6117815673351288e-01</leafValues></_>
    <_>
      <internalNodes>
        0 -1 37567 3.8750708103179932e-02</internalNodes>
      <leafValues>
        -1.7065450549125671e-01 7.1459633111953735e-01</leafValues></_>
    <_>
      <internalNodes>
        0 -1 41383 -5.6050345301628113e-04</internalNodes>
      <leafValues>
        -5.3089362382888794e-01 2.2959154844284058e-01</leafValues></_>
    <_>
      <internalNodes>
        0 -1 5512 -7.6334789628162980e-04</internalNodes>
      <leafValues>
        -7.4797105789184570e-01 1.4049506187438965e-01</leafValues></_>
    <_>
      <internalNodes>
        0 -1 11340 1.6251478809863329e-03</internalNodes>
      <leafValues>
        1.2965556979179382e-01 -6.7568224668502808e-01</leafValues></_>
    <_>
      <internalNodes>
        0 -1 35468 -2.0343106240034103e-02</internalNodes>
      <leafValues>
        5.0053435564041138e-01 -2.2121776640415192e-01</leafValues></_>
    <_>
      <internalNodes>
        0 -1 50936 1.2261609081178904e-03</internalNodes>
      <leafValues>
        1.4634709060192108e-01 -8.3614826202392578e-01</leafValues></_></weakClassifiers></stage1>
</opencv_storage>
