<?xml version="1.0"?>
<opencv_storage>
<stage2>
  <maxWeakCount>10</maxWeakCount>
  <stageThreshold>-9.8776644468307495e-01</stageThreshold>
  <weakClassifiers>
    <_>
      <internalNodes>
        0 -1 14352 -8.5767269134521484e-02</internalNodes>
      <leafValues>
        8.1841933727264404e-01 -1.7222599685192108e-01</leafValues></_>
    <_>
      <internalNodes>
        0 -1 32927 7.0164136588573456e-02</internalNodes>
      <leafValues>
        -1.6398972272872925e-01 7.2011059522628784e-01</leafValues></_>
    <_>
      <internalNodes>
        0 -1 36595 -7.6200157403945923e-02</internalNodes>
      <leafValues>
        6.3349586725234985e-01 -1.9545283913612366e-01</leafValues></_>
    <_>
      <internalNodes>
        0 -1 5234 -1.4878080692142248e-03</internalNodes>
      <leafValues>
        -8.3388262987136841e-01 1.6256318986415863e-01</leafValues></_>
    <_>
      <internalNodes>
        0 -1 35904 -2.3363400250673294e-03</internalNodes>
      <leafValues>
        -5.6513410806655884e-01 2.2084730863571167e-01</leafValues></_>
    <_>
      <internalNodes>
        0 -1 11389 -1.7366403480991721e-03</internalNodes>
      <leafValues>
        -8.3142256736755371e-01 1.4755536615848541e-01</leafValues></_>
    <_>
      <internalNodes>
        0 -1 10550 2.3024361580610275e-03</internalNodes>
      <leafValues>
        1.1234299093484879e-01 -8.4164083003997803e-01</leafValues></_>
    <_>
      <internalNodes>
        0 -1 10644 9.3687197659164667e-04</internalNodes>
      <leafValues>
        1.0363052785396576e-01 -9.3479287624359131e-01</leafValues></_>
    <_>
      <internalNodes>
        0 -1 46399 -2.2319912910461426e-02</internalNodes>
      <leafValues>
        8.3866393566131592e-01 -1.7325201630592346e-01</leafValues></_>
    <_>
      <internalNodes>
        0 -1 38303 -1.2776057235896587e-02</internalNodes>
      <leafValues>
        5.2532160282135010e-01 -2.4380381405353546e-01</leafValues></_></weakClassifiers></stage2>
</opencv_storage>
