<?xml version="1.0"?>
<opencv_storage>
<stage4>
  <maxWeakCount>10</maxWeakCount>
  <stageThreshold>-6.0202568769454956e-01</stageThreshold>
  <weakClassifiers>
    <_>
      <internalNodes>
        0 -1 32600 7.8469231724739075e-02</internalNodes>
      <leafValues>
        -1.8373493850231171e-01 7.4401915073394775e-01</leafValues></_>
    <_>
      <internalNodes>
        0 -1 32660 -1.7087957262992859e-01</internalNodes>
      <leafValues>
        4.9721622467041016e-01 -3.5909286141395569e-01</leafValues></_>
    <_>
      <internalNodes>
        0 -1 1740 1.7065020510926843e-03</internalNodes>
      <leafValues>
        2.2541634738445282e-01 -7.1610069274902344e-01</leafValues></_>
    <_>
      <internalNodes>
        0 -1 21022 -6.7748829722404480e-02</internalNodes>
      <leafValues>
        6.2088501453399658e-01 -2.2112864255905151e-01</leafValues></_>
    <_>
      <internalNodes>
        0 -1 45822 -2.1181977353990078e-03</internalNodes>
      <leafValues>
        -7.3150801658630371e-01 1.7790713906288147e-01</leafValues></_>
    <_>
      <internalNodes>
        0 -1 34828 7.9024182632565498e-03</internalNodes>
      <leafValues>
        -2.5209867954254150e-01 4.9879267811775208e-01</leafValues></_>
    <_>
      <internalNodes>
        0 -1 28579 -9.9572027102112770e-04</internalNodes>
      <leafValues>
        -8.7899565696716309e-01 1.3400362432003021e-01</leafValues></_>
    <_>
      <internalNodes>
        0 -1 3359 1.2835945188999176e-01</internalNodes>
      <leafValues>
        -2.2718285024166107e-01 5.6330072879791260e-01</leafValues></_>
    <_>
      <internalNodes>
        0 -1 50936 8.5039203986525536e-04</internalNodes>
      <leafValues>
        1.5593510866165161e-01 -7.3557472229003906e-01</leafValues></_>
    <_>
      <internalNodes>
        0 -1 50633 -7.5436598854139447e-04</internalNodes>
      <leafValues>
        -6.9729101657867432e-01 1.3857574760913849e-01</leafValues></_></weakClassifiers></stage4>
</opencv_storage>
