<?xml version="1.0"?>
<opencv_storage>
<stage3>
  <maxWeakCount>11</maxWeakCount>
  <stageThreshold>-7.7001303434371948e-01</stageThreshold>
  <weakClassifiers>
    <_>
      <internalNodes>
        0 -1 3738 -1.7711192369461060e-01</internalNodes>
      <leafValues>
        7.5615477561950684e-01 -2.2411128878593445e-01</leafValues></_>
    <_>
      <internalNodes>
        0 -1 27433 -9.7440943121910095e-02</internalNodes>
      <leafValues>
        8.1281083822250366e-01 -9.1696605086326599e-02</leafValues></_>
    <_>
      <internalNodes>
        0 -1 51525 -2.0376467145979404e-03</internalNodes>
      <leafValues>
        -7.2246789932250977e-01 2.0620739459991455e-01</leafValues></_>
    <_>
      <internalNodes>
        0 -1 51567 8.2269951235502958e-04</internalNodes>
      <leafValues>
        1.6422240436077118e-01 -7.1455407142639160e-01</leafValues></_>
    <_>
      <internalNodes>
        0 -1 10523 1.2613427825272083e-03</internalNodes>
      <leafValues>
        1.1656425148248672e-01 -8.2214927673339844e-01</leafValues></_>
    <_>
      <internalNodes>
        0 -1 39923 -3.3953294157981873e-02</internalNodes>
      <leafValues>
        4.9283206462860107e-01 -3.0019646883010864e-01</leafValues></_>
    <_>
      <internalNodes>
        0 -1 51064 1.4457168290391564e-03</internalNodes>
      <leafValues>
        2.0698206126689911e-01 -8.6061894893646240e-01</leafValues></_>
    <_>
      <internalNodes>
        0 -1 264 -9.3144565820693970e-02</internalNodes>
      <leafValues>
        4.9141588807106018e-01 -2.6441839337348938e-01</leafValues></_>
    <_>
      <internalNodes>
        0 -1 9793 -1.3788829091936350e-03</internalNodes>
      <leafValues>
        -6.6671639680862427e-01 1.8164934217929840e-01</leafValues></_>
    <_>
      <internalNodes>
        0 -1 50228 1.0853570420295000e-03</internalNodes>
      <leafValues>
        1.8324799835681915e-01 -6.2722414731979370e-01</leafValues></_>
    <_>
      <internalNodes>
        0 -1 9193 -1.2415116652846336e-03</internalNodes>
      <leafValues>
        -8.6112874746322632e-01 1.0798890143632889e-01</leafValues></_></weakClassifiers></stage3>
</opencv_storage>
