<?xml version="1.0"?>
<opencv_storage>
<stage0>
  <maxWeakCount>5</maxWeakCount>
  <stageThreshold>-1.3519513607025146e+00</stageThreshold>
  <weakClassifiers>
    <_>
      <internalNodes>
        0 -1 9339 -1.0583011806011200e-01</internalNodes>
      <leafValues>
        8.9138692617416382e-01 -7.0032328367233276e-01</leafValues></_>
    <_>
      <internalNodes>
        0 -1 35728 -6.9133333861827850e-02</internalNodes>
      <leafValues>
        7.4960619211196899e-01 -6.1385798454284668e-01</leafValues></_>
    <_>
      <internalNodes>
        0 -1 35006 -2.4977464228868484e-02</internalNodes>
      <leafValues>
        6.7547440528869629e-01 -3.7283688783645630e-01</leafValues></_>
    <_>
      <internalNodes>
        0 -1 38817 5.1122508943080902e-02</internalNodes>
      <leafValues>
        -2.6098793745040894e-01 7.4177181720733643e-01</leafValues></_>
    <_>
      <internalNodes>
        0 -1 31821 1.0121159255504608e-02</internalNodes>
      <leafValues>
        -2.6976448297500610e-01 5.9605467319488525e-01</leafValues></_></weakClassifiers></stage0>
</opencv_storage>
