<?xml version="1.0"?>
<opencv_storage>
<cascade>
  <stageType>BOOST</stageType>
  <featureType>HAAR</featureType>
  <height>18</height>
  <width>18</width>
  <stageParams>
    <boostType>GAB</boostType>
    <minHitRate>9.9500000476837158e-01</minHitRate>
    <maxFalseAlarm>5.0000000000000000e-01</maxFalseAlarm>
    <weightTrimRate>9.4999999999999996e-01</weightTrimRate>
    <maxDepth>1</maxDepth>
    <maxWeakCount>100</maxWeakCount></stageParams>
  <featureParams>
    <maxCatCount>0</maxCatCount>
    <featSize>1</featSize>
    <mode>BASIC</mode></featureParams>
  <stageNum>8</stageNum>
  <stages>
    <!-- stage 0 -->
    <_>
      <maxWeakCount>3</maxWeakCount>
      <stageThreshold>-6.4434784650802612e-01</stageThreshold>
      <weakClassifiers>
        <_>
          <internalNodes>
            0 -1 30 -1.6742456704378128e-02</internalNodes>
          <leafValues>
            9.4635933637619019e-01 -7.3932170867919922e-01</leafValues></_>
        <_>
          <internalNodes>
            0 -1 59 -2.4926429614424706e-02</internalNodes>
          <leafValues>
            8.1111985445022583e-01 -7.7913993597030640e-01</leafValues></_>
        <_>
          <internalNodes>
            0 -1 18 -2.3849092423915863e-02</internalNodes>
          <leafValues>
            8.7411379814147949e-01 -4.4897645711898804e-01</leafValues></_></weakClassifiers></_>
    <!-- stage 1 -->
    <_>
      <maxWeakCount>4</maxWeakCount>
      <stageThreshold>-8.1857419013977051e-01</stageThreshold>
      <weakClassifiers>
        <_>
          <internalNodes>
            0 -1 30 -2.5627391412854195e-02</internalNodes>
          <leafValues>
            8.8872241973876953e-01 -5.8471876382827759e-01</leafValues></_>
        <_>
          <internalNodes>
            0 -1 42 3.9357196539640427e-02</internalNodes>
          <leafValues>
            -5.2134925127029419e-01 7.4754923582077026e-01</leafValues></_>
        <_>
          <internalNodes>
            0 -1 55 1.3263160362839699e-02</internalNodes>
          <leafValues>
            -4.0142050385475159e-01 6.9054996967315674e-01</leafValues></_>
        <_>
          <internalNodes>
            0 -1 38 3.0848747119307518e-02</internalNodes>
          <leafValues>
            -3.7247350811958313e-01 6.8891441822052002e-01</leafValues></_></weakClassifiers></_>
    <!-- stage 2 -->
    <_>
      <maxWeakCount>8</maxWeakCount>
      <stageThreshold>-1.2528369426727295e+00</stageThreshold>
      <weakClassifiers>
        <_>
          <internalNodes>
            0 -1 7 -4.9676351249217987e-02</internalNodes>
          <leafValues>
            8.2615929841995239e-01 -5.4738014936447144e-01</leafValues></_>
        <_>
          <internalNodes>
            0 -1 16 -5.3254984319210052e-02</internalNodes>
          <leafValues>
            7.5903475284576416e-01 -3.8443318009376526e-01</leafValues></_>
        <_>
          <internalNodes>
            0 -1 53 4.6552903950214386e-03</internalNodes>
          <leafValues>
            -4.8543351888656616e-01 5.1421058177947998e-01</leafValues></_>
        <_>
          <internalNodes>
            0 -1 23 -2.6571365073323250e-02</internalNodes>
          <leafValues>
            4.7959923744201660e-01 -5.3487652540206909e-01</leafValues></_>
        <_>
          <internalNodes>
            0 -1 49 -5.8755720965564251e-04</internalNodes>
          <leafValues>
            2.6973339915275574e-01 -6.1150217056274414e-01</leafValues></_>
        <_>
          <internalNodes>
            0 -1 69 -4.6493830159306526e-03</internalNodes>
          <leafValues>
            1.9887062907218933e-01 -6.8340313434600830e-01</leafValues></_>
        <_>
          <internalNodes>
            0 -1 52 -9.9195102229714394e-03</internalNodes>
          <leafValues>
            4.0829929709434509e-01 -3.8116124272346497e-01</leafValues></_>
        <_>
          <internalNodes>
            0 -1 32 2.0937919616699219e-02</internalNodes>
          <leafValues>
            -1.7761690914630890e-01 7.3653668165206909e-01</leafValues></_></weakClassifiers></_>
    <!-- stage 3 -->
    <_>
      <maxWeakCount>10</maxWeakCount>
      <stageThreshold>-1.4292000532150269e+00</stageThreshold>
      <weakClassifiers>
        <_>
          <internalNodes>
            0 -1 31 -1.3445170596241951e-02</internalNodes>
          <leafValues>
            7.5870889425277710e-01 -5.6014883518218994e-01</leafValues></_>
        <_>
          <internalNodes>
            0 -1 0 -5.6520007550716400e-02</internalNodes>
          <leafValues>
            6.2234467267990112e-01 -4.6629044413566589e-01</leafValues></_>
        <_>
          <internalNodes>
            0 -1 48 4.3637316673994064e-02</internalNodes>
          <leafValues>
            -2.6252269744873047e-01 8.0800151824951172e-01</leafValues></_>
        <_>
          <internalNodes>
            0 -1 40 3.8711722940206528e-02</internalNodes>
          <leafValues>
            -2.3798288404941559e-01 7.1206349134445190e-01</leafValues></_>
        <_>
          <internalNodes>
            0 -1 72 3.1316459178924561e-02</internalNodes>
          <leafValues>
            -2.0844870805740356e-01 6.1907082796096802e-01</leafValues></_>
        <_>
          <internalNodes>
            0 -1 51 1.4707515947520733e-02</internalNodes>
          <leafValues>
            -3.1416818499565125e-01 4.9189427495002747e-01</leafValues></_>
        <_>
          <internalNodes>
            0 -1 57 -3.1072735786437988e-02</internalNodes>
          <leafValues>
            6.1426502466201782e-01 -2.4716126918792725e-01</leafValues></_>
        <_>
          <internalNodes>
            0 -1 60 -7.7695273794233799e-03</internalNodes>
          <leafValues>
            2.3769479990005493e-01 -6.5876430273056030e-01</leafValues></_>
        <_>
          <internalNodes>
            0 -1 3 3.4103468060493469e-02</internalNodes>
          <leafValues>
            -2.6866954565048218e-01 4.0667757391929626e-01</leafValues></_>
        <_>
          <internalNodes>
            0 -1 13 5.6801576167345047e-02</internalNodes>
          <leafValues>
            -1.9013738632202148e-01 5.7892024517059326e-01</leafValues></_></weakClassifiers></_>
    <!-- stage 4 -->
    <_>
      <maxWeakCount>11</maxWeakCount>
      <stageThreshold>-1.3608813285827637e+00</stageThreshold>
      <weakClassifiers>
        <_>
          <internalNodes>
            0 -1 66 7.2395736351609230e-03</internalNodes>
          <leafValues>
            -4.8402848839759827e-01 7.3168069124221802e-01</leafValues></_>
        <_>
          <internalNodes>
            0 -1 42 5.1579654216766357e-02</internalNodes>
          <leafValues>
            -4.8585066199302673e-01 5.7222849130630493e-01</leafValues></_>
        <_>
          <internalNodes>
            0 -1 28 4.9842264503240585e-02</internalNodes>
          <leafValues>
            -2.5494301319122314e-01 8.2911801338195801e-01</leafValues></_>
        <_>
          <internalNodes>
            0 -1 67 1.6295611858367920e-02</internalNodes>
          <leafValues>
            -2.3834641277790070e-01 7.1906268596649170e-01</leafValues></_>
        <_>
          <internalNodes>
            0 -1 27 -5.8423206210136414e-03</internalNodes>
          <leafValues>
            4.6013748645782471e-01 -2.5819677114486694e-01</leafValues></_>
        <_>
          <internalNodes>
            0 -1 13 5.1889844238758087e-02</internalNodes>
          <leafValues>
            -2.5410875678062439e-01 5.1738607883453369e-01</leafValues></_>
        <_>
          <internalNodes>
            0 -1 47 -4.9680154770612717e-02</internalNodes>
          <leafValues>
            6.2112867832183838e-01 -1.9294089078903198e-01</leafValues></_>
        <_>
          <internalNodes>
            0 -1 21 2.3898005485534668e-02</internalNodes>
          <leafValues>
            -2.1129134297370911e-01 7.6282215118408203e-01</leafValues></_>
        <_>
          <internalNodes>
            0 -1 44 -1.1760830879211426e-02</internalNodes>
          <leafValues>
            6.6563183069229126e-01 -1.2129297107458115e-01</leafValues></_>
        <_>
          <internalNodes>
            0 -1 64 -2.8041318058967590e-02</internalNodes>
          <leafValues>
            6.9191884994506836e-01 -1.7040565609931946e-01</leafValues></_>
        <_>
          <internalNodes>
            0 -1 65 1.8586184829473495e-02</internalNodes>
          <leafValues>
            -2.2111666202545166e-01 5.3902876377105713e-01</leafValues></_></weakClassifiers></_>
    <!-- stage 5 -->
    <_>
      <maxWeakCount>14</maxWeakCount>
      <stageThreshold>-1.2237452268600464e+00</stageThreshold>
      <weakClassifiers>
        <_>
          <internalNodes>
            0 -1 58 -1.0723508894443512e-01</internalNodes>
          <leafValues>
            7.1919173002243042e-01 -3.4299871325492859e-01</leafValues></_>
        <_>
          <internalNodes>
            0 -1 46 6.4736217260360718e-02</internalNodes>
          <leafValues>
            -1.7381665110588074e-01 8.0188441276550293e-01</leafValues></_>
        <_>
          <internalNodes>
            0 -1 24 -2.8534308075904846e-02</internalNodes>
          <leafValues>
            4.5602008700370789e-01 -3.8934558629989624e-01</leafValues></_>
        <_>
          <internalNodes>
            0 -1 11 2.4166689254343510e-03</internalNodes>
          <leafValues>
            2.1934661269187927e-01 -5.9416329860687256e-01</leafValues></_>
        <_>
          <internalNodes>
            0 -1 5 -1.0752485692501068e-01</internalNodes>
          <leafValues>
            5.7472008466720581e-01 -2.4418677389621735e-01</leafValues></_>
        <_>
          <internalNodes>
            0 -1 54 7.9530933871865273e-03</internalNodes>
          <leafValues>
            -3.3033299446105957e-01 4.8448503017425537e-01</leafValues></_>
        <_>
          <internalNodes>
            0 -1 34 -4.4136315584182739e-02</internalNodes>
          <leafValues>
            6.9353014230728149e-01 -1.5340071916580200e-01</leafValues></_>
        <_>
          <internalNodes>
            0 -1 62 -5.3475326858460903e-03</internalNodes>
          <leafValues>
            1.8883118033409119e-01 -7.3004531860351563e-01</leafValues></_>
        <_>
          <internalNodes>
            0 -1 12 4.3587483465671539e-02</internalNodes>
          <leafValues>
            -3.2679182291030884e-01 2.9949039220809937e-01</leafValues></_>
        <_>
          <internalNodes>
            0 -1 41 -3.5903997719287872e-02</internalNodes>
          <leafValues>
            6.9305115938186646e-01 -1.4029376208782196e-01</leafValues></_>
        <_>
          <internalNodes>
            0 -1 6 -3.7824772298336029e-02</internalNodes>
          <leafValues>
            7.5269943475723267e-01 -1.2211047857999802e-01</leafValues></_>
        <_>
          <internalNodes>
            0 -1 15 -3.6415264010429382e-02</internalNodes>
          <leafValues>
            6.1816000938415527e-01 -1.5088193118572235e-01</leafValues></_>
        <_>
          <internalNodes>
            0 -1 74 1.3527434319257736e-02</internalNodes>
          <leafValues>
            -1.8515102565288544e-01 5.4615968465805054e-01</leafValues></_>
        <_>
          <internalNodes>
            0 -1 20 5.7881630957126617e-02</internalNodes>
          <leafValues>
            -1.6665874421596527e-01 5.4252642393112183e-01</leafValues></_></weakClassifiers></_>
    <!-- stage 6 -->
    <_>
      <maxWeakCount>15</maxWeakCount>
      <stageThreshold>-1.1424086093902588e+00</stageThreshold>
      <weakClassifiers>
        <_>
          <internalNodes>
            0 -1 31 -1.4992456883192062e-02</internalNodes>
          <leafValues>
            7.0349568128585815e-01 -4.8469933867454529e-01</leafValues></_>
        <_>
          <internalNodes>
            0 -1 10 -4.3191164731979370e-02</internalNodes>
          <leafValues>
            7.4399995803833008e-01 -1.8625585734844208e-01</leafValues></_>
        <_>
          <internalNodes>
            0 -1 37 -7.6476179063320160e-02</internalNodes>
          <leafValues>
            4.0487039089202881e-01 -3.9408680796623230e-01</leafValues></_>
        <_>
          <internalNodes>
            0 -1 19 -3.6782350391149521e-02</internalNodes>
          <leafValues>
            5.7662475109100342e-01 -2.0434132218360901e-01</leafValues></_>
        <_>
          <internalNodes>
            0 -1 33 -2.3488290607929230e-02</internalNodes>
          <leafValues>
            6.2789946794509888e-01 -1.7326369881629944e-01</leafValues></_>
        <_>
          <internalNodes>
            0 -1 56 8.4032919257879257e-03</internalNodes>
          <leafValues>
            -2.0529024302959442e-01 5.7536995410919189e-01</leafValues></_>
        <_>
          <internalNodes>
            0 -1 68 -1.1922497302293777e-02</internalNodes>
          <leafValues>
            4.7479552030563354e-01 -1.6091085970401764e-01</leafValues></_>
        <_>
          <internalNodes>
            0 -1 43 2.7094822376966476e-02</internalNodes>
          <leafValues>
            -2.3720321059226990e-01 4.8407831788063049e-01</leafValues></_>
        <_>
          <internalNodes>
            0 -1 4 1.5998852904886007e-03</internalNodes>
          <leafValues>
            1.7422676086425781e-01 -5.7441145181655884e-01</leafValues></_>
        <_>
          <internalNodes>
            0 -1 75 1.8009340856224298e-03</internalNodes>
          <leafValues>
            1.0546052455902100e-01 -6.6981226205825806e-01</leafValues></_>
        <_>
          <internalNodes>
            0 -1 73 2.6419335044920444e-03</internalNodes>
          <leafValues>
            1.1271301656961441e-01 -6.6313248872756958e-01</leafValues></_>
        <_>
          <internalNodes>
            0 -1 9 -5.1846317946910858e-03</internalNodes>
          <leafValues>
            -6.4364403486251831e-01 1.1240360140800476e-01</leafValues></_>
        <_>
          <internalNodes>
            0 -1 64 -3.9888627827167511e-02</internalNodes>
          <leafValues>
            6.4892601966857910e-01 -1.4374412596225739e-01</leafValues></_>
        <_>
          <internalNodes>
            0 -1 26 -8.2846600562334061e-03</internalNodes>
          <leafValues>
            4.3933844566345215e-01 -2.2510732710361481e-01</leafValues></_>
        <_>
          <internalNodes>
            0 -1 70 5.6925404351204634e-04</internalNodes>
          <leafValues>
            1.5723581612110138e-01 -6.2529826164245605e-01</leafValues></_></weakClassifiers></_>
    <!-- stage 7 -->
    <_>
      <maxWeakCount>19</maxWeakCount>
      <stageThreshold>-1.2098290920257568e+00</stageThreshold>
      <weakClassifiers>
        <_>
          <internalNodes>
            0 -1 31 -1.7795715481042862e-02</internalNodes>
          <leafValues>
            6.7888879776000977e-01 -3.1618353724479675e-01</leafValues></_>
        <_>
          <internalNodes>
            0 -1 36 2.4229871109127998e-02</internalNodes>
          <leafValues>
            -3.4039407968521118e-01 4.8620337247848511e-01</leafValues></_>
        <_>
          <internalNodes>
            0 -1 45 -7.2391867637634277e-02</internalNodes>
          <leafValues>
            5.7053989171981812e-01 -2.6082661747932434e-01</leafValues></_>
        <_>
          <internalNodes>
            0 -1 1 -2.8455540537834167e-02</internalNodes>
          <leafValues>
            2.8236114978790283e-01 -4.5519891381263733e-01</leafValues></_>
        <_>
          <internalNodes>
            0 -1 53 4.1658789850771427e-03</internalNodes>
          <leafValues>
            -4.8039951920509338e-01 2.3661866784095764e-01</leafValues></_>
        <_>
          <internalNodes>
            0 -1 61 3.5549636930227280e-02</internalNodes>
          <leafValues>
            -1.8686749041080475e-01 5.1769739389419556e-01</leafValues></_>
        <_>
          <internalNodes>
            0 -1 17 -9.1160815209150314e-03</internalNodes>
          <leafValues>
            -7.7670997381210327e-01 1.2217481434345245e-01</leafValues></_>
        <_>
          <internalNodes>
            0 -1 50 -4.1358688031323254e-04</internalNodes>
          <leafValues>
            -6.4239013195037842e-01 1.2012410908937454e-01</leafValues></_>
        <_>
          <internalNodes>
            0 -1 32 1.9477285444736481e-02</internalNodes>
          <leafValues>
            -1.8491578102111816e-01 4.7017213702201843e-01</leafValues></_>
        <_>
          <internalNodes>
            0 -1 35 2.6076253503561020e-02</internalNodes>
          <leafValues>
            -1.2941561639308929e-01 6.4118033647537231e-01</leafValues></_>
        <_>
          <internalNodes>
            0 -1 29 -3.0135135166347027e-03</internalNodes>
          <leafValues>
            -4.6723404526710510e-01 2.0187927782535553e-01</leafValues></_>
        <_>
          <internalNodes>
            0 -1 8 -2.1867966279387474e-03</internalNodes>
          <leafValues>
            -5.8486860990524292e-01 8.8381677865982056e-02</leafValues></_>
        <_>
          <internalNodes>
            0 -1 2 5.8342423290014267e-03</internalNodes>
          <leafValues>
            1.1598405987024307e-01 -5.7022470235824585e-01</leafValues></_>
        <_>
          <internalNodes>
            0 -1 25 3.7499617785215378e-02</internalNodes>
          <leafValues>
            1.1339139938354492e-01 -5.3822952508926392e-01</leafValues></_>
        <_>
          <internalNodes>
            0 -1 22 -1.4535389840602875e-02</internalNodes>
          <leafValues>
            4.3795445561408997e-01 -1.5853615105152130e-01</leafValues></_>
        <_>
          <internalNodes>
            0 -1 14 4.8159386962652206e-02</internalNodes>
          <leafValues>
            -2.1058540046215057e-01 4.0923881530761719e-01</leafValues></_>
        <_>
          <internalNodes>
            0 -1 63 -1.6694210469722748e-02</internalNodes>
          <leafValues>
            4.7915256023406982e-01 -1.3061687350273132e-01</leafValues></_>
        <_>
          <internalNodes>
            0 -1 39 1.7428344115614891e-02</internalNodes>
          <leafValues>
            -1.2547849118709564e-01 5.7753580808639526e-01</leafValues></_>
        <_>
          <internalNodes>
            0 -1 71 1.4979913830757141e-02</internalNodes>
          <leafValues>
            -1.7644357681274414e-01 4.1254520416259766e-01</leafValues></_></weakClassifiers></_></stages>
  <features>
    <_>
      <rects>
        <_>
          1 2 12 6 -1.</_>
        <_>
          1 2 6 3 2.</_>
        <_>
          7 5 6 3 2.</_></rects>
      <tilted>0</tilted></_>
    <_>
      <rects>
        <_>
          1 3 12 4 -1.</_>
        <_>
          1 3 6 2 2.</_>
        <_>
          7 5 6 2 2.</_></rects>
      <tilted>0</tilted></_>
    <_>
      <rects>
        <_>
          1 6 4 4 -1.</_>
        <_>
          1 6 2 2 2.</_>
        <_>
          3 8 2 2 2.</_></rects>
      <tilted>0</tilted></_>
    <_>
      <rects>
        <_>
          4 4 6 5 -1.</_>
        <_>
          6 4 2 5 3.</_></rects>
      <tilted>0</tilted></_>
    <_>
      <rects>
        <_>
          4 8 3 1 -1.</_>
        <_>
          5 8 1 1 3.</_></rects>
      <tilted>0</tilted></_>
    <_>
      <rects>
        <_>
          4 8 12 2 -1.</_>
        <_>
          8 8 4 2 3.</_></rects>
      <tilted>0</tilted></_>
    <_>
      <rects>
        <_>
          4 11 6 3 -1.</_>
        <_>
          6 11 2 3 3.</_></rects>
      <tilted>0</tilted></_>
    <_>
      <rects>
        <_>
          5 0 6 10 -1.</_>
        <_>
          5 0 3 5 2.</_>
        <_>
          8 5 3 5 2.</_></rects>
      <tilted>0</tilted></_>
    <_>
      <rects>
        <_>
          5 1 2 4 -1.</_>
        <_>
          5 1 1 2 2.</_>
        <_>
          6 3 1 2 2.</_></rects>
      <tilted>0</tilted></_>
    <_>
      <rects>
        <_>
          5 9 8 3 -1.</_>
        <_>
          5 10 8 1 3.</_></rects>
      <tilted>0</tilted></_>
    <_>
      <rects>
        <_>
          5 11 6 3 -1.</_>
        <_>
          7 11 2 3 3.</_></rects>
      <tilted>0</tilted></_>
    <_>
      <rects>
        <_>
          5 11 7 2 -1.</_>
        <_>
          5 12 7 1 2.</_></rects>
      <tilted>0</tilted></_>
    <_>
      <rects>
        <_>
          6 1 8 6 -1.</_>
        <_>
          6 3 8 2 3.</_></rects>
      <tilted>0</tilted></_>
    <_>
      <rects>
        <_>
          6 2 8 6 -1.</_>
        <_>
          6 4 8 2 3.</_></rects>
      <tilted>0</tilted></_>
    <_>
      <rects>
        <_>
          6 2 9 6 -1.</_>
        <_>
          6 4 9 2 3.</_></rects>
      <tilted>0</tilted></_>
    <_>
      <rects>
        <_>
          6 5 6 2 -1.</_>
        <_>
          8 5 2 2 3.</_></rects>
      <tilted>0</tilted></_>
    <_>
      <rects>
        <_>
          6 7 9 2 -1.</_>
        <_>
          9 7 3 2 3.</_></rects>
      <tilted>0</tilted></_>
    <_>
      <rects>
        <_>
          6 8 7 3 -1.</_>
        <_>
          6 9 7 1 3.</_></rects>
      <tilted>0</tilted></_>
    <_>
      <rects>
        <_>
          6 10 6 3 -1.</_>
        <_>
          8 10 2 3 3.</_></rects>
      <tilted>0</tilted></_>
    <_>
      <rects>
        <_>
          6 12 6 2 -1.</_>
        <_>
          8 12 2 2 3.</_></rects>
      <tilted>0</tilted></_>
    <_>
      <rects>
        <_>
          7 2 7 6 -1.</_>
        <_>
          7 4 7 2 3.</_></rects>
      <tilted>0</tilted></_>
    <_>
      <rects>
        <_>
          7 3 6 4 -1.</_>
        <_>
          7 3 3 2 2.</_>
        <_>
          10 5 3 2 2.</_></rects>
      <tilted>0</tilted></_>
    <_>
      <rects>
        <_>
          7 3 6 2 -1.</_>
        <_>
          7 4 6 1 2.</_></rects>
      <tilted>0</tilted></_>
    <_>
      <rects>
        <_>
          7 3 6 4 -1.</_>
        <_>
          7 5 6 2 2.</_></rects>
      <tilted>0</tilted></_>
    <_>
      <rects>
        <_>
          7 3 6 6 -1.</_>
        <_>
          7 5 6 2 3.</_></rects>
      <tilted>0</tilted></_>
    <_>
      <rects>
        <_>
          7 3 7 10 -1.</_>
        <_>
          7 8 7 5 2.</_></rects>
      <tilted>0</tilted></_>
    <_>
      <rects>
        <_>
          7 4 2 3 -1.</_>
        <_>
          8 4 1 3 2.</_></rects>
      <tilted>0</tilted></_>
    <_>
      <rects>
        <_>
          7 4 6 3 -1.</_>
        <_>
          7 5 6 1 3.</_></rects>
      <tilted>0</tilted></_>
    <_>
      <rects>
        <_>
          7 6 4 8 -1.</_>
        <_>
          7 6 2 4 2.</_>
        <_>
          9 10 2 4 2.</_></rects>
      <tilted>0</tilted></_>
    <_>
      <rects>
        <_>
          7 7 3 3 -1.</_>
        <_>
          7 8 3 1 3.</_></rects>
      <tilted>0</tilted></_>
    <_>
      <rects>
        <_>
          7 8 6 2 -1.</_>
        <_>
          9 8 2 2 3.</_></rects>
      <tilted>0</tilted></_>
    <_>
      <rects>
        <_>
          7 9 6 1 -1.</_>
        <_>
          9 9 2 1 3.</_></rects>
      <tilted>0</tilted></_>
    <_>
      <rects>
        <_>
          7 11 6 3 -1.</_>
        <_>
          9 11 2 3 3.</_></rects>
      <tilted>0</tilted></_>
    <_>
      <rects>
        <_>
          7 11 4 6 -1.</_>
        <_>
          7 11 2 3 2.</_>
        <_>
          9 14 2 3 2.</_></rects>
      <tilted>0</tilted></_>
    <_>
      <rects>
        <_>
          7 12 6 2 -1.</_>
        <_>
          9 12 2 2 3.</_></rects>
      <tilted>0</tilted></_>
    <_>
      <rects>
        <_>
          7 12 4 6 -1.</_>
        <_>
          7 12 2 3 2.</_>
        <_>
          9 15 2 3 2.</_></rects>
      <tilted>0</tilted></_>
    <_>
      <rects>
        <_>
          7 12 3 6 -1.</_>
        <_>
          7 15 3 3 2.</_></rects>
      <tilted>0</tilted></_>
    <_>
      <rects>
        <_>
          8 1 4 8 -1.</_>
        <_>
          8 5 4 4 2.</_></rects>
      <tilted>0</tilted></_>
    <_>
      <rects>
        <_>
          8 1 6 6 -1.</_>
        <_>
          8 3 6 2 3.</_></rects>
      <tilted>0</tilted></_>
    <_>
      <rects>
        <_>
          8 2 4 4 -1.</_>
        <_>
          8 2 2 2 2.</_>
        <_>
          10 4 2 2 2.</_></rects>
      <tilted>0</tilted></_>
    <_>
      <rects>
        <_>
          8 2 6 6 -1.</_>
        <_>
          8 2 3 3 2.</_>
        <_>
          11 5 3 3 2.</_></rects>
      <tilted>0</tilted></_>
    <_>
      <rects>
        <_>
          8 2 5 6 -1.</_>
        <_>
          8 4 5 2 3.</_></rects>
      <tilted>0</tilted></_>
    <_>
      <rects>
        <_>
          8 2 10 6 -1.</_>
        <_>
          8 2 5 3 2.</_>
        <_>
          13 5 5 3 2.</_></rects>
      <tilted>0</tilted></_>
    <_>
      <rects>
        <_>
          8 3 6 4 -1.</_>
        <_>
          8 3 3 2 2.</_>
        <_>
          11 5 3 2 2.</_></rects>
      <tilted>0</tilted></_>
    <_>
      <rects>
        <_>
          8 3 4 2 -1.</_>
        <_>
          8 4 4 1 2.</_></rects>
      <tilted>0</tilted></_>
    <_>
      <rects>
        <_>
          8 5 6 4 -1.</_>
        <_>
          10 5 2 4 3.</_></rects>
      <tilted>0</tilted></_>
    <_>
      <rects>
        <_>
          8 5 4 10 -1.</_>
        <_>
          8 5 2 5 2.</_>
        <_>
          10 10 2 5 2.</_></rects>
      <tilted>0</tilted></_>
    <_>
      <rects>
        <_>
          8 6 6 3 -1.</_>
        <_>
          10 6 2 3 3.</_></rects>
      <tilted>0</tilted></_>
    <_>
      <rects>
        <_>
          8 6 4 8 -1.</_>
        <_>
          8 6 2 4 2.</_>
        <_>
          10 10 2 4 2.</_></rects>
      <tilted>0</tilted></_>
    <_>
      <rects>
        <_>
          8 9 2 1 -1.</_>
        <_>
          9 9 1 1 2.</_></rects>
      <tilted>0</tilted></_>
    <_>
      <rects>
        <_>
          8 9 6 2 -1.</_>
        <_>
          8 10 6 1 2.</_></rects>
      <tilted>0</tilted></_>
    <_>
      <rects>
        <_>
          8 10 6 2 -1.</_>
        <_>
          10 10 2 2 3.</_></rects>
      <tilted>0</tilted></_>
    <_>
      <rects>
        <_>
          8 10 3 6 -1.</_>
        <_>
          8 12 3 2 3.</_></rects>
      <tilted>0</tilted></_>
    <_>
      <rects>
        <_>
          8 11 4 1 -1.</_>
        <_>
          10 11 2 1 2.</_></rects>
      <tilted>0</tilted></_>
    <_>
      <rects>
        <_>
          8 11 6 1 -1.</_>
        <_>
          10 11 2 1 3.</_></rects>
      <tilted>0</tilted></_>
    <_>
      <rects>
        <_>
          8 11 4 2 -1.</_>
        <_>
          10 11 2 2 2.</_></rects>
      <tilted>0</tilted></_>
    <_>
      <rects>
        <_>
          8 12 2 6 -1.</_>
        <_>
          8 12 1 3 2.</_>
        <_>
          9 15 1 3 2.</_></rects>
      <tilted>0</tilted></_>
    <_>
      <rects>
        <_>
          8 12 6 6 -1.</_>
        <_>
          8 12 3 3 2.</_>
        <_>
          11 15 3 3 2.</_></rects>
      <tilted>0</tilted></_>
    <_>
      <rects>
        <_>
          9 0 2 18 -1.</_>
        <_>
          9 6 2 6 3.</_></rects>
      <tilted>0</tilted></_>
    <_>
      <rects>
        <_>
          9 3 4 9 -1.</_>
        <_>
          9 6 4 3 3.</_></rects>
      <tilted>0</tilted></_>
    <_>
      <rects>
        <_>
          9 4 6 6 -1.</_>
        <_>
          9 6 6 2 3.</_></rects>
      <tilted>0</tilted></_>
    <_>
      <rects>
        <_>
          9 5 6 3 -1.</_>
        <_>
          11 5 2 3 3.</_></rects>
      <tilted>0</tilted></_>
    <_>
      <rects>
        <_>
          9 5 4 6 -1.</_>
        <_>
          9 7 4 2 3.</_></rects>
      <tilted>0</tilted></_>
    <_>
      <rects>
        <_>
          9 6 6 1 -1.</_>
        <_>
          11 6 2 1 3.</_></rects>
      <tilted>0</tilted></_>
    <_>
      <rects>
        <_>
          9 6 6 2 -1.</_>
        <_>
          11 6 2 2 3.</_></rects>
      <tilted>0</tilted></_>
    <_>
      <rects>
        <_>
          9 7 6 2 -1.</_>
        <_>
          11 7 2 2 3.</_></rects>
      <tilted>0</tilted></_>
    <_>
      <rects>
        <_>
          9 10 4 1 -1.</_>
        <_>
          11 10 2 1 2.</_></rects>
      <tilted>0</tilted></_>
    <_>
      <rects>
        <_>
          9 12 1 6 -1.</_>
        <_>
          9 15 1 3 2.</_></rects>
      <tilted>0</tilted></_>
    <_>
      <rects>
        <_>
          10 5 3 4 -1.</_>
        <_>
          11 5 1 4 3.</_></rects>
      <tilted>0</tilted></_>
    <_>
      <rects>
        <_>
          10 5 3 6 -1.</_>
        <_>
          10 7 3 2 3.</_></rects>
      <tilted>0</tilted></_>
    <_>
      <rects>
        <_>
          10 6 1 2 -1.</_>
        <_>
          10 7 1 1 2.</_></rects>
      <tilted>0</tilted></_>
    <_>
      <rects>
        <_>
          11 5 2 4 -1.</_>
        <_>
          12 5 1 4 2.</_></rects>
      <tilted>0</tilted></_>
    <_>
      <rects>
        <_>
          11 5 6 3 -1.</_>
        <_>
          13 5 2 3 3.</_></rects>
      <tilted>0</tilted></_>
    <_>
      <rects>
        <_>
          12 0 4 2 -1.</_>
        <_>
          12 0 2 1 2.</_>
        <_>
          14 1 2 1 2.</_></rects>
      <tilted>0</tilted></_>
    <_>
      <rects>
        <_>
          12 5 2 4 -1.</_>
        <_>
          13 5 1 4 2.</_></rects>
      <tilted>0</tilted></_>
    <_>
      <rects>
        <_>
          13 0 1 3 -1.</_>
        <_>
          13 1 1 1 3.</_></rects>
      <tilted>0</tilted></_></features></cascade>
</opencv_storage>
