<?xml version="1.0"?>
<opencv_storage>
<stage8>
  <maxWeakCount>29</maxWeakCount>
  <stageThreshold>-1.2619588375091553e+00</stageThreshold>
  <weakClassifiers>
    <_>
      <internalNodes>
        0 -1 14352 -1.0697649419307709e-01</internalNodes>
      <leafValues>
        6.4219707250595093e-01 -2.2071148455142975e-01</leafValues></_>
    <_>
      <internalNodes>
        0 -1 41410 -7.5351431965827942e-02</internalNodes>
      <leafValues>
        4.9270430207252502e-01 -2.9870185256004333e-01</leafValues></_>
    <_>
      <internalNodes>
        0 -1 34197 5.2039459347724915e-02</internalNodes>
      <leafValues>
        -1.5870057046413422e-01 5.4419147968292236e-01</leafValues></_>
    <_>
      <internalNodes>
        0 -1 35648 2.5690622627735138e-02</internalNodes>
      <leafValues>
        -1.9153533875942230e-01 5.8459585905075073e-01</leafValues></_>
    <_>
      <internalNodes>
        0 -1 30474 -9.9639698863029480e-02</internalNodes>
      <leafValues>
        7.0635789632797241e-01 -1.0922750830650330e-01</leafValues></_>
    <_>
      <internalNodes>
        0 -1 31950 -4.1665762662887573e-02</internalNodes>
      <leafValues>
        6.6669076681137085e-01 -9.2842213809490204e-02</leafValues></_>
    <_>
      <internalNodes>
        0 -1 42649 -4.0719700045883656e-03</internalNodes>
      <leafValues>
        1.2860780954360962e-01 -5.6553763151168823e-01</leafValues></_>
    <_>
      <internalNodes>
        0 -1 31221 -5.7080827653408051e-02</internalNodes>
      <leafValues>
        6.8013930320739746e-01 -8.6795926094055176e-02</leafValues></_>
    <_>
      <internalNodes>
        0 -1 38325 -7.5351903215050697e-03</internalNodes>
      <leafValues>
        6.9347941875457764e-01 -1.1391683667898178e-01</leafValues></_>
    <_>
      <internalNodes>
        0 -1 9273 -3.1902961432933807e-02</internalNodes>
      <leafValues>
        4.9220797419548035e-01 -1.7264579236507416e-01</leafValues></_>
    <_>
      <internalNodes>
        0 -1 46580 1.1232377029955387e-02</internalNodes>
      <leafValues>
        -1.3379529118537903e-01 4.1703784465789795e-01</leafValues></_>
    <_>
      <internalNodes>
        0 -1 40227 5.2049204707145691e-02</internalNodes>
      <leafValues>
        -1.5541636943817139e-01 5.5512624979019165e-01</leafValues></_>
    <_>
      <internalNodes>
        0 -1 48383 -2.6868788991123438e-03</internalNodes>
      <leafValues>
        -5.6917542219161987e-01 1.0782567411661148e-01</leafValues></_>
    <_>
      <internalNodes>
        0 -1 51307 -1.2535505229607224e-03</internalNodes>
      <leafValues>
        -5.6880652904510498e-01 9.2087842524051666e-02</leafValues></_>
    <_>
      <internalNodes>
        0 -1 43246 6.1334678903222084e-03</internalNodes>
      <leafValues>
        -3.0310648679733276e-01 1.7104777693748474e-01</leafValues></_>
    <_>
      <internalNodes>
        0 -1 10542 4.6396199613809586e-03</internalNodes>
      <leafValues>
        1.0974153131246567e-01 -4.6083226799964905e-01</leafValues></_>
    <_>
      <internalNodes>
        0 -1 50860 -2.5569568388164043e-03</internalNodes>
      <leafValues>
        -5.1104861497879028e-01 9.6385501325130463e-02</leafValues></_>
    <_>
      <internalNodes>
        0 -1 50898 1.0543318931013346e-03</internalNodes>
      <leafValues>
        9.8233513534069061e-02 -4.9146071076393127e-01</leafValues></_>
    <_>
      <internalNodes>
        0 -1 33949 8.1039946526288986e-03</internalNodes>
      <leafValues>
        -1.8115366995334625e-01 3.2917311787605286e-01</leafValues></_>
    <_>
      <internalNodes>
        0 -1 32922 5.8646254241466522e-02</internalNodes>
      <leafValues>
        -1.8939298391342163e-01 3.3323016762733459e-01</leafValues></_>
    <_>
      <internalNodes>
        0 -1 33829 -7.4490299448370934e-03</internalNodes>
      <leafValues>
        4.0268898010253906e-01 -1.7473253607749939e-01</leafValues></_>
    <_>
      <internalNodes>
        0 -1 273 -5.3417719900608063e-02</internalNodes>
      <leafValues>
        1.7833065986633301e-01 -2.7144852280616760e-01</leafValues></_>
    <_>
      <internalNodes>
        0 -1 6804 -9.7209550440311432e-03</internalNodes>
      <leafValues>
        -4.4767439365386963e-01 9.7168281674385071e-02</leafValues></_>
    <_>
      <internalNodes>
        0 -1 49350 8.7893996387720108e-03</internalNodes>
      <leafValues>
        7.3977418243885040e-02 -4.5798414945602417e-01</leafValues></_>
    <_>
      <internalNodes>
        0 -1 41080 -1.1495890095829964e-02</internalNodes>
      <leafValues>
        6.8768286705017090e-01 -6.4103573560714722e-02</leafValues></_>
    <_>
      <internalNodes>
        0 -1 42937 -1.8329113721847534e-02</internalNodes>
      <leafValues>
        2.3011475801467896e-01 -1.8483017385005951e-01</leafValues></_>
    <_>
      <internalNodes>
        0 -1 37900 1.5844802837818861e-03</internalNodes>
      <leafValues>
        7.7688768506050110e-02 -6.2091732025146484e-01</leafValues></_>
    <_>
      <internalNodes>
        0 -1 4286 -8.4441974759101868e-03</internalNodes>
      <leafValues>
        -3.8656568527221680e-01 1.0263863205909729e-01</leafValues></_>
    <_>
      <internalNodes>
        0 -1 37119 4.9076303839683533e-02</internalNodes>
      <leafValues>
        -6.0001887381076813e-02 6.9905090332031250e-01</leafValues></_></weakClassifiers></stage8>
</opencv_storage>
