<?xml version="1.0"?>
<opencv_storage>
<cascade>
  <stageType>BOOST</stageType>
  <featureType>HAAR</featureType>
  <height>18</height>
  <width>18</width>
  <stageParams>
    <boostType>GAB</boostType>
    <minHitRate>9.9500000476837158e-01</minHitRate>
    <maxFalseAlarm>5.0000000000000000e-01</maxFalseAlarm>
    <weightTrimRate>9.4999999999999996e-01</weightTrimRate>
    <maxDepth>1</maxDepth>
    <maxWeakCount>100</maxWeakCount></stageParams>
  <featureParams>
    <maxCatCount>0</maxCatCount>
    <featSize>1</featSize>
    <mode>BASIC</mode></featureParams>
  <stageNum>10</stageNum>
  <stages>
    <!-- stage 0 -->
    <_>
      <maxWeakCount>10</maxWeakCount>
      <stageThreshold>-9.9402046203613281e-01</stageThreshold>
      <weakClassifiers>
        <_>
          <internalNodes>
            0 -1 99 -9.4396553933620453e-02</internalNodes>
          <leafValues>
            8.3862549066543579e-01 -4.6726396679878235e-01</leafValues></_>
        <_>
          <internalNodes>
            0 -1 46 -1.2236732244491577e-01</internalNodes>
          <leafValues>
            7.1848773956298828e-01 -4.2159423232078552e-01</leafValues></_>
        <_>
          <internalNodes>
            0 -1 58 -3.3795028924942017e-02</internalNodes>
          <leafValues>
            7.9499244689941406e-01 -1.9358335435390472e-01</leafValues></_>
        <_>
          <internalNodes>
            0 -1 126 1.9528601318597794e-02</internalNodes>
          <leafValues>
            -1.7334626615047455e-01 7.9984325170516968e-01</leafValues></_>
        <_>
          <internalNodes>
            0 -1 52 9.1871689073741436e-04</internalNodes>
          <leafValues>
            1.9502376019954681e-01 -7.9656487703323364e-01</leafValues></_>
        <_>
          <internalNodes>
            0 -1 107 2.6956964284181595e-02</internalNodes>
          <leafValues>
            -2.0347459614276886e-01 7.6907765865325928e-01</leafValues></_>
        <_>
          <internalNodes>
            0 -1 21 -1.8125844653695822e-03</internalNodes>
          <leafValues>
            -8.0548292398452759e-01 1.8612226843833923e-01</leafValues></_>
        <_>
          <internalNodes>
            0 -1 7 -2.0619551651179790e-03</internalNodes>
          <leafValues>
            -8.0482268333435059e-01 1.0000234097242355e-01</leafValues></_>
        <_>
          <internalNodes>
            0 -1 9 -5.2309557795524597e-02</internalNodes>
          <leafValues>
            7.2136217355728149e-01 -1.8452246487140656e-01</leafValues></_>
        <_>
          <internalNodes>
            0 -1 27 1.1570327915251255e-03</internalNodes>
          <leafValues>
            1.6861601173877716e-01 -7.3570197820663452e-01</leafValues></_></weakClassifiers></_>
    <!-- stage 1 -->
    <_>
      <maxWeakCount>14</maxWeakCount>
      <stageThreshold>-1.1283763647079468e+00</stageThreshold>
      <weakClassifiers>
        <_>
          <internalNodes>
            0 -1 15 -1.2166944146156311e-01</internalNodes>
          <leafValues>
            7.5459867715835571e-01 -4.0868926048278809e-01</leafValues></_>
        <_>
          <internalNodes>
            0 -1 131 -4.0654405951499939e-02</internalNodes>
          <leafValues>
            6.4736390113830566e-01 -3.0941879749298096e-01</leafValues></_>
        <_>
          <internalNodes>
            0 -1 76 -6.6460587084293365e-02</internalNodes>
          <leafValues>
            7.4396544694900513e-01 -1.5719208121299744e-01</leafValues></_>
        <_>
          <internalNodes>
            0 -1 70 -2.4201193824410439e-02</internalNodes>
          <leafValues>
            7.1902710199356079e-01 -2.1684278547763824e-01</leafValues></_>
        <_>
          <internalNodes>
            0 -1 95 2.3308385163545609e-02</internalNodes>
          <leafValues>
            -1.4980946481227875e-01 7.5062334537506104e-01</leafValues></_>
        <_>
          <internalNodes>
            0 -1 38 1.0330082150176167e-03</internalNodes>
          <leafValues>
            1.8491727113723755e-01 -9.1986417770385742e-01</leafValues></_>
        <_>
          <internalNodes>
            0 -1 152 7.5296283466741443e-04</internalNodes>
          <leafValues>
            1.3586767017841339e-01 -7.0507597923278809e-01</leafValues></_>
        <_>
          <internalNodes>
            0 -1 103 6.3511446118354797e-02</internalNodes>
          <leafValues>
            -1.9272097945213318e-01 6.8952912092208862e-01</leafValues></_>
        <_>
          <internalNodes>
            0 -1 117 2.7328846976161003e-02</internalNodes>
          <leafValues>
            -1.2658426165580750e-01 7.2738385200500488e-01</leafValues></_>
        <_>
          <internalNodes>
            0 -1 30 1.5529722440987825e-03</internalNodes>
          <leafValues>
            1.2465772032737732e-01 -8.0646026134490967e-01</leafValues></_>
        <_>
          <internalNodes>
            0 -1 121 1.4656706713140011e-02</internalNodes>
          <leafValues>
            -1.2788985669612885e-01 7.6200121641159058e-01</leafValues></_>
        <_>
          <internalNodes>
            0 -1 167 -1.3659970136359334e-03</internalNodes>
          <leafValues>
            -8.1271052360534668e-01 1.1723760515451431e-01</leafValues></_>
        <_>
          <internalNodes>
            0 -1 123 3.0612248927354813e-02</internalNodes>
          <leafValues>
            -1.3253656029701233e-01 7.9123467206954956e-01</leafValues></_>
        <_>
          <internalNodes>
            0 -1 77 -1.7644271254539490e-02</internalNodes>
          <leafValues>
            -8.3717751502990723e-01 1.3062737882137299e-01</leafValues></_></weakClassifiers></_>
    <!-- stage 2 -->
    <_>
      <maxWeakCount>11</maxWeakCount>
      <stageThreshold>-9.1102200746536255e-01</stageThreshold>
      <weakClassifiers>
        <_>
          <internalNodes>
            0 -1 48 -8.9053377509117126e-02</internalNodes>
          <leafValues>
            8.5679149627685547e-01 -1.6532152891159058e-01</leafValues></_>
        <_>
          <internalNodes>
            0 -1 90 -1.4549329876899719e-01</internalNodes>
          <leafValues>
            4.7680503129959106e-01 -4.0138348937034607e-01</leafValues></_>
        <_>
          <internalNodes>
            0 -1 75 -5.0921108573675156e-02</internalNodes>
          <leafValues>
            6.5376144647598267e-01 -1.8960392475128174e-01</leafValues></_>
        <_>
          <internalNodes>
            0 -1 56 -4.1793484240770340e-02</internalNodes>
          <leafValues>
            5.2909970283508301e-01 -2.2027550637722015e-01</leafValues></_>
        <_>
          <internalNodes>
            0 -1 157 1.5812439378350973e-03</internalNodes>
          <leafValues>
            1.4859847724437714e-01 -6.9225978851318359e-01</leafValues></_>
        <_>
          <internalNodes>
            0 -1 10 1.0769416112452745e-03</internalNodes>
          <leafValues>
            1.2682268023490906e-01 -6.6403806209564209e-01</leafValues></_>
        <_>
          <internalNodes>
            0 -1 11 1.4268019003793597e-03</internalNodes>
          <leafValues>
            1.3986763358116150e-01 -6.0348778963088989e-01</leafValues></_>
        <_>
          <internalNodes>
            0 -1 50 1.1989241465926170e-03</internalNodes>
          <leafValues>
            1.1215586960315704e-01 -7.1684378385543823e-01</leafValues></_>
        <_>
          <internalNodes>
            0 -1 51 3.8949050940573215e-04</internalNodes>
          <leafValues>
            1.9832612574100494e-01 -4.3538197875022888e-01</leafValues></_>
        <_>
          <internalNodes>
            0 -1 91 -4.0963828563690186e-02</internalNodes>
          <leafValues>
            5.8246755599975586e-01 -1.4670887589454651e-01</leafValues></_>
        <_>
          <internalNodes>
            0 -1 170 -4.2822601972147822e-04</internalNodes>
          <leafValues>
            -3.3489724993705750e-01 2.2985595464706421e-01</leafValues></_></weakClassifiers></_>
    <!-- stage 3 -->
    <_>
      <maxWeakCount>15</maxWeakCount>
      <stageThreshold>-9.5092648267745972e-01</stageThreshold>
      <weakClassifiers>
        <_>
          <internalNodes>
            0 -1 115 6.8290561437606812e-02</internalNodes>
          <leafValues>
            -1.4417001605033875e-01 7.4713790416717529e-01</leafValues></_>
        <_>
          <internalNodes>
            0 -1 62 -8.6492642760276794e-02</internalNodes>
          <leafValues>
            7.1319621801376343e-01 -1.6271752119064331e-01</leafValues></_>
        <_>
          <internalNodes>
            0 -1 80 -2.0032826066017151e-01</internalNodes>
          <leafValues>
            3.0317074060440063e-01 -3.3379086852073669e-01</leafValues></_>
        <_>
          <internalNodes>
            0 -1 151 1.8547712825238705e-03</internalNodes>
          <leafValues>
            1.0202742367982864e-01 -8.0524182319641113e-01</leafValues></_>
        <_>
          <internalNodes>
            0 -1 112 2.6574532967060804e-03</internalNodes>
          <leafValues>
            8.7037339806556702e-02 -7.2792315483093262e-01</leafValues></_>
        <_>
          <internalNodes>
            0 -1 143 2.6008831337094307e-02</internalNodes>
          <leafValues>
            -1.8537655472755432e-01 5.9142881631851196e-01</leafValues></_>
        <_>
          <internalNodes>
            0 -1 64 2.7085426263511181e-03</internalNodes>
          <leafValues>
            1.5493503212928772e-01 -7.5595968961715698e-01</leafValues></_>
        <_>
          <internalNodes>
            0 -1 108 2.7747346088290215e-02</internalNodes>
          <leafValues>
            -1.9782271981239319e-01 5.3106600046157837e-01</leafValues></_>
        <_>
          <internalNodes>
            0 -1 74 2.0490001887083054e-02</internalNodes>
          <leafValues>
            -7.7069886028766632e-02 7.2884052991867065e-01</leafValues></_>
        <_>
          <internalNodes>
            0 -1 66 1.8055090913549066e-03</internalNodes>
          <leafValues>
            1.1585164070129395e-01 -7.8594195842742920e-01</leafValues></_>
        <_>
          <internalNodes>
            0 -1 66 -1.5049270587041974e-03</internalNodes>
          <leafValues>
            -7.1337664127349854e-01 1.0102243721485138e-01</leafValues></_>
        <_>
          <internalNodes>
            0 -1 32 -4.6671155723743141e-04</internalNodes>
          <leafValues>
            -4.8085471987724304e-01 1.4874604344367981e-01</leafValues></_>
        <_>
          <internalNodes>
            0 -1 147 8.9100329205393791e-04</internalNodes>
          <leafValues>
            1.3324739038944244e-01 -5.7048994302749634e-01</leafValues></_>
        <_>
          <internalNodes>
            0 -1 138 2.7379624545574188e-02</internalNodes>
          <leafValues>
            -1.5935212373733521e-01 6.4364588260650635e-01</leafValues></_>
        <_>
          <internalNodes>
            0 -1 145 -2.5482936762273312e-03</internalNodes>
          <leafValues>
            -5.2865213155746460e-01 1.7024323344230652e-01</leafValues></_></weakClassifiers></_>
    <!-- stage 4 -->
    <_>
      <maxWeakCount>18</maxWeakCount>
      <stageThreshold>-8.4854304790496826e-01</stageThreshold>
      <weakClassifiers>
        <_>
          <internalNodes>
            0 -1 2 -8.1800550222396851e-02</internalNodes>
          <leafValues>
            6.6910946369171143e-01 -1.7117117345333099e-01</leafValues></_>
        <_>
          <internalNodes>
            0 -1 86 -6.5473064780235291e-02</internalNodes>
          <leafValues>
            7.0999270677566528e-01 -1.3561737537384033e-01</leafValues></_>
        <_>
          <internalNodes>
            0 -1 19 7.4162125587463379e-02</internalNodes>
          <leafValues>
            -2.1100330352783203e-01 4.4099822640419006e-01</leafValues></_>
        <_>
          <internalNodes>
            0 -1 21 -1.8115446437150240e-03</internalNodes>
          <leafValues>
            -7.8320419788360596e-01 8.7438762187957764e-02</leafValues></_>
        <_>
          <internalNodes>
            0 -1 55 -1.7465593991801143e-03</internalNodes>
          <leafValues>
            -7.5496369600296021e-01 9.5397770404815674e-02</leafValues></_>
        <_>
          <internalNodes>
            0 -1 139 -6.4778484404087067e-02</internalNodes>
          <leafValues>
            5.9711086750030518e-01 -1.4410427212715149e-01</leafValues></_>
        <_>
          <internalNodes>
            0 -1 127 -3.3527173101902008e-02</internalNodes>
          <leafValues>
            6.3169175386428833e-01 -1.3215591013431549e-01</leafValues></_>
        <_>
          <internalNodes>
            0 -1 43 -2.1212559659034014e-03</internalNodes>
          <leafValues>
            -6.9058114290237427e-01 1.2301298975944519e-01</leafValues></_>
        <_>
          <internalNodes>
            0 -1 8 -1.8163714557886124e-03</internalNodes>
          <leafValues>
            -6.0863322019577026e-01 1.1267164349555969e-01</leafValues></_>
        <_>
          <internalNodes>
            0 -1 144 9.3657342949882150e-04</internalNodes>
          <leafValues>
            1.7175757884979248e-01 -3.9932048320770264e-01</leafValues></_>
        <_>
          <internalNodes>
            0 -1 52 7.1088643744587898e-04</internalNodes>
          <leafValues>
            1.0448545217514038e-01 -6.0217601060867310e-01</leafValues></_>
        <_>
          <internalNodes>
            0 -1 72 -5.3849853575229645e-02</internalNodes>
          <leafValues>
            8.0943650007247925e-01 -9.0023256838321686e-02</leafValues></_>
        <_>
          <internalNodes>
            0 -1 155 9.7669870592653751e-04</internalNodes>
          <leafValues>
            1.2329165637493134e-01 -5.8971554040908813e-01</leafValues></_>
        <_>
          <internalNodes>
            0 -1 122 -4.5164395123720169e-02</internalNodes>
          <leafValues>
            6.7360526323318481e-01 -1.1212784051895142e-01</leafValues></_>
        <_>
          <internalNodes>
            0 -1 4 1.3990090228617191e-03</internalNodes>
          <leafValues>
            1.4775592088699341e-01 -5.0598996877670288e-01</leafValues></_>
        <_>
          <internalNodes>
            0 -1 82 5.9396270662546158e-02</internalNodes>
          <leafValues>
            -8.9477442204952240e-02 7.6767718791961670e-01</leafValues></_>
        <_>
          <internalNodes>
            0 -1 94 1.0350568220019341e-02</internalNodes>
          <leafValues>
            -1.1674320697784424e-01 5.1002347469329834e-01</leafValues></_>
        <_>
          <internalNodes>
            0 -1 113 3.5549339372664690e-03</internalNodes>
          <leafValues>
            1.3635300099849701e-01 -5.3172099590301514e-01</leafValues></_></weakClassifiers></_>
    <!-- stage 5 -->
    <_>
      <maxWeakCount>20</maxWeakCount>
      <stageThreshold>-7.8970342874526978e-01</stageThreshold>
      <weakClassifiers>
        <_>
          <internalNodes>
            0 -1 102 6.8718582391738892e-02</internalNodes>
          <leafValues>
            -1.0995068401098251e-01 7.1033799648284912e-01</leafValues></_>
        <_>
          <internalNodes>
            0 -1 69 -6.6432580351829529e-02</internalNodes>
          <leafValues>
            6.7141819000244141e-01 -1.3202340900897980e-01</leafValues></_>
        <_>
          <internalNodes>
            0 -1 90 -1.0013916343450546e-01</internalNodes>
          <leafValues>
            2.1834771335124969e-01 -4.9061661958694458e-01</leafValues></_>
        <_>
          <internalNodes>
            0 -1 76 -8.1928208470344543e-02</internalNodes>
          <leafValues>
            6.1753195524215698e-01 -1.7666909098625183e-01</leafValues></_>
        <_>
          <internalNodes>
            0 -1 14 8.9030712842941284e-02</internalNodes>
          <leafValues>
            -1.5655134618282318e-01 4.4445520639419556e-01</leafValues></_>
        <_>
          <internalNodes>
            0 -1 118 2.0819630473852158e-02</internalNodes>
          <leafValues>
            -1.2913832068443298e-01 5.3477418422698975e-01</leafValues></_>
        <_>
          <internalNodes>
            0 -1 165 -1.1806914117187262e-03</internalNodes>
          <leafValues>
            -7.1393841505050659e-01 9.5473982393741608e-02</leafValues></_>
        <_>
          <internalNodes>
            0 -1 12 -7.8029315918684006e-03</internalNodes>
          <leafValues>
            -5.9708088636398315e-01 1.0055235028266907e-01</leafValues></_>
        <_>
          <internalNodes>
            0 -1 169 1.4568977057933807e-02</internalNodes>
          <leafValues>
            1.1925826221704483e-01 -5.4681670665740967e-01</leafValues></_>
        <_>
          <internalNodes>
            0 -1 146 1.8491512164473534e-03</internalNodes>
          <leafValues>
            8.8451802730560303e-02 -7.0419812202453613e-01</leafValues></_>
        <_>
          <internalNodes>
            0 -1 136 2.3103181272745132e-02</internalNodes>
          <leafValues>
            -1.3134659826755524e-01 4.6765673160552979e-01</leafValues></_>
        <_>
          <internalNodes>
            0 -1 140 -5.9155654162168503e-02</internalNodes>
          <leafValues>
            7.0310264825820923e-01 -1.0061743855476379e-01</leafValues></_>
        <_>
          <internalNodes>
            0 -1 38 7.4330630013719201e-04</internalNodes>
          <leafValues>
            1.1260821670293808e-01 -6.8598198890686035e-01</leafValues></_>
        <_>
          <internalNodes>
            0 -1 153 -1.0845107957720757e-02</internalNodes>
          <leafValues>
            -6.7698019742965698e-01 7.0739269256591797e-02</leafValues></_>
        <_>
          <internalNodes>
            0 -1 59 -6.8775095045566559e-02</internalNodes>
          <leafValues>
            7.0122766494750977e-01 -8.8482789695262909e-02</leafValues></_>
        <_>
          <internalNodes>
            0 -1 68 -3.6926916800439358e-03</internalNodes>
          <leafValues>
            -7.3020160198211670e-01 9.4999097287654877e-02</leafValues></_>
        <_>
          <internalNodes>
            0 -1 95 2.4145783856511116e-02</internalNodes>
          <leafValues>
            -1.2398134171962738e-01 5.4014879465103149e-01</leafValues></_>
        <_>
          <internalNodes>
            0 -1 16 3.5894435644149780e-01</internalNodes>
          <leafValues>
            8.3409368991851807e-02 -8.4877628087997437e-01</leafValues></_>
        <_>
          <internalNodes>
            0 -1 10 1.0098977945744991e-03</internalNodes>
          <leafValues>
            8.3999589085578918e-02 -5.4259222745895386e-01</leafValues></_>
        <_>
          <internalNodes>
            0 -1 28 -6.2819823622703552e-02</internalNodes>
          <leafValues>
            -5.4511076211929321e-01 1.0063031315803528e-01</leafValues></_></weakClassifiers></_>
    <!-- stage 6 -->
    <_>
      <maxWeakCount>22</maxWeakCount>
      <stageThreshold>-9.8076337575912476e-01</stageThreshold>
      <weakClassifiers>
        <_>
          <internalNodes>
            0 -1 61 -3.2844215631484985e-02</internalNodes>
          <leafValues>
            7.3965424299240112e-01 -8.7995655834674835e-02</leafValues></_>
        <_>
          <internalNodes>
            0 -1 60 -5.7066604495048523e-02</internalNodes>
          <leafValues>
            6.3325989246368408e-01 -1.2808452546596527e-01</leafValues></_>
        <_>
          <internalNodes>
            0 -1 119 -5.4617688059806824e-02</internalNodes>
          <leafValues>
            6.0563117265701294e-01 -1.1064065992832184e-01</leafValues></_>
        <_>
          <internalNodes>
            0 -1 36 -3.3906973898410797e-02</internalNodes>
          <leafValues>
            5.7456707954406738e-01 -1.4148236811161041e-01</leafValues></_>
        <_>
          <internalNodes>
            0 -1 85 6.0879443772137165e-03</internalNodes>
          <leafValues>
            -1.2711493670940399e-01 6.6504651308059692e-01</leafValues></_>
        <_>
          <internalNodes>
            0 -1 116 -3.0865181237459183e-02</internalNodes>
          <leafValues>
            4.5698258280754089e-01 -1.3604272902011871e-01</leafValues></_>
        <_>
          <internalNodes>
            0 -1 171 -9.9960416555404663e-03</internalNodes>
          <leafValues>
            -7.7022391557693481e-01 9.5938086509704590e-02</leafValues></_>
        <_>
          <internalNodes>
            0 -1 135 -1.2797006964683533e-01</internalNodes>
          <leafValues>
            8.3247607946395874e-01 -1.0365486890077591e-01</leafValues></_>
        <_>
          <internalNodes>
            0 -1 125 5.0262855365872383e-03</internalNodes>
          <leafValues>
            -1.0505401343107224e-01 4.7123914957046509e-01</leafValues></_>
        <_>
          <internalNodes>
            0 -1 88 4.0205784142017365e-02</internalNodes>
          <leafValues>
            -8.9718788862228394e-02 7.1115618944168091e-01</leafValues></_>
        <_>
          <internalNodes>
            0 -1 18 -3.9370162412524223e-03</internalNodes>
          <leafValues>
            -7.5955337285995483e-01 8.8117927312850952e-02</leafValues></_>
        <_>
          <internalNodes>
            0 -1 70 -2.9076516628265381e-02</internalNodes>
          <leafValues>
            4.8565021157264709e-01 -1.3055473566055298e-01</leafValues></_>
        <_>
          <internalNodes>
            0 -1 41 1.5860248822718859e-03</internalNodes>
          <leafValues>
            1.3584300875663757e-01 -4.5679783821105957e-01</leafValues></_>
        <_>
          <internalNodes>
            0 -1 164 1.3495825696736574e-03</internalNodes>
          <leafValues>
            1.4794132113456726e-01 -4.0019202232360840e-01</leafValues></_>
        <_>
          <internalNodes>
            0 -1 150 -7.5133354403078556e-03</internalNodes>
          <leafValues>
            -5.1834601163864136e-01 1.1461902409791946e-01</leafValues></_>
        <_>
          <internalNodes>
            0 -1 158 3.6804839968681335e-02</internalNodes>
          <leafValues>
            9.2394709587097168e-02 -6.2441712617874146e-01</leafValues></_>
        <_>
          <internalNodes>
            0 -1 137 1.4568246901035309e-02</internalNodes>
          <leafValues>
            -1.2000375986099243e-01 5.1439797878265381e-01</leafValues></_>
        <_>
          <internalNodes>
            0 -1 154 9.6473353914916515e-04</internalNodes>
          <leafValues>
            1.1875724047422409e-01 -4.8226231336593628e-01</leafValues></_>
        <_>
          <internalNodes>
            0 -1 65 6.4781727269291878e-04</internalNodes>
          <leafValues>
            1.1062107235193253e-01 -4.4534480571746826e-01</leafValues></_>
        <_>
          <internalNodes>
            0 -1 22 1.3973591849207878e-03</internalNodes>
          <leafValues>
            8.2885511219501495e-02 -5.9997242689132690e-01</leafValues></_>
        <_>
          <internalNodes>
            0 -1 33 1.7152788117527962e-02</internalNodes>
          <leafValues>
            -1.2801410257816315e-01 4.5954781770706177e-01</leafValues></_>
        <_>
          <internalNodes>
            0 -1 13 4.2614950798451900e-03</internalNodes>
          <leafValues>
            1.2333778291940689e-01 -4.7287410497665405e-01</leafValues></_></weakClassifiers></_>
    <!-- stage 7 -->
    <_>
      <maxWeakCount>22</maxWeakCount>
      <stageThreshold>-9.0510022640228271e-01</stageThreshold>
      <weakClassifiers>
        <_>
          <internalNodes>
            0 -1 124 -6.5006166696548462e-02</internalNodes>
          <leafValues>
            7.3830634355545044e-01 2.0099313929677010e-02</leafValues></_>
        <_>
          <internalNodes>
            0 -1 57 -5.9658445417881012e-02</internalNodes>
          <leafValues>
            4.7230359911918640e-01 -1.8355986475944519e-01</leafValues></_>
        <_>
          <internalNodes>
            0 -1 17 -3.2726826611906290e-03</internalNodes>
          <leafValues>
            -4.7944730520248413e-01 1.6438125073909760e-01</leafValues></_>
        <_>
          <internalNodes>
            0 -1 82 4.4860050082206726e-02</internalNodes>
          <leafValues>
            -1.2064902484416962e-01 6.1389863491058350e-01</leafValues></_>
        <_>
          <internalNodes>
            0 -1 130 -3.0881669372320175e-02</internalNodes>
          <leafValues>
            7.0239877700805664e-01 -1.4459675550460815e-01</leafValues></_>
        <_>
          <internalNodes>
            0 -1 36 -4.2173370718955994e-02</internalNodes>
          <leafValues>
            6.0790121555328369e-01 -9.5237858593463898e-02</leafValues></_>
        <_>
          <internalNodes>
            0 -1 142 -6.4701765775680542e-02</internalNodes>
          <leafValues>
            8.0146145820617676e-01 -5.5133823305368423e-02</leafValues></_>
        <_>
          <internalNodes>
            0 -1 81 -3.7748113274574280e-02</internalNodes>
          <leafValues>
            6.5793764591217041e-01 -6.8092808127403259e-02</leafValues></_>
        <_>
          <internalNodes>
            0 -1 67 1.5087630599737167e-03</internalNodes>
          <leafValues>
            1.4420124888420105e-01 -4.6994704008102417e-01</leafValues></_>
        <_>
          <internalNodes>
            0 -1 106 1.4914261177182198e-02</internalNodes>
          <leafValues>
            -1.0238542407751083e-01 6.3465493917465210e-01</leafValues></_>
        <_>
          <internalNodes>
            0 -1 83 7.7963625080883503e-03</internalNodes>
          <leafValues>
            -7.6716177165508270e-02 5.9240889549255371e-01</leafValues></_>
        <_>
          <internalNodes>
            0 -1 167 -1.2809470063075423e-03</internalNodes>
          <leafValues>
            -7.8505003452301025e-01 7.0194952189922333e-02</leafValues></_>
        <_>
          <internalNodes>
            0 -1 47 2.3075252771377563e-02</internalNodes>
          <leafValues>
            -3.4415230154991150e-01 1.6431033611297607e-01</leafValues></_>
        <_>
          <internalNodes>
            0 -1 173 7.5601774733513594e-04</internalNodes>
          <leafValues>
            1.0685097426176071e-01 -5.1160168647766113e-01</leafValues></_>
        <_>
          <internalNodes>
            0 -1 147 1.0615158826112747e-03</internalNodes>
          <leafValues>
            8.4064491093158722e-02 -6.5191483497619629e-01</leafValues></_>
        <_>
          <internalNodes>
            0 -1 40 8.7546848226338625e-04</internalNodes>
          <leafValues>
            1.3035751879215240e-01 -4.0832865238189697e-01</leafValues></_>
        <_>
          <internalNodes>
            0 -1 3 3.8521971553564072e-02</internalNodes>
          <leafValues>
            6.7004159092903137e-02 -8.7773954868316650e-01</leafValues></_>
        <_>
          <internalNodes>
            0 -1 166 -2.0135561935603619e-03</internalNodes>
          <leafValues>
            -7.0328688621520996e-01 5.7667158544063568e-02</leafValues></_>
        <_>
          <internalNodes>
            0 -1 96 -1.8785834312438965e-02</internalNodes>
          <leafValues>
            5.6459254026412964e-01 -1.0252227634191513e-01</leafValues></_>
        <_>
          <internalNodes>
            0 -1 128 1.5100598335266113e-02</internalNodes>
          <leafValues>
            -1.4110212028026581e-01 4.0417495369911194e-01</leafValues></_>
        <_>
          <internalNodes>
            0 -1 44 -3.3628375967964530e-04</internalNodes>
          <leafValues>
            -3.7147438526153564e-01 1.5988889336585999e-01</leafValues></_>
        <_>
          <internalNodes>
            0 -1 149 1.0412779636681080e-02</internalNodes>
          <leafValues>
            -1.2650109827518463e-01 4.3113315105438232e-01</leafValues></_></weakClassifiers></_>
    <!-- stage 8 -->
    <_>
      <maxWeakCount>27</maxWeakCount>
      <stageThreshold>-8.6712384223937988e-01</stageThreshold>
      <weakClassifiers>
        <_>
          <internalNodes>
            0 -1 114 -1.7410331964492798e-01</internalNodes>
          <leafValues>
            6.2960845232009888e-01 7.4231445789337158e-02</leafValues></_>
        <_>
          <internalNodes>
            0 -1 98 -6.1692915856838226e-02</internalNodes>
          <leafValues>
            5.5921119451522827e-01 -1.0523708164691925e-01</leafValues></_>
        <_>
          <internalNodes>
            0 -1 23 5.9994484763592482e-04</internalNodes>
          <leafValues>
            1.3605210185050964e-01 -5.1157110929489136e-01</leafValues></_>
        <_>
          <internalNodes>
            0 -1 30 1.2450250796973705e-03</internalNodes>
          <leafValues>
            4.6843152493238449e-02 -7.0432549715042114e-01</leafValues></_>
        <_>
          <internalNodes>
            0 -1 134 8.8013112545013428e-02</internalNodes>
          <leafValues>
            -1.1274161934852600e-01 5.1783818006515503e-01</leafValues></_>
        <_>
          <internalNodes>
            0 -1 163 1.1181106092408299e-03</internalNodes>
          <leafValues>
            1.4080624282360077e-01 -3.9858874678611755e-01</leafValues></_>
        <_>
          <internalNodes>
            0 -1 24 5.0412461860105395e-04</internalNodes>
          <leafValues>
            1.2983721494674683e-01 -4.2935755848884583e-01</leafValues></_>
        <_>
          <internalNodes>
            0 -1 159 1.0157013311982155e-03</internalNodes>
          <leafValues>
            5.7968895882368088e-02 -7.1279072761535645e-01</leafValues></_>
        <_>
          <internalNodes>
            0 -1 109 -4.4777825474739075e-02</internalNodes>
          <leafValues>
            5.7695752382278442e-01 -1.0355257987976074e-01</leafValues></_>
        <_>
          <internalNodes>
            0 -1 45 -4.8052045167423785e-04</internalNodes>
          <leafValues>
            -3.5398069024085999e-01 1.4922904968261719e-01</leafValues></_>
        <_>
          <internalNodes>
            0 -1 92 5.1138538401573896e-04</internalNodes>
          <leafValues>
            -2.0532399415969849e-01 2.4584650993347168e-01</leafValues></_>
        <_>
          <internalNodes>
            0 -1 11 1.3896534219384193e-03</internalNodes>
          <leafValues>
            1.1387291550636292e-01 -5.1752430200576782e-01</leafValues></_>
        <_>
          <internalNodes>
            0 -1 148 2.3036445782054216e-04</internalNodes>
          <leafValues>
            1.5198224782943726e-01 -2.9302170872688293e-01</leafValues></_>
        <_>
          <internalNodes>
            0 -1 1 -2.8245827555656433e-01</internalNodes>
          <leafValues>
            -8.9681041240692139e-01 4.4534996151924133e-02</leafValues></_>
        <_>
          <internalNodes>
            0 -1 89 -1.3414192944765091e-02</internalNodes>
          <leafValues>
            -7.0958244800567627e-01 5.5250801146030426e-02</leafValues></_>
        <_>
          <internalNodes>
            0 -1 35 -1.9334442913532257e-02</internalNodes>
          <leafValues>
            6.2270098924636841e-01 -8.5891351103782654e-02</leafValues></_>
        <_>
          <internalNodes>
            0 -1 133 1.3116251677274704e-02</internalNodes>
          <leafValues>
            -6.2486015260219574e-02 6.2331622838973999e-01</leafValues></_>
        <_>
          <internalNodes>
            0 -1 84 6.8375945091247559e-02</internalNodes>
          <leafValues>
            -7.5398162007331848e-02 6.1480718851089478e-01</leafValues></_>
        <_>
          <internalNodes>
            0 -1 63 -1.5864825109019876e-03</internalNodes>
          <leafValues>
            -2.2398771345615387e-01 2.2548989951610565e-01</leafValues></_>
        <_>
          <internalNodes>
            0 -1 156 -1.4472957700490952e-03</internalNodes>
          <leafValues>
            -7.7629745006561279e-01 6.2552407383918762e-02</leafValues></_>
        <_>
          <internalNodes>
            0 -1 161 -2.0358679466880858e-04</internalNodes>
          <leafValues>
            -2.4570535123348236e-01 1.7774888873100281e-01</leafValues></_>
        <_>
          <internalNodes>
            0 -1 162 -1.5677129849791527e-03</internalNodes>
          <leafValues>
            -4.6327278017997742e-01 1.0361148416996002e-01</leafValues></_>
        <_>
          <internalNodes>
            0 -1 37 -9.9865731317549944e-04</internalNodes>
          <leafValues>
            -4.5901724696159363e-01 9.1063044965267181e-02</leafValues></_>
        <_>
          <internalNodes>
            0 -1 101 5.8722160756587982e-02</internalNodes>
          <leafValues>
            -7.8828200697898865e-02 5.3762722015380859e-01</leafValues></_>
        <_>
          <internalNodes>
            0 -1 5 1.7835604958236217e-03</internalNodes>
          <leafValues>
            1.0783459991216660e-01 -4.1354006528854370e-01</leafValues></_>
        <_>
          <internalNodes>
            0 -1 100 2.2520052269101143e-02</internalNodes>
          <leafValues>
            -1.2340963631868362e-01 3.3374431729316711e-01</leafValues></_>
        <_>
          <internalNodes>
            0 -1 20 2.1306474809534848e-04</internalNodes>
          <leafValues>
            1.4606323838233948e-01 -3.1018352508544922e-01</leafValues></_></weakClassifiers></_>
    <!-- stage 9 -->
    <_>
      <maxWeakCount>30</maxWeakCount>
      <stageThreshold>-9.6067756414413452e-01</stageThreshold>
      <weakClassifiers>
        <_>
          <internalNodes>
            0 -1 73 -5.0325594842433929e-02</internalNodes>
          <leafValues>
            7.6272511482238770e-01 1.1160533875226974e-01</leafValues></_>
        <_>
          <internalNodes>
            0 -1 110 2.1761434152722359e-02</internalNodes>
          <leafValues>
            -1.6225163638591766e-01 4.0913277864456177e-01</leafValues></_>
        <_>
          <internalNodes>
            0 -1 78 -1.1923073977231979e-01</internalNodes>
          <leafValues>
            2.4456781148910522e-01 -3.0783376097679138e-01</leafValues></_>
        <_>
          <internalNodes>
            0 -1 53 1.2777800438925624e-03</internalNodes>
          <leafValues>
            8.3007372915744781e-02 -4.7362381219863892e-01</leafValues></_>
        <_>
          <internalNodes>
            0 -1 34 -1.7577491234987974e-03</internalNodes>
          <leafValues>
            -5.1282197237014771e-01 1.1601307243108749e-01</leafValues></_>
        <_>
          <internalNodes>
            0 -1 79 -2.5265195965766907e-01</internalNodes>
          <leafValues>
            -4.5361021161079407e-01 9.9820435047149658e-02</leafValues></_>
        <_>
          <internalNodes>
            0 -1 87 -4.1939593851566315e-02</internalNodes>
          <leafValues>
            4.2335480451583862e-01 -1.3339042663574219e-01</leafValues></_>
        <_>
          <internalNodes>
            0 -1 141 -9.1960623860359192e-02</internalNodes>
          <leafValues>
            6.7285376787185669e-01 -1.0072419047355652e-01</leafValues></_>
        <_>
          <internalNodes>
            0 -1 49 -3.2786105293780565e-04</internalNodes>
          <leafValues>
            -2.9484432935714722e-01 1.8128697574138641e-01</leafValues></_>
        <_>
          <internalNodes>
            0 -1 31 -1.7630141228437424e-03</internalNodes>
          <leafValues>
            -9.3256700038909912e-01 4.6912889927625656e-02</leafValues></_>
        <_>
          <internalNodes>
            0 -1 25 -3.1265667639672756e-03</internalNodes>
          <leafValues>
            -3.6737287044525146e-01 1.1966115236282349e-01</leafValues></_>
        <_>
          <internalNodes>
            0 -1 168 7.1746541652828455e-04</internalNodes>
          <leafValues>
            1.0106953233480453e-01 -5.0706052780151367e-01</leafValues></_>
        <_>
          <internalNodes>
            0 -1 160 -1.8760513048619032e-03</internalNodes>
          <leafValues>
            -5.5245518684387207e-01 7.7814325690269470e-02</leafValues></_>
        <_>
          <internalNodes>
            0 -1 105 -3.5074401646852493e-02</internalNodes>
          <leafValues>
            6.6365516185760498e-01 -8.7418675422668457e-02</leafValues></_>
        <_>
          <internalNodes>
            0 -1 104 2.8900932520627975e-02</internalNodes>
          <leafValues>
            -7.7463783323764801e-02 4.9824097752571106e-01</leafValues></_>
        <_>
          <internalNodes>
            0 -1 71 -1.0769709944725037e-02</internalNodes>
          <leafValues>
            4.7199380397796631e-01 -1.0036204755306244e-01</leafValues></_>
        <_>
          <internalNodes>
            0 -1 132 -1.4669548720121384e-02</internalNodes>
          <leafValues>
            7.2365468740463257e-01 -5.8988198637962341e-02</leafValues></_>
        <_>
          <internalNodes>
            0 -1 6 3.8129475433379412e-04</internalNodes>
          <leafValues>
            1.4207768440246582e-01 -3.4364983439445496e-01</leafValues></_>
        <_>
          <internalNodes>
            0 -1 111 1.4890654711052775e-03</internalNodes>
          <leafValues>
            5.6410528719425201e-02 -6.6500687599182129e-01</leafValues></_>
        <_>
          <internalNodes>
            0 -1 93 -1.9576974213123322e-02</internalNodes>
          <leafValues>
            3.7424719333648682e-01 -1.1856047064065933e-01</leafValues></_>
        <_>
          <internalNodes>
            0 -1 97 -1.7993967980146408e-02</internalNodes>
          <leafValues>
            5.4208713769912720e-01 -7.3078863322734833e-02</leafValues></_>
        <_>
          <internalNodes>
            0 -1 39 1.9499829504638910e-03</internalNodes>
          <leafValues>
            8.4149576723575592e-02 -5.5491435527801514e-01</leafValues></_>
        <_>
          <internalNodes>
            0 -1 29 -5.3882701322436333e-03</internalNodes>
          <leafValues>
            -8.1602960824966431e-01 4.0749948471784592e-02</leafValues></_>
        <_>
          <internalNodes>
            0 -1 42 -2.4977716803550720e-01</internalNodes>
          <leafValues>
            -7.9994612932205200e-01 4.2964812368154526e-02</leafValues></_>
        <_>
          <internalNodes>
            0 -1 129 1.5444876253604889e-01</internalNodes>
          <leafValues>
            3.8136906921863556e-02 -8.7581443786621094e-01</leafValues></_>
        <_>
          <internalNodes>
            0 -1 120 -9.7512535750865936e-02</internalNodes>
          <leafValues>
            8.7834566831588745e-01 -5.4526492953300476e-02</leafValues></_>
        <_>
          <internalNodes>
            0 -1 0 9.0842433273792267e-03</internalNodes>
          <leafValues>
            7.1679033339023590e-02 -6.9312828779220581e-01</leafValues></_>
        <_>
          <internalNodes>
            0 -1 172 -2.9670223011635244e-04</internalNodes>
          <leafValues>
            -2.8598341345787048e-01 1.2659321725368500e-01</leafValues></_>
        <_>
          <internalNodes>
            0 -1 54 -1.2279259972274303e-03</internalNodes>
          <leafValues>
            -6.7523890733718872e-01 5.3966887295246124e-02</leafValues></_>
        <_>
          <internalNodes>
            0 -1 26 -1.8474981188774109e-01</internalNodes>
          <leafValues>
            -8.5925781726837158e-01 3.9043486118316650e-02</leafValues></_></weakClassifiers></_></stages>
  <features>
    <_>
      <rects>
        <_>
          0 0 6 2 -1.</_>
        <_>
          2 0 2 2 3.</_></rects>
      <tilted>0</tilted></_>
    <_>
      <rects>
        <_>
          0 0 18 5 -1.</_>
        <_>
          6 0 6 5 3.</_></rects>
      <tilted>0</tilted></_>
    <_>
      <rects>
        <_>
          0 0 12 10 -1.</_>
        <_>
          0 0 6 5 2.</_>
        <_>
          6 5 6 5 2.</_></rects>
      <tilted>0</tilted></_>
    <_>
      <rects>
        <_>
          0 0 16 1 -1.</_>
        <_>
          8 0 8 1 2.</_></rects>
      <tilted>0</tilted></_>
    <_>
      <rects>
        <_>
          0 1 4 2 -1.</_>
        <_>
          0 1 2 1 2.</_>
        <_>
          2 2 2 1 2.</_></rects>
      <tilted>0</tilted></_>
    <_>
      <rects>
        <_>
          0 1 6 2 -1.</_>
        <_>
          0 1 3 1 2.</_>
        <_>
          3 2 3 1 2.</_></rects>
      <tilted>0</tilted></_>
    <_>
      <rects>
        <_>
          0 2 2 2 -1.</_>
        <_>
          0 2 1 1 2.</_>
        <_>
          1 3 1 1 2.</_></rects>
      <tilted>0</tilted></_>
    <_>
      <rects>
        <_>
          0 2 2 3 -1.</_>
        <_>
          0 3 2 1 3.</_></rects>
      <tilted>0</tilted></_>
    <_>
      <rects>
        <_>
          0 2 3 3 -1.</_>
        <_>
          0 3 3 1 3.</_></rects>
      <tilted>0</tilted></_>
    <_>
      <rects>
        <_>
          0 2 8 8 -1.</_>
        <_>
          0 2 4 4 2.</_>
        <_>
          4 6 4 4 2.</_></rects>
      <tilted>0</tilted></_>
    <_>
      <rects>
        <_>
          0 3 3 1 -1.</_>
        <_>
          1 3 1 1 3.</_></rects>
      <tilted>0</tilted></_>
    <_>
      <rects>
        <_>
          0 3 2 3 -1.</_>
        <_>
          0 4 2 1 3.</_></rects>
      <tilted>0</tilted></_>
    <_>
      <rects>
        <_>
          0 4 1 8 -1.</_>
        <_>
          0 8 1 4 2.</_></rects>
      <tilted>0</tilted></_>
    <_>
      <rects>
        <_>
          0 6 2 10 -1.</_>
        <_>
          1 6 1 10 2.</_></rects>
      <tilted>0</tilted></_>
    <_>
      <rects>
        <_>
          0 6 10 10 -1.</_>
        <_>
          0 6 5 5 2.</_>
        <_>
          5 11 5 5 2.</_></rects>
      <tilted>0</tilted></_>
    <_>
      <rects>
        <_>
          0 7 18 4 -1.</_>
        <_>
          6 7 6 4 3.</_></rects>
      <tilted>0</tilted></_>
    <_>
      <rects>
        <_>
          0 7 18 9 -1.</_>
        <_>
          9 7 9 9 2.</_></rects>
      <tilted>0</tilted></_>
    <_>
      <rects>
        <_>
          0 8 1 9 -1.</_>
        <_>
          0 11 1 3 3.</_></rects>
      <tilted>0</tilted></_>
    <_>
      <rects>
        <_>
          0 8 3 3 -1.</_>
        <_>
          0 9 3 1 3.</_></rects>
      <tilted>0</tilted></_>
    <_>
      <rects>
        <_>
          0 8 10 10 -1.</_>
        <_>
          0 8 5 5 2.</_>
        <_>
          5 13 5 5 2.</_></rects>
      <tilted>0</tilted></_>
    <_>
      <rects>
        <_>
          0 10 2 2 -1.</_>
        <_>
          1 10 1 2 2.</_></rects>
      <tilted>0</tilted></_>
    <_>
      <rects>
        <_>
          0 11 2 3 -1.</_>
        <_>
          0 12 2 1 3.</_></rects>
      <tilted>0</tilted></_>
    <_>
      <rects>
        <_>
          0 12 1 3 -1.</_>
        <_>
          0 13 1 1 3.</_></rects>
      <tilted>0</tilted></_>
    <_>
      <rects>
        <_>
          0 13 1 2 -1.</_>
        <_>
          0 14 1 1 2.</_></rects>
      <tilted>0</tilted></_>
    <_>
      <rects>
        <_>
          0 13 2 2 -1.</_>
        <_>
          0 13 1 1 2.</_>
        <_>
          1 14 1 1 2.</_></rects>
      <tilted>0</tilted></_>
    <_>
      <rects>
        <_>
          0 13 4 2 -1.</_>
        <_>
          2 13 2 2 2.</_></rects>
      <tilted>0</tilted></_>
    <_>
      <rects>
        <_>
          0 13 18 4 -1.</_>
        <_>
          9 13 9 4 2.</_></rects>
      <tilted>0</tilted></_>
    <_>
      <rects>
        <_>
          0 15 3 1 -1.</_>
        <_>
          1 15 1 1 3.</_></rects>
      <tilted>0</tilted></_>
    <_>
      <rects>
        <_>
          0 15 18 2 -1.</_>
        <_>
          9 15 9 2 2.</_></rects>
      <tilted>0</tilted></_>
    <_>
      <rects>
        <_>
          1 0 4 2 -1.</_>
        <_>
          1 1 4 1 2.</_></rects>
      <tilted>0</tilted></_>
    <_>
      <rects>
        <_>
          1 1 3 1 -1.</_>
        <_>
          2 1 1 1 3.</_></rects>
      <tilted>0</tilted></_>
    <_>
      <rects>
        <_>
          1 2 1 2 -1.</_>
        <_>
          1 3 1 1 2.</_></rects>
      <tilted>0</tilted></_>
    <_>
      <rects>
        <_>
          1 3 2 2 -1.</_>
        <_>
          1 3 1 1 2.</_>
        <_>
          2 4 1 1 2.</_></rects>
      <tilted>0</tilted></_>
    <_>
      <rects>
        <_>
          1 6 9 1 -1.</_>
        <_>
          4 6 3 1 3.</_></rects>
      <tilted>0</tilted></_>
    <_>
      <rects>
        <_>
          1 7 2 3 -1.</_>
        <_>
          1 8 2 1 3.</_></rects>
      <tilted>0</tilted></_>
    <_>
      <rects>
        <_>
          1 7 6 1 -1.</_>
        <_>
          4 7 3 1 2.</_></rects>
      <tilted>0</tilted></_>
    <_>
      <rects>
        <_>
          1 7 12 1 -1.</_>
        <_>
          5 7 4 1 3.</_></rects>
      <tilted>0</tilted></_>
    <_>
      <rects>
        <_>
          1 8 1 3 -1.</_>
        <_>
          1 9 1 1 3.</_></rects>
      <tilted>0</tilted></_>
    <_>
      <rects>
        <_>
          1 15 2 2 -1.</_>
        <_>
          1 15 1 1 2.</_>
        <_>
          2 16 1 1 2.</_></rects>
      <tilted>0</tilted></_>
    <_>
      <rects>
        <_>
          1 15 4 2 -1.</_>
        <_>
          1 15 2 1 2.</_>
        <_>
          3 16 2 1 2.</_></rects>
      <tilted>0</tilted></_>
    <_>
      <rects>
        <_>
          1 16 3 2 -1.</_>
        <_>
          2 16 1 2 3.</_></rects>
      <tilted>0</tilted></_>
    <_>
      <rects>
        <_>
          2 0 3 3 -1.</_>
        <_>
          2 1 3 1 3.</_></rects>
      <tilted>0</tilted></_>
    <_>
      <rects>
        <_>
          2 0 16 8 -1.</_>
        <_>
          10 0 8 8 2.</_></rects>
      <tilted>0</tilted></_>
    <_>
      <rects>
        <_>
          2 1 2 3 -1.</_>
        <_>
          2 2 2 1 3.</_></rects>
      <tilted>0</tilted></_>
    <_>
      <rects>
        <_>
          2 4 2 2 -1.</_>
        <_>
          2 4 1 1 2.</_>
        <_>
          3 5 1 1 2.</_></rects>
      <tilted>0</tilted></_>
    <_>
      <rects>
        <_>
          2 5 2 2 -1.</_>
        <_>
          2 5 1 1 2.</_>
        <_>
          3 6 1 1 2.</_></rects>
      <tilted>0</tilted></_>
    <_>
      <rects>
        <_>
          2 6 15 6 -1.</_>
        <_>
          7 6 5 6 3.</_></rects>
      <tilted>0</tilted></_>
    <_>
      <rects>
        <_>
          2 6 15 12 -1.</_>
        <_>
          2 12 15 6 2.</_></rects>
      <tilted>0</tilted></_>
    <_>
      <rects>
        <_>
          2 8 15 2 -1.</_>
        <_>
          7 8 5 2 3.</_></rects>
      <tilted>0</tilted></_>
    <_>
      <rects>
        <_>
          2 10 1 3 -1.</_>
        <_>
          2 11 1 1 3.</_></rects>
      <tilted>0</tilted></_>
    <_>
      <rects>
        <_>
          2 13 1 3 -1.</_>
        <_>
          2 14 1 1 3.</_></rects>
      <tilted>0</tilted></_>
    <_>
      <rects>
        <_>
          2 14 1 2 -1.</_>
        <_>
          2 15 1 1 2.</_></rects>
      <tilted>0</tilted></_>
    <_>
      <rects>
        <_>
          2 14 2 2 -1.</_>
        <_>
          2 14 1 1 2.</_>
        <_>
          3 15 1 1 2.</_></rects>
      <tilted>0</tilted></_>
    <_>
      <rects>
        <_>
          2 14 4 2 -1.</_>
        <_>
          2 14 2 1 2.</_>
        <_>
          4 15 2 1 2.</_></rects>
      <tilted>0</tilted></_>
    <_>
      <rects>
        <_>
          2 15 2 2 -1.</_>
        <_>
          2 15 1 1 2.</_>
        <_>
          3 16 1 1 2.</_></rects>
      <tilted>0</tilted></_>
    <_>
      <rects>
        <_>
          3 2 3 1 -1.</_>
        <_>
          4 2 1 1 3.</_></rects>
      <tilted>0</tilted></_>
    <_>
      <rects>
        <_>
          3 2 8 6 -1.</_>
        <_>
          3 2 4 3 2.</_>
        <_>
          7 5 4 3 2.</_></rects>
      <tilted>0</tilted></_>
    <_>
      <rects>
        <_>
          3 2 8 8 -1.</_>
        <_>
          3 2 4 4 2.</_>
        <_>
          7 6 4 4 2.</_></rects>
      <tilted>0</tilted></_>
    <_>
      <rects>
        <_>
          3 3 8 6 -1.</_>
        <_>
          3 3 4 3 2.</_>
        <_>
          7 6 4 3 2.</_></rects>
      <tilted>0</tilted></_>
    <_>
      <rects>
        <_>
          3 6 15 1 -1.</_>
        <_>
          8 6 5 1 3.</_></rects>
      <tilted>0</tilted></_>
    <_>
      <rects>
        <_>
          3 7 15 1 -1.</_>
        <_>
          8 7 5 1 3.</_></rects>
      <tilted>0</tilted></_>
    <_>
      <rects>
        <_>
          3 9 12 1 -1.</_>
        <_>
          7 9 4 1 3.</_></rects>
      <tilted>0</tilted></_>
    <_>
      <rects>
        <_>
          3 9 12 2 -1.</_>
        <_>
          7 9 4 2 3.</_></rects>
      <tilted>0</tilted></_>
    <_>
      <rects>
        <_>
          3 12 4 1 -1.</_>
        <_>
          5 12 2 1 2.</_></rects>
      <tilted>0</tilted></_>
    <_>
      <rects>
        <_>
          3 14 2 3 -1.</_>
        <_>
          3 15 2 1 3.</_></rects>
      <tilted>0</tilted></_>
    <_>
      <rects>
        <_>
          3 15 2 2 -1.</_>
        <_>
          3 15 1 1 2.</_>
        <_>
          4 16 1 1 2.</_></rects>
      <tilted>0</tilted></_>
    <_>
      <rects>
        <_>
          4 0 3 1 -1.</_>
        <_>
          5 0 1 1 3.</_></rects>
      <tilted>0</tilted></_>
    <_>
      <rects>
        <_>
          4 0 3 2 -1.</_>
        <_>
          5 0 1 2 3.</_></rects>
      <tilted>0</tilted></_>
    <_>
      <rects>
        <_>
          4 0 3 3 -1.</_>
        <_>
          5 0 1 3 3.</_></rects>
      <tilted>0</tilted></_>
    <_>
      <rects>
        <_>
          4 1 8 8 -1.</_>
        <_>
          4 1 4 4 2.</_>
        <_>
          8 5 4 4 2.</_></rects>
      <tilted>0</tilted></_>
    <_>
      <rects>
        <_>
          4 4 8 4 -1.</_>
        <_>
          4 4 4 2 2.</_>
        <_>
          8 6 4 2 2.</_></rects>
      <tilted>0</tilted></_>
    <_>
      <rects>
        <_>
          4 4 10 2 -1.</_>
        <_>
          4 4 5 1 2.</_>
        <_>
          9 5 5 1 2.</_></rects>
      <tilted>0</tilted></_>
    <_>
      <rects>
        <_>
          4 7 8 6 -1.</_>
        <_>
          4 7 4 3 2.</_>
        <_>
          8 10 4 3 2.</_></rects>
      <tilted>0</tilted></_>
    <_>
      <rects>
        <_>
          4 8 12 1 -1.</_>
        <_>
          8 8 4 1 3.</_></rects>
      <tilted>0</tilted></_>
    <_>
      <rects>
        <_>
          4 9 6 2 -1.</_>
        <_>
          6 9 2 2 3.</_></rects>
      <tilted>0</tilted></_>
    <_>
      <rects>
        <_>
          4 10 9 2 -1.</_>
        <_>
          7 10 3 2 3.</_></rects>
      <tilted>0</tilted></_>
    <_>
      <rects>
        <_>
          4 10 9 3 -1.</_>
        <_>
          7 10 3 3 3.</_></rects>
      <tilted>0</tilted></_>
    <_>
      <rects>
        <_>
          5 0 12 1 -1.</_>
        <_>
          11 0 6 1 2.</_></rects>
      <tilted>0</tilted></_>
    <_>
      <rects>
        <_>
          5 0 9 10 -1.</_>
        <_>
          5 5 9 5 2.</_></rects>
      <tilted>0</tilted></_>
    <_>
      <rects>
        <_>
          5 0 10 18 -1.</_>
        <_>
          5 9 10 9 2.</_></rects>
      <tilted>0</tilted></_>
    <_>
      <rects>
        <_>
          5 0 11 18 -1.</_>
        <_>
          5 6 11 6 3.</_></rects>
      <tilted>0</tilted></_>
    <_>
      <rects>
        <_>
          5 6 9 1 -1.</_>
        <_>
          8 6 3 1 3.</_></rects>
      <tilted>0</tilted></_>
    <_>
      <rects>
        <_>
          5 6 8 6 -1.</_>
        <_>
          5 6 4 3 2.</_>
        <_>
          9 9 4 3 2.</_></rects>
      <tilted>0</tilted></_>
    <_>
      <rects>
        <_>
          5 7 6 1 -1.</_>
        <_>
          7 7 2 1 3.</_></rects>
      <tilted>0</tilted></_>
    <_>
      <rects>
        <_>
          5 7 10 6 -1.</_>
        <_>
          5 7 5 3 2.</_>
        <_>
          10 10 5 3 2.</_></rects>
      <tilted>0</tilted></_>
    <_>
      <rects>
        <_>
          5 8 6 1 -1.</_>
        <_>
          7 8 2 1 3.</_></rects>
      <tilted>0</tilted></_>
    <_>
      <rects>
        <_>
          5 9 9 2 -1.</_>
        <_>
          8 9 3 2 3.</_></rects>
      <tilted>0</tilted></_>
    <_>
      <rects>
        <_>
          5 9 10 9 -1.</_>
        <_>
          5 12 10 3 3.</_></rects>
      <tilted>0</tilted></_>
    <_>
      <rects>
        <_>
          5 12 6 6 -1.</_>
        <_>
          5 12 3 3 2.</_>
        <_>
          8 15 3 3 2.</_></rects>
      <tilted>0</tilted></_>
    <_>
      <rects>
        <_>
          6 0 10 1 -1.</_>
        <_>
          11 0 5 1 2.</_></rects>
      <tilted>0</tilted></_>
    <_>
      <rects>
        <_>
          6 0 9 18 -1.</_>
        <_>
          6 6 9 6 3.</_></rects>
      <tilted>0</tilted></_>
    <_>
      <rects>
        <_>
          6 1 1 15 -1.</_>
        <_>
          6 6 1 5 3.</_></rects>
      <tilted>0</tilted></_>
    <_>
      <rects>
        <_>
          6 1 4 2 -1.</_>
        <_>
          6 2 4 1 2.</_></rects>
      <tilted>0</tilted></_>
    <_>
      <rects>
        <_>
          6 5 4 6 -1.</_>
        <_>
          6 5 2 3 2.</_>
        <_>
          8 8 2 3 2.</_></rects>
      <tilted>0</tilted></_>
    <_>
      <rects>
        <_>
          6 6 9 1 -1.</_>
        <_>
          9 6 3 1 3.</_></rects>
      <tilted>0</tilted></_>
    <_>
      <rects>
        <_>
          6 8 9 2 -1.</_>
        <_>
          9 8 3 2 3.</_></rects>
      <tilted>0</tilted></_>
    <_>
      <rects>
        <_>
          6 9 6 4 -1.</_>
        <_>
          6 9 3 2 2.</_>
        <_>
          9 11 3 2 2.</_></rects>
      <tilted>0</tilted></_>
    <_>
      <rects>
        <_>
          6 12 6 4 -1.</_>
        <_>
          6 12 3 2 2.</_>
        <_>
          9 14 3 2 2.</_></rects>
      <tilted>0</tilted></_>
    <_>
      <rects>
        <_>
          6 12 12 6 -1.</_>
        <_>
          6 12 6 3 2.</_>
        <_>
          12 15 6 3 2.</_></rects>
      <tilted>0</tilted></_>
    <_>
      <rects>
        <_>
          7 0 4 18 -1.</_>
        <_>
          7 6 4 6 3.</_></rects>
      <tilted>0</tilted></_>
    <_>
      <rects>
        <_>
          7 1 2 9 -1.</_>
        <_>
          7 4 2 3 3.</_></rects>
      <tilted>0</tilted></_>
    <_>
      <rects>
        <_>
          7 1 6 8 -1.</_>
        <_>
          7 1 3 4 2.</_>
        <_>
          10 5 3 4 2.</_></rects>
      <tilted>0</tilted></_>
    <_>
      <rects>
        <_>
          7 1 10 10 -1.</_>
        <_>
          7 1 5 5 2.</_>
        <_>
          12 6 5 5 2.</_></rects>
      <tilted>0</tilted></_>
    <_>
      <rects>
        <_>
          7 2 10 6 -1.</_>
        <_>
          7 2 5 3 2.</_>
        <_>
          12 5 5 3 2.</_></rects>
      <tilted>0</tilted></_>
    <_>
      <rects>
        <_>
          7 3 8 4 -1.</_>
        <_>
          7 3 4 2 2.</_>
        <_>
          11 5 4 2 2.</_></rects>
      <tilted>0</tilted></_>
    <_>
      <rects>
        <_>
          7 5 1 9 -1.</_>
        <_>
          7 8 1 3 3.</_></rects>
      <tilted>0</tilted></_>
    <_>
      <rects>
        <_>
          7 6 1 9 -1.</_>
        <_>
          7 9 1 3 3.</_></rects>
      <tilted>0</tilted></_>
    <_>
      <rects>
        <_>
          7 7 6 6 -1.</_>
        <_>
          7 7 3 3 2.</_>
        <_>
          10 10 3 3 2.</_></rects>
      <tilted>0</tilted></_>
    <_>
      <rects>
        <_>
          7 9 9 2 -1.</_>
        <_>
          10 9 3 2 3.</_></rects>
      <tilted>0</tilted></_>
    <_>
      <rects>
        <_>
          7 9 6 6 -1.</_>
        <_>
          7 9 3 3 2.</_>
        <_>
          10 12 3 3 2.</_></rects>
      <tilted>0</tilted></_>
    <_>
      <rects>
        <_>
          7 10 8 1 -1.</_>
        <_>
          11 10 4 1 2.</_></rects>
      <tilted>0</tilted></_>
    <_>
      <rects>
        <_>
          8 0 3 1 -1.</_>
        <_>
          9 0 1 1 3.</_></rects>
      <tilted>0</tilted></_>
    <_>
      <rects>
        <_>
          8 0 3 2 -1.</_>
        <_>
          9 0 1 2 3.</_></rects>
      <tilted>0</tilted></_>
    <_>
      <rects>
        <_>
          8 0 6 1 -1.</_>
        <_>
          10 0 2 1 3.</_></rects>
      <tilted>0</tilted></_>
    <_>
      <rects>
        <_>
          8 0 3 18 -1.</_>
        <_>
          8 6 3 6 3.</_></rects>
      <tilted>0</tilted></_>
    <_>
      <rects>
        <_>
          8 0 10 10 -1.</_>
        <_>
          8 0 5 5 2.</_>
        <_>
          13 5 5 5 2.</_></rects>
      <tilted>0</tilted></_>
    <_>
      <rects>
        <_>
          8 1 1 12 -1.</_>
        <_>
          8 5 1 4 3.</_></rects>
      <tilted>0</tilted></_>
    <_>
      <rects>
        <_>
          8 1 2 9 -1.</_>
        <_>
          8 4 2 3 3.</_></rects>
      <tilted>0</tilted></_>
    <_>
      <rects>
        <_>
          8 2 2 9 -1.</_>
        <_>
          8 5 2 3 3.</_></rects>
      <tilted>0</tilted></_>
    <_>
      <rects>
        <_>
          8 3 1 15 -1.</_>
        <_>
          8 8 1 5 3.</_></rects>
      <tilted>0</tilted></_>
    <_>
      <rects>
        <_>
          8 4 4 6 -1.</_>
        <_>
          8 6 4 2 3.</_></rects>
      <tilted>0</tilted></_>
    <_>
      <rects>
        <_>
          8 5 2 6 -1.</_>
        <_>
          8 7 2 2 3.</_></rects>
      <tilted>0</tilted></_>
    <_>
      <rects>
        <_>
          8 5 6 8 -1.</_>
        <_>
          8 5 3 4 2.</_>
        <_>
          11 9 3 4 2.</_></rects>
      <tilted>0</tilted></_>
    <_>
      <rects>
        <_>
          8 7 6 3 -1.</_>
        <_>
          10 7 2 3 3.</_></rects>
      <tilted>0</tilted></_>
    <_>
      <rects>
        <_>
          8 8 8 10 -1.</_>
        <_>
          8 8 4 5 2.</_>
        <_>
          12 13 4 5 2.</_></rects>
      <tilted>0</tilted></_>
    <_>
      <rects>
        <_>
          8 9 6 1 -1.</_>
        <_>
          10 9 2 1 3.</_></rects>
      <tilted>0</tilted></_>
    <_>
      <rects>
        <_>
          8 9 6 3 -1.</_>
        <_>
          10 9 2 3 3.</_></rects>
      <tilted>0</tilted></_>
    <_>
      <rects>
        <_>
          8 9 3 9 -1.</_>
        <_>
          8 12 3 3 3.</_></rects>
      <tilted>0</tilted></_>
    <_>
      <rects>
        <_>
          8 11 6 4 -1.</_>
        <_>
          10 11 2 4 3.</_></rects>
      <tilted>0</tilted></_>
    <_>
      <rects>
        <_>
          8 13 10 5 -1.</_>
        <_>
          13 13 5 5 2.</_></rects>
      <tilted>0</tilted></_>
    <_>
      <rects>
        <_>
          8 14 8 4 -1.</_>
        <_>
          8 14 4 2 2.</_>
        <_>
          12 16 4 2 2.</_></rects>
      <tilted>0</tilted></_>
    <_>
      <rects>
        <_>
          9 0 1 18 -1.</_>
        <_>
          9 6 1 6 3.</_></rects>
      <tilted>0</tilted></_>
    <_>
      <rects>
        <_>
          9 1 2 6 -1.</_>
        <_>
          9 3 2 2 3.</_></rects>
      <tilted>0</tilted></_>
    <_>
      <rects>
        <_>
          9 1 4 4 -1.</_>
        <_>
          9 1 2 2 2.</_>
        <_>
          11 3 2 2 2.</_></rects>
      <tilted>0</tilted></_>
    <_>
      <rects>
        <_>
          9 1 8 8 -1.</_>
        <_>
          9 1 4 4 2.</_>
        <_>
          13 5 4 4 2.</_></rects>
      <tilted>0</tilted></_>
    <_>
      <rects>
        <_>
          9 5 4 9 -1.</_>
        <_>
          9 8 4 3 3.</_></rects>
      <tilted>0</tilted></_>
    <_>
      <rects>
        <_>
          9 6 6 3 -1.</_>
        <_>
          11 6 2 3 3.</_></rects>
      <tilted>0</tilted></_>
    <_>
      <rects>
        <_>
          9 7 4 6 -1.</_>
        <_>
          9 7 2 3 2.</_>
        <_>
          11 10 2 3 2.</_></rects>
      <tilted>0</tilted></_>
    <_>
      <rects>
        <_>
          10 1 2 9 -1.</_>
        <_>
          10 4 2 3 3.</_></rects>
      <tilted>0</tilted></_>
    <_>
      <rects>
        <_>
          10 6 8 8 -1.</_>
        <_>
          10 6 4 4 2.</_>
        <_>
          14 10 4 4 2.</_></rects>
      <tilted>0</tilted></_>
    <_>
      <rects>
        <_>
          11 4 2 9 -1.</_>
        <_>
          11 7 2 3 3.</_></rects>
      <tilted>0</tilted></_>
    <_>
      <rects>
        <_>
          11 4 3 9 -1.</_>
        <_>
          11 7 3 3 3.</_></rects>
      <tilted>0</tilted></_>
    <_>
      <rects>
        <_>
          11 5 2 9 -1.</_>
        <_>
          11 8 2 3 3.</_></rects>
      <tilted>0</tilted></_>
    <_>
      <rects>
        <_>
          11 7 2 9 -1.</_>
        <_>
          11 10 2 3 3.</_></rects>
      <tilted>0</tilted></_>
    <_>
      <rects>
        <_>
          12 1 3 3 -1.</_>
        <_>
          13 1 1 3 3.</_></rects>
      <tilted>0</tilted></_>
    <_>
      <rects>
        <_>
          13 0 5 2 -1.</_>
        <_>
          13 1 5 1 2.</_></rects>
      <tilted>0</tilted></_>
    <_>
      <rects>
        <_>
          14 0 4 2 -1.</_>
        <_>
          14 0 2 1 2.</_>
        <_>
          16 1 2 1 2.</_></rects>
      <tilted>0</tilted></_>
    <_>
      <rects>
        <_>
          14 1 2 1 -1.</_>
        <_>
          15 1 1 1 2.</_></rects>
      <tilted>0</tilted></_>
    <_>
      <rects>
        <_>
          14 2 2 2 -1.</_>
        <_>
          14 2 1 1 2.</_>
        <_>
          15 3 1 1 2.</_></rects>
      <tilted>0</tilted></_>
    <_>
      <rects>
        <_>
          14 8 4 2 -1.</_>
        <_>
          16 8 2 2 2.</_></rects>
      <tilted>0</tilted></_>
    <_>
      <rects>
        <_>
          14 13 4 4 -1.</_>
        <_>
          16 13 2 4 2.</_></rects>
      <tilted>0</tilted></_>
    <_>
      <rects>
        <_>
          14 17 3 1 -1.</_>
        <_>
          15 17 1 1 3.</_></rects>
      <tilted>0</tilted></_>
    <_>
      <rects>
        <_>
          15 0 2 2 -1.</_>
        <_>
          15 0 1 1 2.</_>
        <_>
          16 1 1 1 2.</_></rects>
      <tilted>0</tilted></_>
    <_>
      <rects>
        <_>
          15 0 3 18 -1.</_>
        <_>
          16 0 1 18 3.</_></rects>
      <tilted>0</tilted></_>
    <_>
      <rects>
        <_>
          15 3 2 1 -1.</_>
        <_>
          16 3 1 1 2.</_></rects>
      <tilted>0</tilted></_>
    <_>
      <rects>
        <_>
          15 11 2 2 -1.</_>
        <_>
          15 11 1 1 2.</_>
        <_>
          16 12 1 1 2.</_></rects>
      <tilted>0</tilted></_>
    <_>
      <rects>
        <_>
          15 15 2 1 -1.</_>
        <_>
          16 15 1 1 2.</_></rects>
      <tilted>0</tilted></_>
    <_>
      <rects>
        <_>
          16 0 2 4 -1.</_>
        <_>
          16 0 1 2 2.</_>
        <_>
          17 2 1 2 2.</_></rects>
      <tilted>0</tilted></_>
    <_>
      <rects>
        <_>
          16 0 2 16 -1.</_>
        <_>
          16 8 2 8 2.</_></rects>
      <tilted>0</tilted></_>
    <_>
      <rects>
        <_>
          16 1 2 2 -1.</_>
        <_>
          16 1 1 1 2.</_>
        <_>
          17 2 1 1 2.</_></rects>
      <tilted>0</tilted></_>
    <_>
      <rects>
        <_>
          16 1 2 2 -1.</_>
        <_>
          16 2 2 1 2.</_></rects>
      <tilted>0</tilted></_>
    <_>
      <rects>
        <_>
          16 4 2 2 -1.</_>
        <_>
          16 5 2 1 2.</_></rects>
      <tilted>0</tilted></_>
    <_>
      <rects>
        <_>
          16 13 2 3 -1.</_>
        <_>
          16 14 2 1 3.</_></rects>
      <tilted>0</tilted></_>
    <_>
      <rects>
        <_>
          16 14 2 2 -1.</_>
        <_>
          17 14 1 2 2.</_></rects>
      <tilted>0</tilted></_>
    <_>
      <rects>
        <_>
          16 14 2 3 -1.</_>
        <_>
          17 14 1 3 2.</_></rects>
      <tilted>0</tilted></_>
    <_>
      <rects>
        <_>
          16 15 2 1 -1.</_>
        <_>
          17 15 1 1 2.</_></rects>
      <tilted>0</tilted></_>
    <_>
      <rects>
        <_>
          16 15 2 2 -1.</_>
        <_>
          17 15 1 2 2.</_></rects>
      <tilted>0</tilted></_>
    <_>
      <rects>
        <_>
          17 0 1 2 -1.</_>
        <_>
          17 1 1 1 2.</_></rects>
      <tilted>0</tilted></_>
    <_>
      <rects>
        <_>
          17 1 1 2 -1.</_>
        <_>
          17 2 1 1 2.</_></rects>
      <tilted>0</tilted></_>
    <_>
      <rects>
        <_>
          17 1 1 16 -1.</_>
        <_>
          17 9 1 8 2.</_></rects>
      <tilted>0</tilted></_>
    <_>
      <rects>
        <_>
          17 5 1 4 -1.</_>
        <_>
          17 7 1 2 2.</_></rects>
      <tilted>0</tilted></_>
    <_>
      <rects>
        <_>
          17 5 1 6 -1.</_>
        <_>
          17 8 1 3 2.</_></rects>
      <tilted>0</tilted></_>
    <_>
      <rects>
        <_>
          17 7 1 2 -1.</_>
        <_>
          17 8 1 1 2.</_></rects>
      <tilted>0</tilted></_>
    <_>
      <rects>
        <_>
          17 11 1 2 -1.</_>
        <_>
          17 12 1 1 2.</_></rects>
      <tilted>0</tilted></_></features></cascade>
</opencv_storage>
