<?xml version="1.0"?>
<opencv_storage>
<stage0>
  <maxWeakCount>10</maxWeakCount>
  <stageThreshold>-9.9402046203613281e-01</stageThreshold>
  <weakClassifiers>
    <_>
      <internalNodes>
        0 -1 32557 -9.4396553933620453e-02</internalNodes>
      <leafValues>
        8.3862549066543579e-01 -4.6726396679878235e-01</leafValues></_>
    <_>
      <internalNodes>
        0 -1 13724 -1.2236732244491577e-01</internalNodes>
      <leafValues>
        7.1848773956298828e-01 -4.2159423232078552e-01</leafValues></_>
    <_>
      <internalNodes>
        0 -1 17331 -3.3795028924942017e-02</internalNodes>
      <leafValues>
        7.9499244689941406e-01 -1.9358335435390472e-01</leafValues></_>
    <_>
      <internalNodes>
        0 -1 37934 1.9528601318597794e-02</internalNodes>
      <leafValues>
        -1.7334626615047455e-01 7.9984325170516968e-01</leafValues></_>
    <_>
      <internalNodes>
        0 -1 15514 9.1871689073741436e-04</internalNodes>
      <leafValues>
        1.9502376019954681e-01 -7.9656487703323364e-01</leafValues></_>
    <_>
      <internalNodes>
        0 -1 34458 2.6956964284181595e-02</internalNodes>
      <leafValues>
        -2.0347459614276886e-01 7.6907765865325928e-01</leafValues></_>
    <_>
      <internalNodes>
        0 -1 4825 -1.8125844653695822e-03</internalNodes>
      <leafValues>
        -8.0548292398452759e-01 1.8612226843833923e-01</leafValues></_>
    <_>
      <internalNodes>
        0 -1 1238 -2.0619551651179790e-03</internalNodes>
      <leafValues>
        -8.0482268333435059e-01 1.0000234097242355e-01</leafValues></_>
    <_>
      <internalNodes>
        0 -1 1360 -5.2309557795524597e-02</internalNodes>
      <leafValues>
        7.2136217355728149e-01 -1.8452246487140656e-01</leafValues></_>
    <_>
      <internalNodes>
        0 -1 5510 1.1570327915251255e-03</internalNodes>
      <leafValues>
        1.6861601173877716e-01 -7.3570197820663452e-01</leafValues></_></weakClassifiers></stage0>
</opencv_storage>
