<?xml version="1.0"?>
<opencv_storage>
<stage4>
  <maxWeakCount>18</maxWeakCount>
  <stageThreshold>-8.4854304790496826e-01</stageThreshold>
  <weakClassifiers>
    <_>
      <internalNodes>
        0 -1 324 -8.1800550222396851e-02</internalNodes>
      <leafValues>
        6.6910946369171143e-01 -1.7117117345333099e-01</leafValues></_>
    <_>
      <internalNodes>
        0 -1 27654 -6.5473064780235291e-02</internalNodes>
      <leafValues>
        7.0999270677566528e-01 -1.3561737537384033e-01</leafValues></_>
    <_>
      <internalNodes>
        0 -1 4054 7.4162125587463379e-02</internalNodes>
      <leafValues>
        -2.1100330352783203e-01 4.4099822640419006e-01</leafValues></_>
    <_>
      <internalNodes>
        0 -1 4825 -1.8115446437150240e-03</internalNodes>
      <leafValues>
        -7.8320419788360596e-01 8.7438762187957764e-02</leafValues></_>
    <_>
      <internalNodes>
        0 -1 16729 -1.7465593991801143e-03</internalNodes>
      <leafValues>
        -7.5496369600296021e-01 9.5397770404815674e-02</leafValues></_>
    <_>
      <internalNodes>
        0 -1 42835 -6.4778484404087067e-02</internalNodes>
      <leafValues>
        5.9711086750030518e-01 -1.4410427212715149e-01</leafValues></_>
    <_>
      <internalNodes>
        0 -1 37964 -3.3527173101902008e-02</internalNodes>
      <leafValues>
        6.3169175386428833e-01 -1.3215591013431549e-01</leafValues></_>
    <_>
      <internalNodes>
        0 -1 11389 -2.1212559659034014e-03</internalNodes>
      <leafValues>
        -6.9058114290237427e-01 1.2301298975944519e-01</leafValues></_>
    <_>
      <internalNodes>
        0 -1 1291 -1.8163714557886124e-03</internalNodes>
      <leafValues>
        -6.0863322019577026e-01 1.1267164349555969e-01</leafValues></_>
    <_>
      <internalNodes>
        0 -1 46029 9.3657342949882150e-04</internalNodes>
      <leafValues>
        1.7175757884979248e-01 -3.9932048320770264e-01</leafValues></_>
    <_>
      <internalNodes>
        0 -1 15514 7.1088643744587898e-04</internalNodes>
      <leafValues>
        1.0448545217514038e-01 -6.0217601060867310e-01</leafValues></_>
    <_>
      <internalNodes>
        0 -1 23174 -5.3849853575229645e-02</internalNodes>
      <leafValues>
        8.0943650007247925e-01 -9.0023256838321686e-02</leafValues></_>
    <_>
      <internalNodes>
        0 -1 50936 9.7669870592653751e-04</internalNodes>
      <leafValues>
        1.2329165637493134e-01 -5.8971554040908813e-01</leafValues></_>
    <_>
      <internalNodes>
        0 -1 37158 -4.5164395123720169e-02</internalNodes>
      <leafValues>
        6.7360526323318481e-01 -1.1212784051895142e-01</leafValues></_>
    <_>
      <internalNodes>
        0 -1 680 1.3990090228617191e-03</internalNodes>
      <leafValues>
        1.4775592088699341e-01 -5.0598996877670288e-01</leafValues></_>
    <_>
      <internalNodes>
        0 -1 26959 5.9396270662546158e-02</internalNodes>
      <leafValues>
        -8.9477442204952240e-02 7.6767718791961670e-01</leafValues></_>
    <_>
      <internalNodes>
        0 -1 30745 1.0350568220019341e-02</internalNodes>
      <leafValues>
        -1.1674320697784424e-01 5.1002347469329834e-01</leafValues></_>
    <_>
      <internalNodes>
        0 -1 35642 3.5549339372664690e-03</internalNodes>
      <leafValues>
        1.3635300099849701e-01 -5.3172099590301514e-01</leafValues></_></weakClassifiers></stage4>
</opencv_storage>
