<?xml version="1.0"?>
<opencv_storage>
<stage3>
  <maxWeakCount>12</maxWeakCount>
  <stageThreshold>-1.3950151205062866e+00</stageThreshold>
  <weakClassifiers>
    <_>
      <internalNodes>
        0 -1 37956 2.4633891880512238e-02</internalNodes>
      <leafValues>
        -4.6160265803337097e-01 7.0650470256805420e-01</leafValues></_>
    <_>
      <internalNodes>
        0 -1 32887 -5.4103523492813110e-02</internalNodes>
      <leafValues>
        5.9178125858306885e-01 -5.0776362419128418e-01</leafValues></_>
    <_>
      <internalNodes>
        0 -1 4657 5.7826146483421326e-02</internalNodes>
      <leafValues>
        -3.3132624626159668e-01 5.3081613779067993e-01</leafValues></_>
    <_>
      <internalNodes>
        0 -1 14347 -5.7729102671146393e-02</internalNodes>
      <leafValues>
        5.8225655555725098e-01 -2.2986650466918945e-01</leafValues></_>
    <_>
      <internalNodes>
        0 -1 37753 2.0833367481827736e-02</internalNodes>
      <leafValues>
        -2.5111478567123413e-01 5.1142424345016479e-01</leafValues></_>
    <_>
      <internalNodes>
        0 -1 35579 1.4227924868464470e-02</internalNodes>
      <leafValues>
        2.4358539283275604e-01 -5.6032937765121460e-01</leafValues></_>
    <_>
      <internalNodes>
        0 -1 30748 -2.6798605918884277e-02</internalNodes>
      <leafValues>
        6.3639491796493530e-01 -1.8942365050315857e-01</leafValues></_>
    <_>
      <internalNodes>
        0 -1 51038 1.4601813163608313e-03</internalNodes>
      <leafValues>
        1.5993073582649231e-01 -8.3681231737136841e-01</leafValues></_>
    <_>
      <internalNodes>
        0 -1 24195 -1.1472010985016823e-02</internalNodes>
      <leafValues>
        5.4996991157531738e-01 -2.2213900089263916e-01</leafValues></_>
    <_>
      <internalNodes>
        0 -1 47488 -1.0810873936861753e-03</internalNodes>
      <leafValues>
        -6.7291176319122314e-01 1.5069428086280823e-01</leafValues></_>
    <_>
      <internalNodes>
        0 -1 38806 3.9398353546857834e-02</internalNodes>
      <leafValues>
        -1.7247168719768524e-01 4.9287256598472595e-01</leafValues></_>
    <_>
      <internalNodes>
        0 -1 37777 3.2999785616993904e-03</internalNodes>
      <leafValues>
        1.1335700750350952e-01 -7.8823214769363403e-01</leafValues></_></weakClassifiers></stage3>
</opencv_storage>
