<?xml version="1.0"?>
<opencv_storage>
<cascade>
  <stageType>BOOST</stageType>
  <featureType>HAAR</featureType>
  <height>18</height>
  <width>18</width>
  <stageParams>
    <boostType>GAB</boostType>
    <minHitRate>9.9500000476837158e-01</minHitRate>
    <maxFalseAlarm>5.0000000000000000e-01</maxFalseAlarm>
    <weightTrimRate>9.4999999999999996e-01</weightTrimRate>
    <maxDepth>1</maxDepth>
    <maxWeakCount>100</maxWeakCount></stageParams>
  <featureParams>
    <maxCatCount>0</maxCatCount>
    <featSize>1</featSize>
    <mode>BASIC</mode></featureParams>
  <stageNum>10</stageNum>
  <stages>
    <!-- stage 0 -->
    <_>
      <maxWeakCount>5</maxWeakCount>
      <stageThreshold>-7.6379781961441040e-01</stageThreshold>
      <weakClassifiers>
        <_>
          <internalNodes>
            0 -1 34 -7.9465568065643311e-02</internalNodes>
          <leafValues>
            8.9994680881500244e-01 -6.1641389131546021e-01</leafValues></_>
        <_>
          <internalNodes>
            0 -1 62 -1.4454044401645660e-01</internalNodes>
          <leafValues>
            7.3636072874069214e-01 -4.3604508042335510e-01</leafValues></_>
        <_>
          <internalNodes>
            0 -1 67 4.5984581112861633e-02</internalNodes>
          <leafValues>
            -2.4656981229782104e-01 8.3483874797821045e-01</leafValues></_>
        <_>
          <internalNodes>
            0 -1 75 1.2937689200043678e-02</internalNodes>
          <leafValues>
            -2.3336304724216461e-01 7.6738649606704712e-01</leafValues></_>
        <_>
          <internalNodes>
            0 -1 56 -7.5307801365852356e-02</internalNodes>
          <leafValues>
            8.2011818885803223e-01 -2.3215545713901520e-01</leafValues></_></weakClassifiers></_>
    <!-- stage 1 -->
    <_>
      <maxWeakCount>8</maxWeakCount>
      <stageThreshold>-7.5050157308578491e-01</stageThreshold>
      <weakClassifiers>
        <_>
          <internalNodes>
            0 -1 33 -8.7437555193901062e-02</internalNodes>
          <leafValues>
            8.9576172828674316e-01 -4.4976076483726501e-01</leafValues></_>
        <_>
          <internalNodes>
            0 -1 51 -6.7940972745418549e-02</internalNodes>
          <leafValues>
            8.4789973497390747e-01 -1.6181333363056183e-01</leafValues></_>
        <_>
          <internalNodes>
            0 -1 19 8.0609571887180209e-04</internalNodes>
          <leafValues>
            2.5201144814491272e-01 -9.2459332942962646e-01</leafValues></_>
        <_>
          <internalNodes>
            0 -1 69 3.7386920303106308e-02</internalNodes>
          <leafValues>
            -2.3247382044792175e-01 8.0671930313110352e-01</leafValues></_>
        <_>
          <internalNodes>
            0 -1 68 -7.7770739793777466e-02</internalNodes>
          <leafValues>
            5.7295858860015869e-01 -3.5545468330383301e-01</leafValues></_>
        <_>
          <internalNodes>
            0 -1 16 5.3150661289691925e-02</internalNodes>
          <leafValues>
            -2.0859768986701965e-01 7.5355839729309082e-01</leafValues></_>
        <_>
          <internalNodes>
            0 -1 106 6.2147190328687429e-04</internalNodes>
          <leafValues>
            2.6004067063331604e-01 -6.2515664100646973e-01</leafValues></_>
        <_>
          <internalNodes>
            0 -1 1 8.6884503252804279e-04</internalNodes>
          <leafValues>
            1.4554663002490997e-01 -7.4112766981124878e-01</leafValues></_></weakClassifiers></_>
    <!-- stage 2 -->
    <_>
      <maxWeakCount>10</maxWeakCount>
      <stageThreshold>-7.7642476558685303e-01</stageThreshold>
      <weakClassifiers>
        <_>
          <internalNodes>
            0 -1 35 -6.9886118173599243e-02</internalNodes>
          <leafValues>
            8.4433960914611816e-01 -3.3128833770751953e-01</leafValues></_>
        <_>
          <internalNodes>
            0 -1 30 -5.7293914258480072e-02</internalNodes>
          <leafValues>
            7.4614280462265015e-01 -1.5721146762371063e-01</leafValues></_>
        <_>
          <internalNodes>
            0 -1 16 2.7524065226316452e-02</internalNodes>
          <leafValues>
            -2.6653334498405457e-01 4.6739211678504944e-01</leafValues></_>
        <_>
          <internalNodes>
            0 -1 12 -3.5083447583019733e-03</internalNodes>
          <leafValues>
            -8.0704206228256226e-01 1.5602822601795197e-01</leafValues></_>
        <_>
          <internalNodes>
            0 -1 0 -1.4398480998352170e-03</internalNodes>
          <leafValues>
            -6.3629007339477539e-01 1.5779802203178406e-01</leafValues></_>
        <_>
          <internalNodes>
            0 -1 71 2.9689949005842209e-02</internalNodes>
          <leafValues>
            -2.3769138753414154e-01 7.6596534252166748e-01</leafValues></_>
        <_>
          <internalNodes>
            0 -1 55 -4.5775040984153748e-02</internalNodes>
          <leafValues>
            6.8284422159194946e-01 -1.6487960517406464e-01</leafValues></_>
        <_>
          <internalNodes>
            0 -1 31 -3.5714890807867050e-02</internalNodes>
          <leafValues>
            6.7445909976959229e-01 -1.8675632774829865e-01</leafValues></_>
        <_>
          <internalNodes>
            0 -1 10 3.1408327631652355e-03</internalNodes>
          <leafValues>
            2.1246048808097839e-01 -6.6497200727462769e-01</leafValues></_>
        <_>
          <internalNodes>
            0 -1 5 -1.9791547674685717e-03</internalNodes>
          <leafValues>
            -8.5114377737045288e-01 1.0181160271167755e-01</leafValues></_></weakClassifiers></_>
    <!-- stage 3 -->
    <_>
      <maxWeakCount>9</maxWeakCount>
      <stageThreshold>-6.6018319129943848e-01</stageThreshold>
      <weakClassifiers>
        <_>
          <internalNodes>
            0 -1 23 -1.5902122855186462e-01</internalNodes>
          <leafValues>
            8.5705089569091797e-01 -2.2874914109706879e-01</leafValues></_>
        <_>
          <internalNodes>
            0 -1 77 -4.1719689965248108e-02</internalNodes>
          <leafValues>
            5.5469107627868652e-01 -2.6614856719970703e-01</leafValues></_>
        <_>
          <internalNodes>
            0 -1 82 2.3640897125005722e-02</internalNodes>
          <leafValues>
            -2.5815287232398987e-01 4.9441975355148315e-01</leafValues></_>
        <_>
          <internalNodes>
            0 -1 90 1.8758908845484257e-03</internalNodes>
          <leafValues>
            1.5641929209232330e-01 -8.1601923704147339e-01</leafValues></_>
        <_>
          <internalNodes>
            0 -1 36 3.3742256462574005e-02</internalNodes>
          <leafValues>
            -3.1690865755081177e-01 3.9184519648551941e-01</leafValues></_>
        <_>
          <internalNodes>
            0 -1 15 -1.0626041330397129e-03</internalNodes>
          <leafValues>
            -7.6645869016647339e-01 2.0398837327957153e-01</leafValues></_>
        <_>
          <internalNodes>
            0 -1 11 1.0718730045482516e-03</internalNodes>
          <leafValues>
            8.9845336973667145e-02 -7.3870754241943359e-01</leafValues></_>
        <_>
          <internalNodes>
            0 -1 65 1.4873244799673557e-03</internalNodes>
          <leafValues>
            1.1241916567087173e-01 -8.0974465608596802e-01</leafValues></_>
        <_>
          <internalNodes>
            0 -1 25 1.2285585980862379e-03</internalNodes>
          <leafValues>
            1.0879711061716080e-01 -7.9354321956634521e-01</leafValues></_></weakClassifiers></_>
    <!-- stage 4 -->
    <_>
      <maxWeakCount>9</maxWeakCount>
      <stageThreshold>-8.9978420734405518e-01</stageThreshold>
      <weakClassifiers>
        <_>
          <internalNodes>
            0 -1 61 8.1062167882919312e-02</internalNodes>
          <leafValues>
            -3.0593606829643250e-01 7.0078742504119873e-01</leafValues></_>
        <_>
          <internalNodes>
            0 -1 50 -6.4373001456260681e-02</internalNodes>
          <leafValues>
            6.9360244274139404e-01 -2.0529763400554657e-01</leafValues></_>
        <_>
          <internalNodes>
            0 -1 52 -1.8240308761596680e-01</internalNodes>
          <leafValues>
            3.6355984210968018e-01 -4.2272469401359558e-01</leafValues></_>
        <_>
          <internalNodes>
            0 -1 26 2.6843361556529999e-03</internalNodes>
          <leafValues>
            1.3924050331115723e-01 -8.4539729356765747e-01</leafValues></_>
        <_>
          <internalNodes>
            0 -1 94 1.5257110353559256e-03</internalNodes>
          <leafValues>
            1.1332254111766815e-01 -8.2688659429550171e-01</leafValues></_>
        <_>
          <internalNodes>
            0 -1 64 1.0673688724637032e-02</internalNodes>
          <leafValues>
            -3.1132078170776367e-01 3.4985309839248657e-01</leafValues></_>
        <_>
          <internalNodes>
            0 -1 84 -2.0959096029400826e-02</internalNodes>
          <leafValues>
            7.9916447401046753e-01 -1.6315956413745880e-01</leafValues></_>
        <_>
          <internalNodes>
            0 -1 45 -1.5782428905367851e-02</internalNodes>
          <leafValues>
            -9.0060299634933472e-01 1.2403219193220139e-01</leafValues></_>
        <_>
          <internalNodes>
            0 -1 2 1.4093082863837481e-03</internalNodes>
          <leafValues>
            1.3205930590629578e-01 -7.2129172086715698e-01</leafValues></_></weakClassifiers></_>
    <!-- stage 5 -->
    <_>
      <maxWeakCount>11</maxWeakCount>
      <stageThreshold>-7.2326481342315674e-01</stageThreshold>
      <weakClassifiers>
        <_>
          <internalNodes>
            0 -1 28 -7.4501827359199524e-02</internalNodes>
          <leafValues>
            7.5476491451263428e-01 -1.3183730840682983e-01</leafValues></_>
        <_>
          <internalNodes>
            0 -1 57 -5.9509612619876862e-02</internalNodes>
          <leafValues>
            5.3929960727691650e-01 -3.0891457200050354e-01</leafValues></_>
        <_>
          <internalNodes>
            0 -1 100 2.3395454045385122e-03</internalNodes>
          <leafValues>
            1.3735377788543701e-01 -8.7729966640472412e-01</leafValues></_>
        <_>
          <internalNodes>
            0 -1 8 5.1555700600147247e-02</internalNodes>
          <leafValues>
            -2.5075632333755493e-01 4.5346722006797791e-01</leafValues></_>
        <_>
          <internalNodes>
            0 -1 24 -3.5383744398131967e-04</internalNodes>
          <leafValues>
            -4.6365565061569214e-01 2.2949415445327759e-01</leafValues></_>
        <_>
          <internalNodes>
            0 -1 87 5.7682818733155727e-03</internalNodes>
          <leafValues>
            1.3400053977966309e-01 -6.6203993558883667e-01</leafValues></_>
        <_>
          <internalNodes>
            0 -1 101 4.6910109813325107e-04</internalNodes>
          <leafValues>
            2.0892746746540070e-01 -5.3437000513076782e-01</leafValues></_>
        <_>
          <internalNodes>
            0 -1 14 1.6123924870043993e-03</internalNodes>
          <leafValues>
            1.3392980396747589e-01 -6.5136516094207764e-01</leafValues></_>
        <_>
          <internalNodes>
            0 -1 93 -3.0127693898975849e-03</internalNodes>
          <leafValues>
            -7.2341728210449219e-01 1.2659718096256256e-01</leafValues></_>
        <_>
          <internalNodes>
            0 -1 97 2.0692530088126659e-03</internalNodes>
          <leafValues>
            1.2394024431705475e-01 -6.8738597631454468e-01</leafValues></_>
        <_>
          <internalNodes>
            0 -1 47 -6.8168446421623230e-02</internalNodes>
          <leafValues>
            7.3533362150192261e-01 -1.7426553368568420e-01</leafValues></_></weakClassifiers></_>
    <!-- stage 6 -->
    <_>
      <maxWeakCount>14</maxWeakCount>
      <stageThreshold>-7.3120081424713135e-01</stageThreshold>
      <weakClassifiers>
        <_>
          <internalNodes>
            0 -1 66 8.2964211702346802e-02</internalNodes>
          <leafValues>
            -9.0791180729866028e-02 7.8189301490783691e-01</leafValues></_>
        <_>
          <internalNodes>
            0 -1 40 -7.9967699944972992e-02</internalNodes>
          <leafValues>
            6.3044202327728271e-01 -1.9811011850833893e-01</leafValues></_>
        <_>
          <internalNodes>
            0 -1 72 -4.9782928079366684e-02</internalNodes>
          <leafValues>
            3.2436493039131165e-01 -3.2560914754867554e-01</leafValues></_>
        <_>
          <internalNodes>
            0 -1 46 -2.1264483034610748e-01</internalNodes>
          <leafValues>
            2.7161887288093567e-01 -3.5523131489753723e-01</leafValues></_>
        <_>
          <internalNodes>
            0 -1 102 -9.8882289603352547e-04</internalNodes>
          <leafValues>
            -7.2454071044921875e-01 9.8720207810401917e-02</leafValues></_>
        <_>
          <internalNodes>
            0 -1 105 1.2251501902937889e-02</internalNodes>
          <leafValues>
            1.2520276010036469e-01 -6.9210684299468994e-01</leafValues></_>
        <_>
          <internalNodes>
            0 -1 53 -4.8576697707176208e-02</internalNodes>
          <leafValues>
            6.2535333633422852e-01 -1.7253115773200989e-01</leafValues></_>
        <_>
          <internalNodes>
            0 -1 80 1.7535943537950516e-02</internalNodes>
          <leafValues>
            -2.1814511716365814e-01 4.2202156782150269e-01</leafValues></_>
        <_>
          <internalNodes>
            0 -1 39 5.4994814097881317e-02</internalNodes>
          <leafValues>
            -1.2873587012290955e-01 7.0757061243057251e-01</leafValues></_>
        <_>
          <internalNodes>
            0 -1 1 8.1683276221156120e-04</internalNodes>
          <leafValues>
            1.6084039211273193e-01 -6.7178016901016235e-01</leafValues></_>
        <_>
          <internalNodes>
            0 -1 37 9.8274424672126770e-02</internalNodes>
          <leafValues>
            -1.4923799037933350e-01 6.7513000965118408e-01</leafValues></_>
        <_>
          <internalNodes>
            0 -1 4 -6.7331898026168346e-04</internalNodes>
          <leafValues>
            -6.7667484283447266e-01 1.3918814063072205e-01</leafValues></_>
        <_>
          <internalNodes>
            0 -1 44 -1.2715233024209738e-03</internalNodes>
          <leafValues>
            -7.5944548845291138e-01 1.0493122041225433e-01</leafValues></_>
        <_>
          <internalNodes>
            0 -1 21 -6.2636777758598328e-02</internalNodes>
          <leafValues>
            7.6436448097229004e-01 -1.3413916528224945e-01</leafValues></_></weakClassifiers></_>
    <!-- stage 7 -->
    <_>
      <maxWeakCount>15</maxWeakCount>
      <stageThreshold>-1.2321227788925171e+00</stageThreshold>
      <weakClassifiers>
        <_>
          <internalNodes>
            0 -1 38 -7.0581808686256409e-02</internalNodes>
          <leafValues>
            7.6782560348510742e-01 -2.3254029452800751e-01</leafValues></_>
        <_>
          <internalNodes>
            0 -1 73 4.2731344699859619e-02</internalNodes>
          <leafValues>
            -3.4024727344512939e-01 4.2114597558975220e-01</leafValues></_>
        <_>
          <internalNodes>
            0 -1 88 6.6420889925211668e-04</internalNodes>
          <leafValues>
            1.9667629897594452e-01 -5.3012007474899292e-01</leafValues></_>
        <_>
          <internalNodes>
            0 -1 74 7.6371524482965469e-03</internalNodes>
          <leafValues>
            -1.9412037730216980e-01 5.2633792161941528e-01</leafValues></_>
        <_>
          <internalNodes>
            0 -1 22 -1.4612525701522827e-01</internalNodes>
          <leafValues>
            6.4288455247879028e-01 -1.3983716070652008e-01</leafValues></_>
        <_>
          <internalNodes>
            0 -1 48 2.3894848302006721e-02</internalNodes>
          <leafValues>
            -1.2267798930406570e-01 6.6144442558288574e-01</leafValues></_>
        <_>
          <internalNodes>
            0 -1 32 -7.6909862458705902e-02</internalNodes>
          <leafValues>
            6.3903915882110596e-01 -1.7746441066265106e-01</leafValues></_>
        <_>
          <internalNodes>
            0 -1 78 7.8341150656342506e-03</internalNodes>
          <leafValues>
            2.4400252103805542e-01 -3.8976389169692993e-01</leafValues></_>
        <_>
          <internalNodes>
            0 -1 29 1.6109861433506012e-02</internalNodes>
          <leafValues>
            9.8150752484798431e-02 -7.8922539949417114e-01</leafValues></_>
        <_>
          <internalNodes>
            0 -1 3 -4.2288298718631268e-03</internalNodes>
          <leafValues>
            -4.6747446060180664e-01 1.8923896551132202e-01</leafValues></_>
        <_>
          <internalNodes>
            0 -1 92 -1.5153733547776937e-03</internalNodes>
          <leafValues>
            -6.2748390436172485e-01 1.2886361777782440e-01</leafValues></_>
        <_>
          <internalNodes>
            0 -1 13 -1.2817967217415571e-03</internalNodes>
          <leafValues>
            -5.2439308166503906e-01 1.5951940417289734e-01</leafValues></_>
        <_>
          <internalNodes>
            0 -1 70 -5.0716299563646317e-02</internalNodes>
          <leafValues>
            8.0622124671936035e-01 -1.2499924004077911e-01</leafValues></_>
        <_>
          <internalNodes>
            0 -1 60 -2.2022079676389694e-02</internalNodes>
          <leafValues>
            4.7917869687080383e-01 -1.6173124313354492e-01</leafValues></_>
        <_>
          <internalNodes>
            0 -1 58 -9.1068316251039505e-03</internalNodes>
          <leafValues>
            7.4989759922027588e-01 -1.1485178768634796e-01</leafValues></_></weakClassifiers></_>
    <!-- stage 8 -->
    <_>
      <maxWeakCount>16</maxWeakCount>
      <stageThreshold>-8.7096410989761353e-01</stageThreshold>
      <weakClassifiers>
        <_>
          <internalNodes>
            0 -1 50 -5.5191583931446075e-02</internalNodes>
          <leafValues>
            6.8753725290298462e-01 -1.1564625799655914e-01</leafValues></_>
        <_>
          <internalNodes>
            0 -1 85 -1.8868712708353996e-02</internalNodes>
          <leafValues>
            7.7743560075759888e-01 -8.0001093447208405e-02</leafValues></_>
        <_>
          <internalNodes>
            0 -1 42 3.7757914513349533e-02</internalNodes>
          <leafValues>
            -1.2533767521381378e-01 6.2671661376953125e-01</leafValues></_>
        <_>
          <internalNodes>
            0 -1 41 -1.1564375832676888e-02</internalNodes>
          <leafValues>
            6.1797112226486206e-01 -1.6018259525299072e-01</leafValues></_>
        <_>
          <internalNodes>
            0 -1 91 -3.4001708030700684e-02</internalNodes>
          <leafValues>
            -8.9472645521163940e-01 1.0878956317901611e-01</leafValues></_>
        <_>
          <internalNodes>
            0 -1 79 5.5953096598386765e-02</internalNodes>
          <leafValues>
            -1.5226081013679504e-01 6.2220758199691772e-01</leafValues></_>
        <_>
          <internalNodes>
            0 -1 6 1.7616944387555122e-03</internalNodes>
          <leafValues>
            1.4100372791290283e-01 -5.2426713705062866e-01</leafValues></_>
        <_>
          <internalNodes>
            0 -1 7 -2.8992919251322746e-03</internalNodes>
          <leafValues>
            -4.6427127718925476e-01 1.7998768389225006e-01</leafValues></_>
        <_>
          <internalNodes>
            0 -1 19 6.6174496896564960e-04</internalNodes>
          <leafValues>
            8.6919248104095459e-02 -7.8479868173599243e-01</leafValues></_>
        <_>
          <internalNodes>
            0 -1 98 1.3642183039337397e-03</internalNodes>
          <leafValues>
            1.1657246202230453e-01 -6.2853127717971802e-01</leafValues></_>
        <_>
          <internalNodes>
            0 -1 95 -8.7142630945891142e-04</internalNodes>
          <leafValues>
            -6.5237027406692505e-01 1.1574300378561020e-01</leafValues></_>
        <_>
          <internalNodes>
            0 -1 83 -1.5233490616083145e-02</internalNodes>
          <leafValues>
            7.7312350273132324e-01 -1.0274315625429153e-01</leafValues></_>
        <_>
          <internalNodes>
            0 -1 49 1.6318082809448242e-02</internalNodes>
          <leafValues>
            -1.4012089371681213e-01 5.4143285751342773e-01</leafValues></_>
        <_>
          <internalNodes>
            0 -1 89 5.4154673125594854e-04</internalNodes>
          <leafValues>
            2.3893778026103973e-01 -3.3149397373199463e-01</leafValues></_>
        <_>
          <internalNodes>
            0 -1 86 -9.3068480491638184e-02</internalNodes>
          <leafValues>
            8.9917409420013428e-01 -7.5718216598033905e-02</leafValues></_>
        <_>
          <internalNodes>
            0 -1 54 3.2308809459209442e-03</internalNodes>
          <leafValues>
            2.4853338301181793e-01 -3.3647510409355164e-01</leafValues></_></weakClassifiers></_>
    <!-- stage 9 -->
    <_>
      <maxWeakCount>15</maxWeakCount>
      <stageThreshold>-6.8354767560958862e-01</stageThreshold>
      <weakClassifiers>
        <_>
          <internalNodes>
            0 -1 57 -7.1112632751464844e-02</internalNodes>
          <leafValues>
            5.9976458549499512e-01 -1.4604150317609310e-02</leafValues></_>
        <_>
          <internalNodes>
            0 -1 20 -3.2486408948898315e-02</internalNodes>
          <leafValues>
            6.3335776329040527e-01 -1.4825372397899628e-01</leafValues></_>
        <_>
          <internalNodes>
            0 -1 96 9.9346193019300699e-04</internalNodes>
          <leafValues>
            1.4779107272624969e-01 -7.5066357851028442e-01</leafValues></_>
        <_>
          <internalNodes>
            0 -1 63 1.1980289965867996e-01</internalNodes>
          <leafValues>
            -1.0861080884933472e-01 8.8930064439773560e-01</leafValues></_>
        <_>
          <internalNodes>
            0 -1 99 -1.5234430320560932e-03</internalNodes>
          <leafValues>
            -7.8185147047042847e-01 1.0835056006908417e-01</leafValues></_>
        <_>
          <internalNodes>
            0 -1 43 6.3287764787673950e-02</internalNodes>
          <leafValues>
            -1.2785980105400085e-01 7.4013262987136841e-01</leafValues></_>
        <_>
          <internalNodes>
            0 -1 104 1.8473361851647496e-03</internalNodes>
          <leafValues>
            1.5050296485424042e-01 -5.6802856922149658e-01</leafValues></_>
        <_>
          <internalNodes>
            0 -1 103 -1.0998367797583342e-03</internalNodes>
          <leafValues>
            -7.5419563055038452e-01 1.2285299599170685e-01</leafValues></_>
        <_>
          <internalNodes>
            0 -1 76 -2.9742361512035131e-03</internalNodes>
          <leafValues>
            -7.7326565980911255e-01 8.8339187204837799e-02</leafValues></_>
        <_>
          <internalNodes>
            0 -1 9 6.8388582440093160e-04</internalNodes>
          <leafValues>
            1.3505463302135468e-01 -5.2627962827682495e-01</leafValues></_>
        <_>
          <internalNodes>
            0 -1 27 -2.7556593995541334e-03</internalNodes>
          <leafValues>
            -8.1069827079772949e-01 9.7556069493293762e-02</leafValues></_>
        <_>
          <internalNodes>
            0 -1 59 8.9628547430038452e-03</internalNodes>
          <leafValues>
            -1.5567700564861298e-01 5.1048135757446289e-01</leafValues></_>
        <_>
          <internalNodes>
            0 -1 17 1.8712871242314577e-03</internalNodes>
          <leafValues>
            1.2924833595752716e-01 -5.5554169416427612e-01</leafValues></_>
        <_>
          <internalNodes>
            0 -1 81 2.2014416754245758e-02</internalNodes>
          <leafValues>
            -2.2152192890644073e-01 3.3361640572547913e-01</leafValues></_>
        <_>
          <internalNodes>
            0 -1 18 -1.7153384396806359e-03</internalNodes>
          <leafValues>
            -5.9327113628387451e-01 1.1998426169157028e-01</leafValues></_></weakClassifiers></_></stages>
  <features>
    <_>
      <rects>
        <_>
          0 2 3 3 -1.</_>
        <_>
          0 3 3 1 3.</_></rects>
      <tilted>0</tilted></_>
    <_>
      <rects>
        <_>
          0 3 3 1 -1.</_>
        <_>
          1 3 1 1 3.</_></rects>
      <tilted>0</tilted></_>
    <_>
      <rects>
        <_>
          0 3 2 3 -1.</_>
        <_>
          0 4 2 1 3.</_></rects>
      <tilted>0</tilted></_>
    <_>
      <rects>
        <_>
          0 5 1 12 -1.</_>
        <_>
          0 9 1 4 3.</_></rects>
      <tilted>0</tilted></_>
    <_>
      <rects>
        <_>
          0 11 1 3 -1.</_>
        <_>
          0 12 1 1 3.</_></rects>
      <tilted>0</tilted></_>
    <_>
      <rects>
        <_>
          0 11 2 3 -1.</_>
        <_>
          0 12 2 1 3.</_></rects>
      <tilted>0</tilted></_>
    <_>
      <rects>
        <_>
          0 12 2 4 -1.</_>
        <_>
          1 12 1 4 2.</_></rects>
      <tilted>0</tilted></_>
    <_>
      <rects>
        <_>
          0 12 2 6 -1.</_>
        <_>
          1 12 1 6 2.</_></rects>
      <tilted>0</tilted></_>
    <_>
      <rects>
        <_>
          0 12 12 6 -1.</_>
        <_>
          0 12 6 3 2.</_>
        <_>
          6 15 6 3 2.</_></rects>
      <tilted>0</tilted></_>
    <_>
      <rects>
        <_>
          0 13 2 2 -1.</_>
        <_>
          0 14 2 1 2.</_></rects>
      <tilted>0</tilted></_>
    <_>
      <rects>
        <_>
          0 14 3 4 -1.</_>
        <_>
          1 14 1 4 3.</_></rects>
      <tilted>0</tilted></_>
    <_>
      <rects>
        <_>
          1 1 3 1 -1.</_>
        <_>
          2 1 1 1 3.</_></rects>
      <tilted>0</tilted></_>
    <_>
      <rects>
        <_>
          1 1 4 3 -1.</_>
        <_>
          1 2 4 1 3.</_></rects>
      <tilted>0</tilted></_>
    <_>
      <rects>
        <_>
          1 5 4 2 -1.</_>
        <_>
          1 5 2 1 2.</_>
        <_>
          3 6 2 1 2.</_></rects>
      <tilted>0</tilted></_>
    <_>
      <rects>
        <_>
          1 6 4 2 -1.</_>
        <_>
          1 6 2 1 2.</_>
        <_>
          3 7 2 1 2.</_></rects>
      <tilted>0</tilted></_>
    <_>
      <rects>
        <_>
          1 8 1 3 -1.</_>
        <_>
          1 9 1 1 3.</_></rects>
      <tilted>0</tilted></_>
    <_>
      <rects>
        <_>
          1 12 10 6 -1.</_>
        <_>
          1 12 5 3 2.</_>
        <_>
          6 15 5 3 2.</_></rects>
      <tilted>0</tilted></_>
    <_>
      <rects>
        <_>
          1 14 3 2 -1.</_>
        <_>
          2 14 1 2 3.</_></rects>
      <tilted>0</tilted></_>
    <_>
      <rects>
        <_>
          1 14 2 3 -1.</_>
        <_>
          1 15 2 1 3.</_></rects>
      <tilted>0</tilted></_>
    <_>
      <rects>
        <_>
          1 15 2 2 -1.</_>
        <_>
          1 15 1 1 2.</_>
        <_>
          2 16 1 1 2.</_></rects>
      <tilted>0</tilted></_>
    <_>
      <rects>
        <_>
          2 2 10 4 -1.</_>
        <_>
          2 2 5 2 2.</_>
        <_>
          7 4 5 2 2.</_></rects>
      <tilted>0</tilted></_>
    <_>
      <rects>
        <_>
          2 5 9 3 -1.</_>
        <_>
          5 5 3 3 3.</_></rects>
      <tilted>0</tilted></_>
    <_>
      <rects>
        <_>
          2 8 15 2 -1.</_>
        <_>
          7 8 5 2 3.</_></rects>
      <tilted>0</tilted></_>
    <_>
      <rects>
        <_>
          2 8 15 3 -1.</_>
        <_>
          7 8 5 3 3.</_></rects>
      <tilted>0</tilted></_>
    <_>
      <rects>
        <_>
          2 10 1 3 -1.</_>
        <_>
          2 11 1 1 3.</_></rects>
      <tilted>0</tilted></_>
    <_>
      <rects>
        <_>
          2 13 1 3 -1.</_>
        <_>
          2 14 1 1 3.</_></rects>
      <tilted>0</tilted></_>
    <_>
      <rects>
        <_>
          2 14 2 3 -1.</_>
        <_>
          2 15 2 1 3.</_></rects>
      <tilted>0</tilted></_>
    <_>
      <rects>
        <_>
          3 0 2 2 -1.</_>
        <_>
          4 0 1 2 2.</_></rects>
      <tilted>0</tilted></_>
    <_>
      <rects>
        <_>
          3 0 8 10 -1.</_>
        <_>
          3 0 4 5 2.</_>
        <_>
          7 5 4 5 2.</_></rects>
      <tilted>0</tilted></_>
    <_>
      <rects>
        <_>
          3 0 10 1 -1.</_>
        <_>
          8 0 5 1 2.</_></rects>
      <tilted>0</tilted></_>
    <_>
      <rects>
        <_>
          3 1 8 8 -1.</_>
        <_>
          3 1 4 4 2.</_>
        <_>
          7 5 4 4 2.</_></rects>
      <tilted>0</tilted></_>
    <_>
      <rects>
        <_>
          3 4 6 9 -1.</_>
        <_>
          5 4 2 9 3.</_></rects>
      <tilted>0</tilted></_>
    <_>
      <rects>
        <_>
          3 7 9 3 -1.</_>
        <_>
          6 7 3 3 3.</_></rects>
      <tilted>0</tilted></_>
    <_>
      <rects>
        <_>
          3 8 12 3 -1.</_>
        <_>
          7 8 4 3 3.</_></rects>
      <tilted>0</tilted></_>
    <_>
      <rects>
        <_>
          3 8 12 4 -1.</_>
        <_>
          7 8 4 4 3.</_></rects>
      <tilted>0</tilted></_>
    <_>
      <rects>
        <_>
          3 9 12 2 -1.</_>
        <_>
          7 9 4 2 3.</_></rects>
      <tilted>0</tilted></_>
    <_>
      <rects>
        <_>
          4 0 13 6 -1.</_>
        <_>
          4 2 13 2 3.</_></rects>
      <tilted>0</tilted></_>
    <_>
      <rects>
        <_>
          4 5 10 10 -1.</_>
        <_>
          4 5 5 5 2.</_>
        <_>
          9 10 5 5 2.</_></rects>
      <tilted>0</tilted></_>
    <_>
      <rects>
        <_>
          4 8 12 2 -1.</_>
        <_>
          8 8 4 2 3.</_></rects>
      <tilted>0</tilted></_>
    <_>
      <rects>
        <_>
          4 9 6 5 -1.</_>
        <_>
          6 9 2 5 3.</_></rects>
      <tilted>0</tilted></_>
    <_>
      <rects>
        <_>
          4 10 9 3 -1.</_>
        <_>
          7 10 3 3 3.</_></rects>
      <tilted>0</tilted></_>
    <_>
      <rects>
        <_>
          4 12 6 1 -1.</_>
        <_>
          6 12 2 1 3.</_></rects>
      <tilted>0</tilted></_>
    <_>
      <rects>
        <_>
          4 12 6 6 -1.</_>
        <_>
          4 12 3 3 2.</_>
        <_>
          7 15 3 3 2.</_></rects>
      <tilted>0</tilted></_>
    <_>
      <rects>
        <_>
          4 12 8 6 -1.</_>
        <_>
          4 12 4 3 2.</_>
        <_>
          8 15 4 3 2.</_></rects>
      <tilted>0</tilted></_>
    <_>
      <rects>
        <_>
          5 0 2 1 -1.</_>
        <_>
          6 0 1 1 2.</_></rects>
      <tilted>0</tilted></_>
    <_>
      <rects>
        <_>
          5 0 12 1 -1.</_>
        <_>
          11 0 6 1 2.</_></rects>
      <tilted>0</tilted></_>
    <_>
      <rects>
        <_>
          5 0 13 18 -1.</_>
        <_>
          5 6 13 6 3.</_></rects>
      <tilted>0</tilted></_>
    <_>
      <rects>
        <_>
          5 1 10 8 -1.</_>
        <_>
          5 1 5 4 2.</_>
        <_>
          10 5 5 4 2.</_></rects>
      <tilted>0</tilted></_>
    <_>
      <rects>
        <_>
          5 4 6 6 -1.</_>
        <_>
          7 4 2 6 3.</_></rects>
      <tilted>0</tilted></_>
    <_>
      <rects>
        <_>
          5 7 4 6 -1.</_>
        <_>
          5 7 2 3 2.</_>
        <_>
          7 10 2 3 2.</_></rects>
      <tilted>0</tilted></_>
    <_>
      <rects>
        <_>
          5 8 9 2 -1.</_>
        <_>
          8 8 3 2 3.</_></rects>
      <tilted>0</tilted></_>
    <_>
      <rects>
        <_>
          5 8 9 3 -1.</_>
        <_>
          8 8 3 3 3.</_></rects>
      <tilted>0</tilted></_>
    <_>
      <rects>
        <_>
          6 0 10 18 -1.</_>
        <_>
          6 6 10 6 3.</_></rects>
      <tilted>0</tilted></_>
    <_>
      <rects>
        <_>
          6 1 8 8 -1.</_>
        <_>
          6 1 4 4 2.</_>
        <_>
          10 5 4 4 2.</_></rects>
      <tilted>0</tilted></_>
    <_>
      <rects>
        <_>
          6 3 12 6 -1.</_>
        <_>
          6 5 12 2 3.</_></rects>
      <tilted>0</tilted></_>
    <_>
      <rects>
        <_>
          6 7 9 2 -1.</_>
        <_>
          9 7 3 2 3.</_></rects>
      <tilted>0</tilted></_>
    <_>
      <rects>
        <_>
          6 7 9 4 -1.</_>
        <_>
          9 7 3 4 3.</_></rects>
      <tilted>0</tilted></_>
    <_>
      <rects>
        <_>
          6 10 12 8 -1.</_>
        <_>
          6 10 6 4 2.</_>
        <_>
          12 14 6 4 2.</_></rects>
      <tilted>0</tilted></_>
    <_>
      <rects>
        <_>
          6 11 4 4 -1.</_>
        <_>
          6 11 2 2 2.</_>
        <_>
          8 13 2 2 2.</_></rects>
      <tilted>0</tilted></_>
    <_>
      <rects>
        <_>
          6 11 9 1 -1.</_>
        <_>
          9 11 3 1 3.</_></rects>
      <tilted>0</tilted></_>
    <_>
      <rects>
        <_>
          6 14 10 4 -1.</_>
        <_>
          6 14 5 2 2.</_>
        <_>
          11 16 5 2 2.</_></rects>
      <tilted>0</tilted></_>
    <_>
      <rects>
        <_>
          7 0 10 12 -1.</_>
        <_>
          7 0 5 6 2.</_>
        <_>
          12 6 5 6 2.</_></rects>
      <tilted>0</tilted></_>
    <_>
      <rects>
        <_>
          7 0 8 18 -1.</_>
        <_>
          7 6 8 6 3.</_></rects>
      <tilted>0</tilted></_>
    <_>
      <rects>
        <_>
          7 5 6 10 -1.</_>
        <_>
          7 5 3 5 2.</_>
        <_>
          10 10 3 5 2.</_></rects>
      <tilted>0</tilted></_>
    <_>
      <rects>
        <_>
          7 11 9 2 -1.</_>
        <_>
          10 11 3 2 3.</_></rects>
      <tilted>0</tilted></_>
    <_>
      <rects>
        <_>
          8 0 3 1 -1.</_>
        <_>
          9 0 1 1 3.</_></rects>
      <tilted>0</tilted></_>
    <_>
      <rects>
        <_>
          8 0 8 10 -1.</_>
        <_>
          8 0 4 5 2.</_>
        <_>
          12 5 4 5 2.</_></rects>
      <tilted>0</tilted></_>
    <_>
      <rects>
        <_>
          8 1 6 10 -1.</_>
        <_>
          8 1 3 5 2.</_>
        <_>
          11 6 3 5 2.</_></rects>
      <tilted>0</tilted></_>
    <_>
      <rects>
        <_>
          8 1 6 8 -1.</_>
        <_>
          8 5 6 4 2.</_></rects>
      <tilted>0</tilted></_>
    <_>
      <rects>
        <_>
          8 6 6 5 -1.</_>
        <_>
          10 6 2 5 3.</_></rects>
      <tilted>0</tilted></_>
    <_>
      <rects>
        <_>
          8 6 4 10 -1.</_>
        <_>
          8 6 2 5 2.</_>
        <_>
          10 11 2 5 2.</_></rects>
      <tilted>0</tilted></_>
    <_>
      <rects>
        <_>
          8 7 6 3 -1.</_>
        <_>
          10 7 2 3 3.</_></rects>
      <tilted>0</tilted></_>
    <_>
      <rects>
        <_>
          8 8 10 10 -1.</_>
        <_>
          8 8 5 5 2.</_>
        <_>
          13 13 5 5 2.</_></rects>
      <tilted>0</tilted></_>
    <_>
      <rects>
        <_>
          8 9 6 4 -1.</_>
        <_>
          11 9 3 4 2.</_></rects>
      <tilted>0</tilted></_>
    <_>
      <rects>
        <_>
          8 10 6 1 -1.</_>
        <_>
          10 10 2 1 3.</_></rects>
      <tilted>0</tilted></_>
    <_>
      <rects>
        <_>
          8 11 6 2 -1.</_>
        <_>
          10 11 2 2 3.</_></rects>
      <tilted>0</tilted></_>
    <_>
      <rects>
        <_>
          9 0 3 2 -1.</_>
        <_>
          10 0 1 2 3.</_></rects>
      <tilted>0</tilted></_>
    <_>
      <rects>
        <_>
          9 0 1 18 -1.</_>
        <_>
          9 6 1 6 3.</_></rects>
      <tilted>0</tilted></_>
    <_>
      <rects>
        <_>
          9 1 6 2 -1.</_>
        <_>
          12 1 3 2 2.</_></rects>
      <tilted>0</tilted></_>
    <_>
      <rects>
        <_>
          9 4 6 8 -1.</_>
        <_>
          9 4 3 4 2.</_>
        <_>
          12 8 3 4 2.</_></rects>
      <tilted>0</tilted></_>
    <_>
      <rects>
        <_>
          9 7 6 3 -1.</_>
        <_>
          11 7 2 3 3.</_></rects>
      <tilted>0</tilted></_>
    <_>
      <rects>
        <_>
          9 9 4 2 -1.</_>
        <_>
          11 9 2 2 2.</_></rects>
      <tilted>0</tilted></_>
    <_>
      <rects>
        <_>
          9 10 6 4 -1.</_>
        <_>
          11 10 2 4 3.</_></rects>
      <tilted>0</tilted></_>
    <_>
      <rects>
        <_>
          9 12 2 6 -1.</_>
        <_>
          9 14 2 2 3.</_></rects>
      <tilted>0</tilted></_>
    <_>
      <rects>
        <_>
          9 14 6 4 -1.</_>
        <_>
          9 14 3 2 2.</_>
        <_>
          12 16 3 2 2.</_></rects>
      <tilted>0</tilted></_>
    <_>
      <rects>
        <_>
          10 1 1 6 -1.</_>
        <_>
          10 4 1 3 2.</_></rects>
      <tilted>0</tilted></_>
    <_>
      <rects>
        <_>
          10 4 3 9 -1.</_>
        <_>
          10 7 3 3 3.</_></rects>
      <tilted>0</tilted></_>
    <_>
      <rects>
        <_>
          11 0 6 1 -1.</_>
        <_>
          14 0 3 1 2.</_></rects>
      <tilted>0</tilted></_>
    <_>
      <rects>
        <_>
          13 16 2 1 -1.</_>
        <_>
          14 16 1 1 2.</_></rects>
      <tilted>0</tilted></_>
    <_>
      <rects>
        <_>
          14 0 4 1 -1.</_>
        <_>
          16 0 2 1 2.</_></rects>
      <tilted>0</tilted></_>
    <_>
      <rects>
        <_>
          14 0 4 2 -1.</_>
        <_>
          14 0 2 1 2.</_>
        <_>
          16 1 2 1 2.</_></rects>
      <tilted>0</tilted></_>
    <_>
      <rects>
        <_>
          14 7 4 11 -1.</_>
        <_>
          16 7 2 11 2.</_></rects>
      <tilted>0</tilted></_>
    <_>
      <rects>
        <_>
          14 15 3 2 -1.</_>
        <_>
          14 16 3 1 2.</_></rects>
      <tilted>0</tilted></_>
    <_>
      <rects>
        <_>
          14 15 4 3 -1.</_>
        <_>
          14 16 4 1 3.</_></rects>
      <tilted>0</tilted></_>
    <_>
      <rects>
        <_>
          14 17 3 1 -1.</_>
        <_>
          15 17 1 1 3.</_></rects>
      <tilted>0</tilted></_>
    <_>
      <rects>
        <_>
          15 0 3 1 -1.</_>
        <_>
          16 0 1 1 3.</_></rects>
      <tilted>0</tilted></_>
    <_>
      <rects>
        <_>
          15 11 2 2 -1.</_>
        <_>
          15 11 1 1 2.</_>
        <_>
          16 12 1 1 2.</_></rects>
      <tilted>0</tilted></_>
    <_>
      <rects>
        <_>
          15 11 2 3 -1.</_>
        <_>
          15 12 2 1 3.</_></rects>
      <tilted>0</tilted></_>
    <_>
      <rects>
        <_>
          16 0 2 4 -1.</_>
        <_>
          16 0 1 2 2.</_>
        <_>
          17 2 1 2 2.</_></rects>
      <tilted>0</tilted></_>
    <_>
      <rects>
        <_>
          16 6 1 3 -1.</_>
        <_>
          16 7 1 1 3.</_></rects>
      <tilted>0</tilted></_>
    <_>
      <rects>
        <_>
          16 10 2 4 -1.</_>
        <_>
          16 10 1 2 2.</_>
        <_>
          17 12 1 2 2.</_></rects>
      <tilted>0</tilted></_>
    <_>
      <rects>
        <_>
          16 12 1 3 -1.</_>
        <_>
          16 13 1 1 3.</_></rects>
      <tilted>0</tilted></_>
    <_>
      <rects>
        <_>
          16 13 2 1 -1.</_>
        <_>
          17 13 1 1 2.</_></rects>
      <tilted>0</tilted></_>
    <_>
      <rects>
        <_>
          16 15 2 1 -1.</_>
        <_>
          17 15 1 1 2.</_></rects>
      <tilted>0</tilted></_>
    <_>
      <rects>
        <_>
          16 15 2 3 -1.</_>
        <_>
          17 15 1 3 2.</_></rects>
      <tilted>0</tilted></_>
    <_>
      <rects>
        <_>
          17 2 1 14 -1.</_>
        <_>
          17 9 1 7 2.</_></rects>
      <tilted>0</tilted></_>
    <_>
      <rects>
        <_>
          17 11 1 2 -1.</_>
        <_>
          17 12 1 1 2.</_></rects>
      <tilted>0</tilted></_></features></cascade>
</opencv_storage>
