<?xml version="1.0"?>
<opencv_storage>
<stage1>
  <maxWeakCount>8</maxWeakCount>
  <stageThreshold>-7.5050157308578491e-01</stageThreshold>
  <weakClassifiers>
    <_>
      <internalNodes>
        0 -1 19043 -8.7437555193901062e-02</internalNodes>
      <leafValues>
        8.9576172828674316e-01 -4.4976076483726501e-01</leafValues></_>
    <_>
      <internalNodes>
        0 -1 27433 -6.7940972745418549e-02</internalNodes>
      <leafValues>
        8.4789973497390747e-01 -1.6181333363056183e-01</leafValues></_>
    <_>
      <internalNodes>
        0 -1 10644 8.0609571887180209e-04</internalNodes>
      <leafValues>
        2.5201144814491272e-01 -9.2459332942962646e-01</leafValues></_>
    <_>
      <internalNodes>
        0 -1 37351 3.7386920303106308e-02</internalNodes>
      <leafValues>
        -2.3247382044792175e-01 8.0671930313110352e-01</leafValues></_>
    <_>
      <internalNodes>
        0 -1 36166 -7.7770739793777466e-02</internalNodes>
      <leafValues>
        5.7295858860015869e-01 -3.5545468330383301e-01</leafValues></_>
    <_>
      <internalNodes>
        0 -1 10295 5.3150661289691925e-02</internalNodes>
      <leafValues>
        -2.0859768986701965e-01 7.5355839729309082e-01</leafValues></_>
    <_>
      <internalNodes>
        0 -1 51686 6.2147190328687429e-04</internalNodes>
      <leafValues>
        2.6004067063331604e-01 -6.2515664100646973e-01</leafValues></_>
    <_>
      <internalNodes>
        0 -1 1730 8.6884503252804279e-04</internalNodes>
      <leafValues>
        1.4554663002490997e-01 -7.4112766981124878e-01</leafValues></_></weakClassifiers></stage1>
</opencv_storage>
