<?xml version="1.0"?>
<opencv_storage>
<stage4>
  <maxWeakCount>9</maxWeakCount>
  <stageThreshold>-8.9978420734405518e-01</stageThreshold>
  <weakClassifiers>
    <_>
      <internalNodes>
        0 -1 32600 8.1062167882919312e-02</internalNodes>
      <leafValues>
        -3.0593606829643250e-01 7.0078742504119873e-01</leafValues></_>
    <_>
      <internalNodes>
        0 -1 27428 -6.4373001456260681e-02</internalNodes>
      <leafValues>
        6.9360244274139404e-01 -2.0529763400554657e-01</leafValues></_>
    <_>
      <internalNodes>
        0 -1 28955 -1.8240308761596680e-01</internalNodes>
      <leafValues>
        3.6355984210968018e-01 -4.2272469401359558e-01</leafValues></_>
    <_>
      <internalNodes>
        0 -1 15526 2.6843361556529999e-03</internalNodes>
      <leafValues>
        1.3924050331115723e-01 -8.4539729356765747e-01</leafValues></_>
    <_>
      <internalNodes>
        0 -1 50236 1.5257110353559256e-03</internalNodes>
      <leafValues>
        1.1332254111766815e-01 -8.2688659429550171e-01</leafValues></_>
    <_>
      <internalNodes>
        0 -1 35138 1.0673688724637032e-02</internalNodes>
      <leafValues>
        -3.1132078170776367e-01 3.4985309839248657e-01</leafValues></_>
    <_>
      <internalNodes>
        0 -1 41276 -2.0959096029400826e-02</internalNodes>
      <leafValues>
        7.9916447401046753e-01 -1.6315956413745880e-01</leafValues></_>
    <_>
      <internalNodes>
        0 -1 24945 -1.5782428905367851e-02</internalNodes>
      <leafValues>
        -9.0060299634933472e-01 1.2403219193220139e-01</leafValues></_>
    <_>
      <internalNodes>
        0 -1 1780 1.4093082863837481e-03</internalNodes>
      <leafValues>
        1.3205930590629578e-01 -7.2129172086715698e-01</leafValues></_></weakClassifiers></stage4>
</opencv_storage>
