<?xml version="1.0"?>
<opencv_storage>
<stage1>
  <maxWeakCount>6</maxWeakCount>
  <stageThreshold>-6.7556077241897583e-01</stageThreshold>
  <weakClassifiers>
    <_>
      <internalNodes>
        0 -1 26563 -3.8527838885784149e-02</internalNodes>
      <leafValues>
        1.6597969532012939e+00 -3.9966642856597900e-01</leafValues></_>
    <_>
      <internalNodes>
        0 -1 39174 -9.5421690493822098e-03</internalNodes>
      <leafValues>
        1.7081905603408813e+00 -3.3882626891136169e-01</leafValues></_>
    <_>
      <internalNodes>
        0 -1 43616 -2.9661722481250763e-02</internalNodes>
      <leafValues>
        1.7970297336578369e+00 -3.6626377701759338e-01</leafValues></_>
    <_>
      <internalNodes>
        0 -1 36255 -8.8681895285844803e-03</internalNodes>
      <leafValues>
        1.4768294095993042e+00 -4.0310209989547729e-01</leafValues></_>
    <_>
      <internalNodes>
        0 -1 57205 1.4750005677342415e-02</internalNodes>
      <leafValues>
        -3.1391367316246033e-01 1.2674314975738525e+00</leafValues></_>
    <_>
      <internalNodes>
        0 -1 53279 -3.9204861968755722e-03</internalNodes>
      <leafValues>
        1.1462115049362183e+00 -2.6072368025779724e-01</leafValues></_></weakClassifiers></stage1>
</opencv_storage>
