<?xml version="1.0"?>
<opencv_storage>
<stage2>
  <maxWeakCount>11</maxWeakCount>
  <stageThreshold>-1.6432759761810303e+00</stageThreshold>
  <weakClassifiers>
    <_>
      <internalNodes>
        0 -1 45829 -6.7176163196563721e-02</internalNodes>
      <leafValues>
        1.0030846595764160e+00 -4.8825478553771973e-01</leafValues></_>
    <_>
      <internalNodes>
        0 -1 33253 -3.9557754993438721e-02</internalNodes>
      <leafValues>
        1.2051967382431030e+00 -3.2094562053680420e-01</leafValues></_>
    <_>
      <internalNodes>
        0 -1 32736 -3.0417375266551971e-02</internalNodes>
      <leafValues>
        8.1896525621414185e-01 -3.0162128806114197e-01</leafValues></_>
    <_>
      <internalNodes>
        0 -1 53952 -1.3581752777099609e-02</internalNodes>
      <leafValues>
        6.7277675867080688e-01 -3.1478589773178101e-01</leafValues></_>
    <_>
      <internalNodes>
        0 -1 48355 -3.9045330137014389e-02</internalNodes>
      <leafValues>
        7.9960978031158447e-01 -3.0547535419464111e-01</leafValues></_>
    <_>
      <internalNodes>
        0 -1 26828 -4.5004978775978088e-02</internalNodes>
      <leafValues>
        1.0345605611801147e+00 -1.3603645563125610e-01</leafValues></_>
    <_>
      <internalNodes>
        0 -1 37513 2.5056207552552223e-02</internalNodes>
      <leafValues>
        -2.3235717415809631e-01 1.0249407291412354e+00</leafValues></_>
    <_>
      <internalNodes>
        0 -1 77638 -1.1569359339773655e-03</internalNodes>
      <leafValues>
        -9.6424609422683716e-01 1.7458437383174896e-01</leafValues></_>
    <_>
      <internalNodes>
        0 -1 52435 -6.8454831838607788e-02</internalNodes>
      <leafValues>
        1.6535302400588989e+00 -1.2854942679405212e-01</leafValues></_>
    <_>
      <internalNodes>
        0 -1 53256 2.4803891777992249e-02</internalNodes>
      <leafValues>
        -1.8085718154907227e-01 7.9864978790283203e-01</leafValues></_>
    <_>
      <internalNodes>
        0 -1 10845 -1.2105533853173256e-02</internalNodes>
      <leafValues>
        -6.2875658273696899e-01 2.0371101796627045e-01</leafValues></_></weakClassifiers></stage2>
</opencv_storage>
