<?xml version="1.0"?>
<opencv_storage>
<stage11>
  <maxWeakCount>30</maxWeakCount>
  <stageThreshold>-9.5995730161666870e-01</stageThreshold>
  <weakClassifiers>
    <_>
      <internalNodes>
        0 -1 43979 -5.0579331815242767e-02</internalNodes>
      <leafValues>
        6.0026669502258301e-01 -8.3356827497482300e-02</leafValues></_>
    <_>
      <internalNodes>
        0 -1 22551 -6.0435440391302109e-03</internalNodes>
      <leafValues>
        -4.8150044679641724e-01 1.8680675327777863e-01</leafValues></_>
    <_>
      <internalNodes>
        0 -1 37370 -2.4561485275626183e-02</internalNodes>
      <leafValues>
        -6.1886143684387207e-01 1.0575111955404282e-01</leafValues></_>
    <_>
      <internalNodes>
        0 -1 76248 4.6477988362312317e-03</internalNodes>
      <leafValues>
        1.3333483040332794e-01 -4.7000440955162048e-01</leafValues></_>
    <_>
      <internalNodes>
        0 -1 41491 -6.9039938971400261e-03</internalNodes>
      <leafValues>
        7.1101522445678711e-01 -9.1564312577247620e-02</leafValues></_>
    <_>
      <internalNodes>
        0 -1 55792 7.6665366068482399e-03</internalNodes>
      <leafValues>
        -2.4365955591201782e-01 2.8601798415184021e-01</leafValues></_>
    <_>
      <internalNodes>
        0 -1 77914 -4.7022136859595776e-03</internalNodes>
      <leafValues>
        -5.9121662378311157e-01 1.1424494534730911e-01</leafValues></_>
    <_>
      <internalNodes>
        0 -1 136 -2.1776664070785046e-03</internalNodes>
      <leafValues>
        -6.4276432991027832e-01 9.0269915759563446e-02</leafValues></_>
    <_>
      <internalNodes>
        0 -1 70837 -1.3183641247451305e-02</internalNodes>
      <leafValues>
        -8.9534848928451538e-01 7.9198107123374939e-02</leafValues></_>
    <_>
      <internalNodes>
        0 -1 49245 -1.9545815885066986e-02</internalNodes>
      <leafValues>
        5.6821060180664063e-01 -1.0491368919610977e-01</leafValues></_>
    <_>
      <internalNodes>
        0 -1 60317 -6.4245119690895081e-02</internalNodes>
      <leafValues>
        1.0061110258102417e+00 -9.4821259379386902e-02</leafValues></_>
    <_>
      <internalNodes>
        0 -1 50668 1.3812309131026268e-02</internalNodes>
      <leafValues>
        -7.2522878646850586e-02 9.4918757677078247e-01</leafValues></_>
    <_>
      <internalNodes>
        0 -1 35182 -6.1662970110774040e-03</internalNodes>
      <leafValues>
        5.8251321315765381e-01 -1.1411063373088837e-01</leafValues></_>
    <_>
      <internalNodes>
        0 -1 68407 2.1691936999559402e-02</internalNodes>
      <leafValues>
        7.4679218232631683e-02 -1.1103935241699219e+00</leafValues></_>
    <_>
      <internalNodes>
        0 -1 34180 2.1826459560543299e-03</internalNodes>
      <leafValues>
        1.4634592831134796e-01 -3.6210331320762634e-01</leafValues></_>
    <_>
      <internalNodes>
        0 -1 32368 -8.7005570530891418e-03</internalNodes>
      <leafValues>
        4.3909901380538940e-01 -1.2085351347923279e-01</leafValues></_>
    <_>
      <internalNodes>
        0 -1 32964 8.9075863361358643e-03</internalNodes>
      <leafValues>
        -1.0397930443286896e-01 5.4622429609298706e-01</leafValues></_>
    <_>
      <internalNodes>
        0 -1 48759 2.3381598293781281e-02</internalNodes>
      <leafValues>
        -6.5294109284877777e-02 1.0693655014038086e+00</leafValues></_>
    <_>
      <internalNodes>
        0 -1 36129 -2.3183263838291168e-02</internalNodes>
      <leafValues>
        2.6320174336433411e-01 -2.0821855962276459e-01</leafValues></_>
    <_>
      <internalNodes>
        0 -1 9657 -1.6393967671319842e-03</internalNodes>
      <leafValues>
        -6.9526046514511108e-01 7.7046498656272888e-02</leafValues></_>
    <_>
      <internalNodes>
        0 -1 77735 -1.9014230929315090e-03</internalNodes>
      <leafValues>
        -4.3291145563125610e-01 1.1680786311626434e-01</leafValues></_>
    <_>
      <internalNodes>
        0 -1 63916 1.6087729483842850e-02</internalNodes>
      <leafValues>
        -8.2122743129730225e-02 6.5984237194061279e-01</leafValues></_>
    <_>
      <internalNodes>
        0 -1 24577 -4.3012712150812149e-02</internalNodes>
      <leafValues>
        6.2985527515411377e-01 -9.4333708286285400e-02</leafValues></_>
    <_>
      <internalNodes>
        0 -1 30768 1.0461138561367989e-02</internalNodes>
      <leafValues>
        -1.7054407298564911e-01 3.8147270679473877e-01</leafValues></_>
    <_>
      <internalNodes>
        0 -1 52942 -2.5935028679668903e-03</internalNodes>
      <leafValues>
        1.8649385869503021e-01 -2.9038792848587036e-01</leafValues></_>
    <_>
      <internalNodes>
        0 -1 75379 2.1496107801795006e-03</internalNodes>
      <leafValues>
        6.8725310266017914e-02 -8.1500494480133057e-01</leafValues></_>
    <_>
      <internalNodes>
        0 -1 31625 -1.4895912026986480e-03</internalNodes>
      <leafValues>
        -2.1337942779064178e-01 2.2284555435180664e-01</leafValues></_>
    <_>
      <internalNodes>
        0 -1 35395 1.9347213208675385e-02</internalNodes>
      <leafValues>
        -1.1311368644237518e-01 4.5742169022560120e-01</leafValues></_>
    <_>
      <internalNodes>
        0 -1 21821 1.9703474827110767e-03</internalNodes>
      <leafValues>
        8.4104746580123901e-02 -7.3956704139709473e-01</leafValues></_>
    <_>
      <internalNodes>
        0 -1 21045 -5.4619507864117622e-03</internalNodes>
      <leafValues>
        4.1306555271148682e-01 -1.3643212616443634e-01</leafValues></_></weakClassifiers></stage11>
</opencv_storage>
