<?xml version="1.0"?>
<opencv_storage>
<stage18>
  <maxWeakCount>32</maxWeakCount>
  <stageThreshold>-9.0826195478439331e-01</stageThreshold>
  <weakClassifiers>
    <_>
      <internalNodes>
        0 -1 7571 -3.7646211683750153e-02</internalNodes>
      <leafValues>
        -2.7532356977462769e-01 4.3901807069778442e-01</leafValues></_>
    <_>
      <internalNodes>
        0 -1 19408 -1.8354304134845734e-01</internalNodes>
      <leafValues>
        2.2601476311683655e-01 -3.2865121960639954e-01</leafValues></_>
    <_>
      <internalNodes>
        0 -1 61362 3.5359337925910950e-02</internalNodes>
      <leafValues>
        -1.2891340255737305e-01 4.9847626686096191e-01</leafValues></_>
    <_>
      <internalNodes>
        0 -1 29109 -6.0459643602371216e-02</internalNodes>
      <leafValues>
        2.8805759549140930e-01 -2.8526148200035095e-01</leafValues></_>
    <_>
      <internalNodes>
        0 -1 6178 -5.6810371577739716e-02</internalNodes>
      <leafValues>
        5.7001715898513794e-01 -8.9697681367397308e-02</leafValues></_>
    <_>
      <internalNodes>
        0 -1 25387 -4.6942482003942132e-04</internalNodes>
      <leafValues>
        -2.5396347045898438e-01 2.1544957160949707e-01</leafValues></_>
    <_>
      <internalNodes>
        0 -1 42553 -1.3235879596322775e-03</internalNodes>
      <leafValues>
        -2.6071932911872864e-01 2.1984410285949707e-01</leafValues></_>
    <_>
      <internalNodes>
        0 -1 77857 -1.8967805663123727e-03</internalNodes>
      <leafValues>
        -3.5371908545494080e-01 1.4638993144035339e-01</leafValues></_>
    <_>
      <internalNodes>
        0 -1 56047 2.0006294362246990e-03</internalNodes>
      <leafValues>
        -5.6858301162719727e-02 1.1753164529800415e+00</leafValues></_>
    <_>
      <internalNodes>
        0 -1 40229 -2.1482688188552856e-01</internalNodes>
      <leafValues>
        -7.3914378881454468e-01 7.3150426149368286e-02</leafValues></_>
    <_>
      <internalNodes>
        0 -1 21499 -3.4105037339031696e-03</internalNodes>
      <leafValues>
        -5.7231086492538452e-01 9.9488340318202972e-02</leafValues></_>
    <_>
      <internalNodes>
        0 -1 75902 -6.2792403623461723e-03</internalNodes>
      <leafValues>
        -5.0349575281143188e-01 8.9151106774806976e-02</leafValues></_>
    <_>
      <internalNodes>
        0 -1 75243 5.0598615780472755e-03</internalNodes>
      <leafValues>
        7.8643292188644409e-02 -6.7536336183547974e-01</leafValues></_>
    <_>
      <internalNodes>
        0 -1 43143 -2.7882218360900879e-02</internalNodes>
      <leafValues>
        -6.3527315855026245e-01 8.1101045012474060e-02</leafValues></_>
    <_>
      <internalNodes>
        0 -1 38147 -4.7598849050700665e-03</internalNodes>
      <leafValues>
        4.2010572552680969e-01 -1.4165006577968597e-01</leafValues></_>
    <_>
      <internalNodes>
        0 -1 48815 -7.8059704974293709e-03</internalNodes>
      <leafValues>
        7.7879214286804199e-01 -9.0764366090297699e-02</leafValues></_>
    <_>
      <internalNodes>
        0 -1 33648 8.7890289723873138e-03</internalNodes>
      <leafValues>
        -1.3213577866554260e-01 4.4164052605628967e-01</leafValues></_>
    <_>
      <internalNodes>
        0 -1 78295 -5.0663808360695839e-04</internalNodes>
      <leafValues>
        -3.1507906317710876e-01 1.6271711885929108e-01</leafValues></_>
    <_>
      <internalNodes>
        0 -1 43582 1.6034878790378571e-02</internalNodes>
      <leafValues>
        -8.5433103144168854e-02 7.2127968072891235e-01</leafValues></_>
    <_>
      <internalNodes>
        0 -1 44081 -8.6351633071899414e-03</internalNodes>
      <leafValues>
        4.0884038805961609e-01 -1.7269372940063477e-01</leafValues></_>
    <_>
      <internalNodes>
        0 -1 50102 1.8911459483206272e-03</internalNodes>
      <leafValues>
        1.3301108777523041e-01 -4.1557681560516357e-01</leafValues></_>
    <_>
      <internalNodes>
        0 -1 53213 -1.2774222996085882e-03</internalNodes>
      <leafValues>
        1.4893065392971039e-01 -3.1672266125679016e-01</leafValues></_>
    <_>
      <internalNodes>
        0 -1 26763 -2.6913019828498363e-03</internalNodes>
      <leafValues>
        7.9443418979644775e-01 -7.3938153684139252e-02</leafValues></_>
    <_>
      <internalNodes>
        0 -1 5357 -1.2668650597333908e-02</internalNodes>
      <leafValues>
        -8.3093130588531494e-01 8.4819734096527100e-02</leafValues></_>
    <_>
      <internalNodes>
        0 -1 6524 -1.2651050090789795e-01</internalNodes>
      <leafValues>
        -1.2753130197525024e+00 5.8744966983795166e-02</leafValues></_>
    <_>
      <internalNodes>
        0 -1 75001 2.6937461370835081e-05</internalNodes>
      <leafValues>
        -2.3209799826145172e-01 2.3906891047954559e-01</leafValues></_>
    <_>
      <internalNodes>
        0 -1 51449 3.8519039750099182e-02</internalNodes>
      <leafValues>
        -2.1099804341793060e-01 2.6975649595260620e-01</leafValues></_>
    <_>
      <internalNodes>
        0 -1 55434 4.8933681100606918e-03</internalNodes>
      <leafValues>
        -6.8743340671062469e-02 1.1831976175308228e+00</leafValues></_>
    <_>
      <internalNodes>
        0 -1 28776 -8.2575641572475433e-03</internalNodes>
      <leafValues>
        2.1025428771972656e+00 -5.3502503782510757e-02</leafValues></_>
    <_>
      <internalNodes>
        0 -1 50167 1.4135623350739479e-03</internalNodes>
      <leafValues>
        1.8935176730155945e-01 -3.5235196352005005e-01</leafValues></_>
    <_>
      <internalNodes>
        0 -1 5698 -1.8602348864078522e-03</internalNodes>
      <leafValues>
        -4.4867429137229919e-01 1.2444844841957092e-01</leafValues></_>
    <_>
      <internalNodes>
        0 -1 32054 3.1056141480803490e-02</internalNodes>
      <leafValues>
        -9.8832987248897552e-02 5.6140846014022827e-01</leafValues></_></weakClassifiers></stage18>
</opencv_storage>
