<?xml version="1.0"?>
<opencv_storage>
<cascade>
  <stageType>BOOST</stageType>
  <featureType>HAAR</featureType>
  <height>18</height>
  <width>18</width>
  <stageParams>
    <boostType>GAB</boostType>
    <minHitRate>9.9500000476837158e-01</minHitRate>
    <maxFalseAlarm>5.0000000000000000e-01</maxFalseAlarm>
    <weightTrimRate>9.4999999999999996e-01</weightTrimRate>
    <maxDepth>1</maxDepth>
    <maxWeakCount>100</maxWeakCount></stageParams>
  <featureParams>
    <maxCatCount>0</maxCatCount>
    <featSize>1</featSize>
    <mode>BASIC</mode></featureParams>
  <stageNum>10</stageNum>
  <stages>
    <!-- stage 0 -->
    <_>
      <maxWeakCount>7</maxWeakCount>
      <stageThreshold>-1.3826677799224854e+00</stageThreshold>
      <weakClassifiers>
        <_>
          <internalNodes>
            0 -1 14 -1.0338764637708664e-01</internalNodes>
          <leafValues>
            8.7077236175537109e-01 -7.1148186922073364e-01</leafValues></_>
        <_>
          <internalNodes>
            0 -1 61 -9.6136212348937988e-02</internalNodes>
          <leafValues>
            7.6594775915145874e-01 -5.8267927169799805e-01</leafValues></_>
        <_>
          <internalNodes>
            0 -1 67 1.0811921209096909e-02</internalNodes>
          <leafValues>
            -3.2843720912933350e-01 7.5396913290023804e-01</leafValues></_>
        <_>
          <internalNodes>
            0 -1 69 7.1646034717559814e-02</internalNodes>
          <leafValues>
            -3.2059794664382935e-01 7.5855386257171631e-01</leafValues></_>
        <_>
          <internalNodes>
            0 -1 108 6.4264452084898949e-03</internalNodes>
          <leafValues>
            2.4438363313674927e-01 -8.0526643991470337e-01</leafValues></_>
        <_>
          <internalNodes>
            0 -1 73 -2.4791555479168892e-02</internalNodes>
          <leafValues>
            7.4932879209518433e-01 -2.8921201825141907e-01</leafValues></_>
        <_>
          <internalNodes>
            0 -1 33 -1.3041866011917591e-02</internalNodes>
          <leafValues>
            6.0535681247711182e-01 -3.6020457744598389e-01</leafValues></_></weakClassifiers></_>
    <!-- stage 1 -->
    <_>
      <maxWeakCount>6</maxWeakCount>
      <stageThreshold>-1.3343349695205688e+00</stageThreshold>
      <weakClassifiers>
        <_>
          <internalNodes>
            0 -1 16 -6.5644890069961548e-02</internalNodes>
          <leafValues>
            8.4963953495025635e-01 -6.1436671018600464e-01</leafValues></_>
        <_>
          <internalNodes>
            0 -1 83 -2.3499503731727600e-02</internalNodes>
          <leafValues>
            6.2790286540985107e-01 -5.9744453430175781e-01</leafValues></_>
        <_>
          <internalNodes>
            0 -1 27 -1.9454244524240494e-02</internalNodes>
          <leafValues>
            7.5289589166641235e-01 -3.4908914566040039e-01</leafValues></_>
        <_>
          <internalNodes>
            0 -1 86 4.0130019187927246e-02</internalNodes>
          <leafValues>
            -2.7396041154861450e-01 8.2399863004684448e-01</leafValues></_>
        <_>
          <internalNodes>
            0 -1 20 -2.8857357800006866e-02</internalNodes>
          <leafValues>
            8.2280218601226807e-01 -2.1834152936935425e-01</leafValues></_>
        <_>
          <internalNodes>
            0 -1 93 1.3218581676483154e-02</internalNodes>
          <leafValues>
            -2.2399887442588806e-01 7.1886730194091797e-01</leafValues></_></weakClassifiers></_>
    <!-- stage 2 -->
    <_>
      <maxWeakCount>9</maxWeakCount>
      <stageThreshold>-1.0732468366622925e+00</stageThreshold>
      <weakClassifiers>
        <_>
          <internalNodes>
            0 -1 15 -4.3589383363723755e-02</internalNodes>
          <leafValues>
            8.5649716854095459e-01 -4.1951218247413635e-01</leafValues></_>
        <_>
          <internalNodes>
            0 -1 62 6.7054972052574158e-02</internalNodes>
          <leafValues>
            -4.1988077759742737e-01 5.6920909881591797e-01</leafValues></_>
        <_>
          <internalNodes>
            0 -1 27 -2.5184165686368942e-02</internalNodes>
          <leafValues>
            7.8734147548675537e-01 -3.0499520897865295e-01</leafValues></_>
        <_>
          <internalNodes>
            0 -1 95 -2.9991095885634422e-02</internalNodes>
          <leafValues>
            7.3370867967605591e-01 -2.4295391142368317e-01</leafValues></_>
        <_>
          <internalNodes>
            0 -1 80 -2.7823500335216522e-02</internalNodes>
          <leafValues>
            7.6210373640060425e-01 -2.2411480545997620e-01</leafValues></_>
        <_>
          <internalNodes>
            0 -1 21 -2.6376683264970779e-02</internalNodes>
          <leafValues>
            7.5961142778396606e-01 -1.8002510070800781e-01</leafValues></_>
        <_>
          <internalNodes>
            0 -1 84 3.4444261342287064e-02</internalNodes>
          <leafValues>
            -1.6579014062881470e-01 7.6081156730651855e-01</leafValues></_>
        <_>
          <internalNodes>
            0 -1 71 -2.3645080626010895e-02</internalNodes>
          <leafValues>
            6.5860140323638916e-01 -1.9095405936241150e-01</leafValues></_>
        <_>
          <internalNodes>
            0 -1 35 2.0032558590173721e-02</internalNodes>
          <leafValues>
            2.2542388737201691e-01 -6.2110871076583862e-01</leafValues></_></weakClassifiers></_>
    <!-- stage 3 -->
    <_>
      <maxWeakCount>9</maxWeakCount>
      <stageThreshold>-1.5311855077743530e+00</stageThreshold>
      <weakClassifiers>
        <_>
          <internalNodes>
            0 -1 10 -1.6387149691581726e-01</internalNodes>
          <leafValues>
            7.3908919095993042e-01 -6.2556052207946777e-01</leafValues></_>
        <_>
          <internalNodes>
            0 -1 47 -9.8302915692329407e-02</internalNodes>
          <leafValues>
            4.7369447350502014e-01 -4.4165825843811035e-01</leafValues></_>
        <_>
          <internalNodes>
            0 -1 77 1.6103979200124741e-02</internalNodes>
          <leafValues>
            -3.9823377132415771e-01 4.8018613457679749e-01</leafValues></_>
        <_>
          <internalNodes>
            0 -1 52 -4.7743573784828186e-02</internalNodes>
          <leafValues>
            6.2201416492462158e-01 -2.3957258462905884e-01</leafValues></_>
        <_>
          <internalNodes>
            0 -1 12 5.2502211183309555e-02</internalNodes>
          <leafValues>
            -2.7447739243507385e-01 6.1874592304229736e-01</leafValues></_>
        <_>
          <internalNodes>
            0 -1 116 -2.2637336514890194e-03</internalNodes>
          <leafValues>
            -7.2413533926010132e-01 1.9620224833488464e-01</leafValues></_>
        <_>
          <internalNodes>
            0 -1 114 1.8069120123982430e-03</internalNodes>
          <leafValues>
            1.4788258075714111e-01 -7.1105867624282837e-01</leafValues></_>
        <_>
          <internalNodes>
            0 -1 76 7.3797412915155292e-04</internalNodes>
          <leafValues>
            -5.1462507247924805e-01 2.2938442230224609e-01</leafValues></_>
        <_>
          <internalNodes>
            0 -1 89 1.3265292160212994e-02</internalNodes>
          <leafValues>
            -2.9649543762207031e-01 4.2636600136756897e-01</leafValues></_></weakClassifiers></_>
    <!-- stage 4 -->
    <_>
      <maxWeakCount>12</maxWeakCount>
      <stageThreshold>-1.3190048933029175e+00</stageThreshold>
      <weakClassifiers>
        <_>
          <internalNodes>
            0 -1 75 2.5054069235920906e-02</internalNodes>
          <leafValues>
            -3.2264527678489685e-01 6.6033965349197388e-01</leafValues></_>
        <_>
          <internalNodes>
            0 -1 37 -1.9673427939414978e-01</internalNodes>
          <leafValues>
            4.7165116667747498e-01 -5.4776388406753540e-01</leafValues></_>
        <_>
          <internalNodes>
            0 -1 52 -4.8507548868656158e-02</internalNodes>
          <leafValues>
            6.3594442605972290e-01 -2.5373446941375732e-01</leafValues></_>
        <_>
          <internalNodes>
            0 -1 34 -2.3738250136375427e-02</internalNodes>
          <leafValues>
            7.1169418096542358e-01 -2.4889178574085236e-01</leafValues></_>
        <_>
          <internalNodes>
            0 -1 0 -8.6360782384872437e-02</internalNodes>
          <leafValues>
            4.5126283168792725e-01 -3.0512607097625732e-01</leafValues></_>
        <_>
          <internalNodes>
            0 -1 68 -1.4219682663679123e-02</internalNodes>
          <leafValues>
            5.1928329467773438e-01 -2.7873972058296204e-01</leafValues></_>
        <_>
          <internalNodes>
            0 -1 85 3.0133029446005821e-02</internalNodes>
          <leafValues>
            -1.4057627320289612e-01 7.6325815916061401e-01</leafValues></_>
        <_>
          <internalNodes>
            0 -1 78 3.0555088073015213e-02</internalNodes>
          <leafValues>
            -2.1014036238193512e-01 5.9570086002349854e-01</leafValues></_>
        <_>
          <internalNodes>
            0 -1 2 -2.2815125994384289e-03</internalNodes>
          <leafValues>
            -7.5760912895202637e-01 1.7468746006488800e-01</leafValues></_>
        <_>
          <internalNodes>
            0 -1 44 -3.8029160350561142e-02</internalNodes>
          <leafValues>
            6.1806029081344604e-01 -2.0120067894458771e-01</leafValues></_>
        <_>
          <internalNodes>
            0 -1 106 1.4243756886571646e-03</internalNodes>
          <leafValues>
            1.9232729077339172e-01 -7.2566926479339600e-01</leafValues></_>
        <_>
          <internalNodes>
            0 -1 87 5.0625443458557129e-02</internalNodes>
          <leafValues>
            -1.9661614298820496e-01 7.1234577894210815e-01</leafValues></_></weakClassifiers></_>
    <!-- stage 5 -->
    <_>
      <maxWeakCount>16</maxWeakCount>
      <stageThreshold>-1.1616889238357544e+00</stageThreshold>
      <weakClassifiers>
        <_>
          <internalNodes>
            0 -1 13 -1.5735532343387604e-01</internalNodes>
          <leafValues>
            7.1761816740036011e-01 -1.2326768785715103e-01</leafValues></_>
        <_>
          <internalNodes>
            0 -1 5 4.0503337979316711e-02</internalNodes>
          <leafValues>
            -2.7665621042251587e-01 5.5595630407333374e-01</leafValues></_>
        <_>
          <internalNodes>
            0 -1 69 7.4605897068977356e-02</internalNodes>
          <leafValues>
            -3.3536380529403687e-01 4.4492861628532410e-01</leafValues></_>
        <_>
          <internalNodes>
            0 -1 66 1.2579556554555893e-02</internalNodes>
          <leafValues>
            -2.7597597241401672e-01 4.8357349634170532e-01</leafValues></_>
        <_>
          <internalNodes>
            0 -1 96 -6.0180872678756714e-02</internalNodes>
          <leafValues>
            9.1595530509948730e-01 -1.4802467823028564e-01</leafValues></_>
        <_>
          <internalNodes>
            0 -1 81 1.4833543449640274e-02</internalNodes>
          <leafValues>
            -1.8436393141746521e-01 5.8998090028762817e-01</leafValues></_>
        <_>
          <internalNodes>
            0 -1 107 1.3975815381854773e-03</internalNodes>
          <leafValues>
            1.7468184232711792e-01 -7.4235183000564575e-01</leafValues></_>
        <_>
          <internalNodes>
            0 -1 64 -1.5033873496577144e-03</internalNodes>
          <leafValues>
            -6.5192413330078125e-01 1.5188057720661163e-01</leafValues></_>
        <_>
          <internalNodes>
            0 -1 36 7.0671662688255310e-02</internalNodes>
          <leafValues>
            -1.7511889338493347e-01 6.9049376249313354e-01</leafValues></_>
        <_>
          <internalNodes>
            0 -1 74 2.4680583737790585e-03</internalNodes>
          <leafValues>
            1.8624620139598846e-01 -7.0943975448608398e-01</leafValues></_>
        <_>
          <internalNodes>
            0 -1 40 -2.5194188579916954e-02</internalNodes>
          <leafValues>
            7.9463547468185425e-01 -1.5550161898136139e-01</leafValues></_>
        <_>
          <internalNodes>
            0 -1 118 1.0898339096456766e-03</internalNodes>
          <leafValues>
            1.5810009837150574e-01 -7.1158134937286377e-01</leafValues></_>
        <_>
          <internalNodes>
            0 -1 6 2.6351758278906345e-03</internalNodes>
          <leafValues>
            1.4287042617797852e-01 -6.3424026966094971e-01</leafValues></_>
        <_>
          <internalNodes>
            0 -1 119 1.1934502981603146e-03</internalNodes>
          <leafValues>
            1.1514455825090408e-01 -7.4845880270004272e-01</leafValues></_>
        <_>
          <internalNodes>
            0 -1 90 2.0701319444924593e-03</internalNodes>
          <leafValues>
            -4.1187399625778198e-01 2.1867819130420685e-01</leafValues></_>
        <_>
          <internalNodes>
            0 -1 110 1.8000341951847076e-03</internalNodes>
          <leafValues>
            1.1499647796154022e-01 -7.5280559062957764e-01</leafValues></_></weakClassifiers></_>
    <!-- stage 6 -->
    <_>
      <maxWeakCount>15</maxWeakCount>
      <stageThreshold>-1.1822868585586548e+00</stageThreshold>
      <weakClassifiers>
        <_>
          <internalNodes>
            0 -1 1 -6.1782717704772949e-02</internalNodes>
          <leafValues>
            5.7651245594024658e-01 -3.9361703395843506e-01</leafValues></_>
        <_>
          <internalNodes>
            0 -1 56 -3.8398049771785736e-02</internalNodes>
          <leafValues>
            3.6037555336952209e-01 -4.9993398785591125e-01</leafValues></_>
        <_>
          <internalNodes>
            0 -1 99 -5.9521261602640152e-02</internalNodes>
          <leafValues>
            6.9083487987518311e-01 -1.7616502940654755e-01</leafValues></_>
        <_>
          <internalNodes>
            0 -1 49 4.2491137981414795e-02</internalNodes>
          <leafValues>
            -2.2723811864852905e-01 7.1960330009460449e-01</leafValues></_>
        <_>
          <internalNodes>
            0 -1 23 -3.9562243968248367e-02</internalNodes>
          <leafValues>
            7.1829944849014282e-01 -8.0849900841712952e-02</leafValues></_>
        <_>
          <internalNodes>
            0 -1 42 -4.5960091054439545e-02</internalNodes>
          <leafValues>
            6.3480919599533081e-01 -2.1225108206272125e-01</leafValues></_>
        <_>
          <internalNodes>
            0 -1 102 -4.2239115573465824e-03</internalNodes>
          <leafValues>
            -7.1405851840972900e-01 1.3119944930076599e-01</leafValues></_>
        <_>
          <internalNodes>
            0 -1 17 -7.4700452387332916e-04</internalNodes>
          <leafValues>
            -6.1633133888244629e-01 1.4253467321395874e-01</leafValues></_>
        <_>
          <internalNodes>
            0 -1 25 9.6929818391799927e-03</internalNodes>
          <leafValues>
            9.8839193582534790e-02 -7.8508824110031128e-01</leafValues></_>
        <_>
          <internalNodes>
            0 -1 117 -1.8075299449265003e-03</internalNodes>
          <leafValues>
            -6.8928098678588867e-01 1.1282873898744583e-01</leafValues></_>
        <_>
          <internalNodes>
            0 -1 31 -1.7352238297462463e-02</internalNodes>
          <leafValues>
            5.9675538539886475e-01 -1.5176856517791748e-01</leafValues></_>
        <_>
          <internalNodes>
            0 -1 88 3.0851904302835464e-03</internalNodes>
          <leafValues>
            8.4458611905574799e-02 -9.0298587083816528e-01</leafValues></_>
        <_>
          <internalNodes>
            0 -1 105 8.8555581169202924e-04</internalNodes>
          <leafValues>
            1.1730710417032242e-01 -5.6705939769744873e-01</leafValues></_>
        <_>
          <internalNodes>
            0 -1 28 -2.0506355911493301e-02</internalNodes>
          <leafValues>
            -6.7162728309631348e-01 1.2284725159406662e-01</leafValues></_>
        <_>
          <internalNodes>
            0 -1 100 -2.6723701739683747e-04</internalNodes>
          <leafValues>
            -4.4118472933769226e-01 1.8761827051639557e-01</leafValues></_></weakClassifiers></_>
    <!-- stage 7 -->
    <_>
      <maxWeakCount>19</maxWeakCount>
      <stageThreshold>-1.0929780006408691e+00</stageThreshold>
      <weakClassifiers>
        <_>
          <internalNodes>
            0 -1 65 1.8161885440349579e-02</internalNodes>
          <leafValues>
            -2.5293490290641785e-01 5.9961223602294922e-01</leafValues></_>
        <_>
          <internalNodes>
            0 -1 30 -7.6163262128829956e-02</internalNodes>
          <leafValues>
            3.0582967400550842e-01 -4.6741536259651184e-01</leafValues></_>
        <_>
          <internalNodes>
            0 -1 26 -5.1379397511482239e-02</internalNodes>
          <leafValues>
            4.9662578105926514e-01 -2.7328515052795410e-01</leafValues></_>
        <_>
          <internalNodes>
            0 -1 53 -6.2574163079261780e-02</internalNodes>
          <leafValues>
            5.2325284481048584e-01 -2.9383355379104614e-01</leafValues></_>
        <_>
          <internalNodes>
            0 -1 4 6.8948403000831604e-02</internalNodes>
          <leafValues>
            -2.8703999519348145e-01 4.5697441697120667e-01</leafValues></_>
        <_>
          <internalNodes>
            0 -1 57 -1.5076117590069771e-02</internalNodes>
          <leafValues>
            4.0026947855949402e-01 -2.9866090416908264e-01</leafValues></_>
        <_>
          <internalNodes>
            0 -1 45 8.0185569822788239e-03</internalNodes>
          <leafValues>
            -1.3915942609310150e-01 5.7116484642028809e-01</leafValues></_>
        <_>
          <internalNodes>
            0 -1 111 1.9175920169800520e-03</internalNodes>
          <leafValues>
            1.5558332204818726e-01 -6.2449592351913452e-01</leafValues></_>
        <_>
          <internalNodes>
            0 -1 48 -2.9499918222427368e-02</internalNodes>
          <leafValues>
            7.7025389671325684e-01 -1.1496063321828842e-01</leafValues></_>
        <_>
          <internalNodes>
            0 -1 115 3.8801082409918308e-03</internalNodes>
          <leafValues>
            1.3730451464653015e-01 -7.6937747001647949e-01</leafValues></_>
        <_>
          <internalNodes>
            0 -1 51 1.2395991384983063e-01</internalNodes>
          <leafValues>
            -1.4598870277404785e-01 7.6077264547348022e-01</leafValues></_>
        <_>
          <internalNodes>
            0 -1 91 1.2831779196858406e-02</internalNodes>
          <leafValues>
            -2.1993350982666016e-01 3.8442313671112061e-01</leafValues></_>
        <_>
          <internalNodes>
            0 -1 70 -1.9594555720686913e-02</internalNodes>
          <leafValues>
            7.5970679521560669e-01 -1.1388418078422546e-01</leafValues></_>
        <_>
          <internalNodes>
            0 -1 97 -6.6164359450340271e-02</internalNodes>
          <leafValues>
            7.1841460466384888e-01 -8.6268357932567596e-02</leafValues></_>
        <_>
          <internalNodes>
            0 -1 8 -5.7926282286643982e-02</internalNodes>
          <leafValues>
            6.7565828561782837e-01 -1.2692058086395264e-01</leafValues></_>
        <_>
          <internalNodes>
            0 -1 41 -1.8282584846019745e-01</internalNodes>
          <leafValues>
            7.9641246795654297e-01 -8.2542710006237030e-02</leafValues></_>
        <_>
          <internalNodes>
            0 -1 7 1.9411768298596144e-03</internalNodes>
          <leafValues>
            1.4286902546882629e-01 -6.0358196496963501e-01</leafValues></_>
        <_>
          <internalNodes>
            0 -1 63 -4.2927794856950641e-04</internalNodes>
          <leafValues>
            -3.9427870512008667e-01 1.7375504970550537e-01</leafValues></_>
        <_>
          <internalNodes>
            0 -1 58 -2.3071525618433952e-02</internalNodes>
          <leafValues>
            7.6687353849411011e-01 -1.1190624535083771e-01</leafValues></_></weakClassifiers></_>
    <!-- stage 8 -->
    <_>
      <maxWeakCount>18</maxWeakCount>
      <stageThreshold>-8.7654590606689453e-01</stageThreshold>
      <weakClassifiers>
        <_>
          <internalNodes>
            0 -1 62 6.6235542297363281e-02</internalNodes>
          <leafValues>
            -3.1594201922416687e-01 5.2727270126342773e-01</leafValues></_>
        <_>
          <internalNodes>
            0 -1 27 -3.1553909182548523e-02</internalNodes>
          <leafValues>
            5.6180495023727417e-01 -2.0285932719707489e-01</leafValues></_>
        <_>
          <internalNodes>
            0 -1 101 1.0279566049575806e-02</internalNodes>
          <leafValues>
            -1.5542303025722504e-01 6.9950520992279053e-01</leafValues></_>
        <_>
          <internalNodes>
            0 -1 82 -2.5115832686424255e-02</internalNodes>
          <leafValues>
            7.1989834308624268e-01 -1.7137983441352844e-01</leafValues></_>
        <_>
          <internalNodes>
            0 -1 60 -3.4375876188278198e-02</internalNodes>
          <leafValues>
            6.5828222036361694e-01 -1.5717074275016785e-01</leafValues></_>
        <_>
          <internalNodes>
            0 -1 24 -5.7451393455266953e-02</internalNodes>
          <leafValues>
            5.8635383844375610e-01 -1.7064753174781799e-01</leafValues></_>
        <_>
          <internalNodes>
            0 -1 22 -2.3702485486865044e-02</internalNodes>
          <leafValues>
            5.6732583045959473e-01 -1.9748577475547791e-01</leafValues></_>
        <_>
          <internalNodes>
            0 -1 39 1.8366979435086250e-02</internalNodes>
          <leafValues>
            -8.4193266928195953e-02 8.5073369741439819e-01</leafValues></_>
        <_>
          <internalNodes>
            0 -1 122 -1.2408035108819604e-03</internalNodes>
          <leafValues>
            -6.9499057531356812e-01 1.5655520558357239e-01</leafValues></_>
        <_>
          <internalNodes>
            0 -1 46 -6.1604864895343781e-02</internalNodes>
          <leafValues>
            6.2520641088485718e-01 -1.5271730720996857e-01</leafValues></_>
        <_>
          <internalNodes>
            0 -1 72 -1.0222338140010834e-01</internalNodes>
          <leafValues>
            8.9734995365142822e-01 -1.0743670910596848e-01</leafValues></_>
        <_>
          <internalNodes>
            0 -1 98 -1.0526223108172417e-02</internalNodes>
          <leafValues>
            -4.2046904563903809e-01 2.4569492042064667e-01</leafValues></_>
        <_>
          <internalNodes>
            0 -1 121 -7.1602140087634325e-04</internalNodes>
          <leafValues>
            -5.4914766550064087e-01 1.5489077568054199e-01</leafValues></_>
        <_>
          <internalNodes>
            0 -1 59 -1.2156350538134575e-02</internalNodes>
          <leafValues>
            6.5414547920227051e-01 -1.5156434476375580e-01</leafValues></_>
        <_>
          <internalNodes>
            0 -1 11 -9.2553661670535803e-04</internalNodes>
          <leafValues>
            -5.4661071300506592e-01 1.7958283424377441e-01</leafValues></_>
        <_>
          <internalNodes>
            0 -1 50 -1.2790055945515633e-02</internalNodes>
          <leafValues>
            7.8908503055572510e-01 -1.0660946369171143e-01</leafValues></_>
        <_>
          <internalNodes>
            0 -1 38 -1.0073521733283997e-01</internalNodes>
          <leafValues>
            2.5378611683845520e-01 -3.5767078399658203e-01</leafValues></_>
        <_>
          <internalNodes>
            0 -1 104 -1.5768162906169891e-02</internalNodes>
          <leafValues>
            -8.5438609123229980e-01 1.0637356340885162e-01</leafValues></_></weakClassifiers></_>
    <!-- stage 9 -->
    <_>
      <maxWeakCount>18</maxWeakCount>
      <stageThreshold>-1.0258555412292480e+00</stageThreshold>
      <weakClassifiers>
        <_>
          <internalNodes>
            0 -1 55 4.4343985617160797e-02</internalNodes>
          <leafValues>
            -1.9047619402408600e-01 5.5146366357803345e-01</leafValues></_>
        <_>
          <internalNodes>
            0 -1 54 5.5406820029020309e-02</internalNodes>
          <leafValues>
            -3.9913821220397949e-01 2.7521219849586487e-01</leafValues></_>
        <_>
          <internalNodes>
            0 -1 79 -1.4870493905618787e-03</internalNodes>
          <leafValues>
            -5.2072972059249878e-01 1.9886572659015656e-01</leafValues></_>
        <_>
          <internalNodes>
            0 -1 94 -5.6808505207300186e-02</internalNodes>
          <leafValues>
            5.2861958742141724e-01 -1.7344428598880768e-01</leafValues></_>
        <_>
          <internalNodes>
            0 -1 9 -2.1644552052021027e-01</internalNodes>
          <leafValues>
            5.4250121116638184e-01 -2.2334660589694977e-01</leafValues></_>
        <_>
          <internalNodes>
            0 -1 19 -2.5284996256232262e-02</internalNodes>
          <leafValues>
            -7.1742838621139526e-01 1.7717240750789642e-01</leafValues></_>
        <_>
          <internalNodes>
            0 -1 43 6.7642420530319214e-02</internalNodes>
          <leafValues>
            -1.9918756186962128e-01 5.7949787378311157e-01</leafValues></_>
        <_>
          <internalNodes>
            0 -1 103 1.1292129056528211e-03</internalNodes>
          <leafValues>
            1.5116296708583832e-01 -7.3378628492355347e-01</leafValues></_>
        <_>
          <internalNodes>
            0 -1 18 2.1229072008281946e-03</internalNodes>
          <leafValues>
            1.5977217257022858e-01 -5.2088242769241333e-01</leafValues></_>
        <_>
          <internalNodes>
            0 -1 120 -4.4599119573831558e-03</internalNodes>
          <leafValues>
            -6.7024570703506470e-01 1.0789985954761505e-01</leafValues></_>
        <_>
          <internalNodes>
            0 -1 3 -2.4299598298966885e-03</internalNodes>
          <leafValues>
            -5.6191331148147583e-01 1.2562027573585510e-01</leafValues></_>
        <_>
          <internalNodes>
            0 -1 29 -4.4189572334289551e-02</internalNodes>
          <leafValues>
            5.5051434040069580e-01 -1.4220736920833588e-01</leafValues></_>
        <_>
          <internalNodes>
            0 -1 51 1.0887111723423004e-01</internalNodes>
          <leafValues>
            -9.9870063364505768e-02 7.7563011646270752e-01</leafValues></_>
        <_>
          <internalNodes>
            0 -1 92 4.4092410244047642e-03</internalNodes>
          <leafValues>
            -2.1514923870563507e-01 4.2418906092643738e-01</leafValues></_>
        <_>
          <internalNodes>
            0 -1 112 -1.1583780869841576e-03</internalNodes>
          <leafValues>
            -5.6980842351913452e-01 1.3894100487232208e-01</leafValues></_>
        <_>
          <internalNodes>
            0 -1 32 -3.3987658098340034e-03</internalNodes>
          <leafValues>
            -6.5969061851501465e-01 9.6448250114917755e-02</leafValues></_>
        <_>
          <internalNodes>
            0 -1 109 -2.0538005046546459e-03</internalNodes>
          <leafValues>
            -8.1367987394332886e-01 7.8520201146602631e-02</leafValues></_>
        <_>
          <internalNodes>
            0 -1 113 -6.4728176221251488e-03</internalNodes>
          <leafValues>
            -6.0197997093200684e-01 9.2447668313980103e-02</leafValues></_></weakClassifiers></_></stages>
  <features>
    <_>
      <rects>
        <_>
          0 0 10 10 -1.</_>
        <_>
          0 0 5 5 2.</_>
        <_>
          5 5 5 5 2.</_></rects>
      <tilted>0</tilted></_>
    <_>
      <rects>
        <_>
          0 0 10 12 -1.</_>
        <_>
          0 0 5 6 2.</_>
        <_>
          5 6 5 6 2.</_></rects>
      <tilted>0</tilted></_>
    <_>
      <rects>
        <_>
          0 1 4 2 -1.</_>
        <_>
          0 1 2 1 2.</_>
        <_>
          2 2 2 1 2.</_></rects>
      <tilted>0</tilted></_>
    <_>
      <rects>
        <_>
          0 7 3 3 -1.</_>
        <_>
          0 8 3 1 3.</_></rects>
      <tilted>0</tilted></_>
    <_>
      <rects>
        <_>
          0 8 8 10 -1.</_>
        <_>
          0 8 4 5 2.</_>
        <_>
          4 13 4 5 2.</_></rects>
      <tilted>0</tilted></_>
    <_>
      <rects>
        <_>
          0 12 10 6 -1.</_>
        <_>
          0 12 5 3 2.</_>
        <_>
          5 15 5 3 2.</_></rects>
      <tilted>0</tilted></_>
    <_>
      <rects>
        <_>
          0 14 3 3 -1.</_>
        <_>
          1 14 1 3 3.</_></rects>
      <tilted>0</tilted></_>
    <_>
      <rects>
        <_>
          0 15 4 2 -1.</_>
        <_>
          0 15 2 1 2.</_>
        <_>
          2 16 2 1 2.</_></rects>
      <tilted>0</tilted></_>
    <_>
      <rects>
        <_>
          1 0 6 8 -1.</_>
        <_>
          1 0 3 4 2.</_>
        <_>
          4 4 3 4 2.</_></rects>
      <tilted>0</tilted></_>
    <_>
      <rects>
        <_>
          1 5 12 5 -1.</_>
        <_>
          5 5 4 5 3.</_></rects>
      <tilted>0</tilted></_>
    <_>
      <rects>
        <_>
          1 7 15 6 -1.</_>
        <_>
          6 7 5 6 3.</_></rects>
      <tilted>0</tilted></_>
    <_>
      <rects>
        <_>
          1 8 1 3 -1.</_>
        <_>
          1 9 1 1 3.</_></rects>
      <tilted>0</tilted></_>
    <_>
      <rects>
        <_>
          1 8 6 10 -1.</_>
        <_>
          1 8 3 5 2.</_>
        <_>
          4 13 3 5 2.</_></rects>
      <tilted>0</tilted></_>
    <_>
      <rects>
        <_>
          1 8 15 3 -1.</_>
        <_>
          6 8 5 3 3.</_></rects>
      <tilted>0</tilted></_>
    <_>
      <rects>
        <_>
          1 8 15 4 -1.</_>
        <_>
          6 8 5 4 3.</_></rects>
      <tilted>0</tilted></_>
    <_>
      <rects>
        <_>
          1 9 15 1 -1.</_>
        <_>
          6 9 5 1 3.</_></rects>
      <tilted>0</tilted></_>
    <_>
      <rects>
        <_>
          1 9 15 2 -1.</_>
        <_>
          6 9 5 2 3.</_></rects>
      <tilted>0</tilted></_>
    <_>
      <rects>
        <_>
          1 12 2 2 -1.</_>
        <_>
          1 12 1 1 2.</_>
        <_>
          2 13 1 1 2.</_></rects>
      <tilted>0</tilted></_>
    <_>
      <rects>
        <_>
          1 14 3 3 -1.</_>
        <_>
          2 14 1 3 3.</_></rects>
      <tilted>0</tilted></_>
    <_>
      <rects>
        <_>
          2 0 6 3 -1.</_>
        <_>
          5 0 3 3 2.</_></rects>
      <tilted>0</tilted></_>
    <_>
      <rects>
        <_>
          2 1 4 10 -1.</_>
        <_>
          2 1 2 5 2.</_>
        <_>
          4 6 2 5 2.</_></rects>
      <tilted>0</tilted></_>
    <_>
      <rects>
        <_>
          2 8 4 3 -1.</_>
        <_>
          4 8 2 3 2.</_></rects>
      <tilted>0</tilted></_>
    <_>
      <rects>
        <_>
          2 8 6 5 -1.</_>
        <_>
          4 8 2 5 3.</_></rects>
      <tilted>0</tilted></_>
    <_>
      <rects>
        <_>
          3 3 6 6 -1.</_>
        <_>
          5 3 2 6 3.</_></rects>
      <tilted>0</tilted></_>
    <_>
      <rects>
        <_>
          3 7 15 1 -1.</_>
        <_>
          8 7 5 1 3.</_></rects>
      <tilted>0</tilted></_>
    <_>
      <rects>
        <_>
          3 7 15 3 -1.</_>
        <_>
          3 8 15 1 3.</_></rects>
      <tilted>0</tilted></_>
    <_>
      <rects>
        <_>
          3 11 9 2 -1.</_>
        <_>
          6 11 3 2 3.</_></rects>
      <tilted>0</tilted></_>
    <_>
      <rects>
        <_>
          3 12 9 1 -1.</_>
        <_>
          6 12 3 1 3.</_></rects>
      <tilted>0</tilted></_>
    <_>
      <rects>
        <_>
          3 17 12 1 -1.</_>
        <_>
          7 17 4 1 3.</_></rects>
      <tilted>0</tilted></_>
    <_>
      <rects>
        <_>
          4 1 6 6 -1.</_>
        <_>
          4 1 3 3 2.</_>
        <_>
          7 4 3 3 2.</_></rects>
      <tilted>0</tilted></_>
    <_>
      <rects>
        <_>
          4 1 8 8 -1.</_>
        <_>
          4 5 8 4 2.</_></rects>
      <tilted>0</tilted></_>
    <_>
      <rects>
        <_>
          4 8 4 6 -1.</_>
        <_>
          4 8 2 3 2.</_>
        <_>
          6 11 2 3 2.</_></rects>
      <tilted>0</tilted></_>
    <_>
      <rects>
        <_>
          4 9 9 2 -1.</_>
        <_>
          4 10 9 1 2.</_></rects>
      <tilted>0</tilted></_>
    <_>
      <rects>
        <_>
          4 10 8 6 -1.</_>
        <_>
          4 10 4 3 2.</_>
        <_>
          8 13 4 3 2.</_></rects>
      <tilted>0</tilted></_>
    <_>
      <rects>
        <_>
          4 11 6 2 -1.</_>
        <_>
          6 11 2 2 3.</_></rects>
      <tilted>0</tilted></_>
    <_>
      <rects>
        <_>
          4 17 14 1 -1.</_>
        <_>
          11 17 7 1 2.</_></rects>
      <tilted>0</tilted></_>
    <_>
      <rects>
        <_>
          5 0 8 8 -1.</_>
        <_>
          5 0 4 4 2.</_>
        <_>
          9 4 4 4 2.</_></rects>
      <tilted>0</tilted></_>
    <_>
      <rects>
        <_>
          5 0 7 18 -1.</_>
        <_>
          5 6 7 6 3.</_></rects>
      <tilted>0</tilted></_>
    <_>
      <rects>
        <_>
          5 0 11 10 -1.</_>
        <_>
          5 5 11 5 2.</_></rects>
      <tilted>0</tilted></_>
    <_>
      <rects>
        <_>
          5 1 7 3 -1.</_>
        <_>
          5 2 7 1 3.</_></rects>
      <tilted>0</tilted></_>
    <_>
      <rects>
        <_>
          5 2 6 4 -1.</_>
        <_>
          5 2 3 2 2.</_>
        <_>
          8 4 3 2 2.</_></rects>
      <tilted>0</tilted></_>
    <_>
      <rects>
        <_>
          5 5 12 4 -1.</_>
        <_>
          9 5 4 4 3.</_></rects>
      <tilted>0</tilted></_>
    <_>
      <rects>
        <_>
          5 6 6 3 -1.</_>
        <_>
          8 6 3 3 2.</_></rects>
      <tilted>0</tilted></_>
    <_>
      <rects>
        <_>
          5 7 8 6 -1.</_>
        <_>
          5 7 4 3 2.</_>
        <_>
          9 10 4 3 2.</_></rects>
      <tilted>0</tilted></_>
    <_>
      <rects>
        <_>
          5 8 12 1 -1.</_>
        <_>
          9 8 4 1 3.</_></rects>
      <tilted>0</tilted></_>
    <_>
      <rects>
        <_>
          5 12 9 1 -1.</_>
        <_>
          8 12 3 1 3.</_></rects>
      <tilted>0</tilted></_>
    <_>
      <rects>
        <_>
          5 12 9 2 -1.</_>
        <_>
          8 12 3 2 3.</_></rects>
      <tilted>0</tilted></_>
    <_>
      <rects>
        <_>
          6 0 6 10 -1.</_>
        <_>
          6 5 6 5 2.</_></rects>
      <tilted>0</tilted></_>
    <_>
      <rects>
        <_>
          6 1 4 6 -1.</_>
        <_>
          6 1 2 3 2.</_>
        <_>
          8 4 2 3 2.</_></rects>
      <tilted>0</tilted></_>
    <_>
      <rects>
        <_>
          6 1 12 4 -1.</_>
        <_>
          6 1 6 2 2.</_>
        <_>
          12 3 6 2 2.</_></rects>
      <tilted>0</tilted></_>
    <_>
      <rects>
        <_>
          6 1 7 3 -1.</_>
        <_>
          6 2 7 1 3.</_></rects>
      <tilted>0</tilted></_>
    <_>
      <rects>
        <_>
          6 1 7 9 -1.</_>
        <_>
          6 4 7 3 3.</_></rects>
      <tilted>0</tilted></_>
    <_>
      <rects>
        <_>
          6 7 9 2 -1.</_>
        <_>
          9 7 3 2 3.</_></rects>
      <tilted>0</tilted></_>
    <_>
      <rects>
        <_>
          6 7 9 3 -1.</_>
        <_>
          9 7 3 3 3.</_></rects>
      <tilted>0</tilted></_>
    <_>
      <rects>
        <_>
          6 9 12 2 -1.</_>
        <_>
          12 9 6 2 2.</_></rects>
      <tilted>0</tilted></_>
    <_>
      <rects>
        <_>
          6 10 5 8 -1.</_>
        <_>
          6 14 5 4 2.</_></rects>
      <tilted>0</tilted></_>
    <_>
      <rects>
        <_>
          6 10 12 8 -1.</_>
        <_>
          6 10 6 4 2.</_>
        <_>
          12 14 6 4 2.</_></rects>
      <tilted>0</tilted></_>
    <_>
      <rects>
        <_>
          6 11 5 6 -1.</_>
        <_>
          6 13 5 2 3.</_></rects>
      <tilted>0</tilted></_>
    <_>
      <rects>
        <_>
          6 12 4 2 -1.</_>
        <_>
          8 12 2 2 2.</_></rects>
      <tilted>0</tilted></_>
    <_>
      <rects>
        <_>
          6 12 4 4 -1.</_>
        <_>
          6 12 2 2 2.</_>
        <_>
          8 14 2 2 2.</_></rects>
      <tilted>0</tilted></_>
    <_>
      <rects>
        <_>
          7 0 2 6 -1.</_>
        <_>
          7 3 2 3 2.</_></rects>
      <tilted>0</tilted></_>
    <_>
      <rects>
        <_>
          7 0 4 18 -1.</_>
        <_>
          7 6 4 6 3.</_></rects>
      <tilted>0</tilted></_>
    <_>
      <rects>
        <_>
          7 0 10 10 -1.</_>
        <_>
          7 0 5 5 2.</_>
        <_>
          12 5 5 5 2.</_></rects>
      <tilted>0</tilted></_>
    <_>
      <rects>
        <_>
          7 8 2 2 -1.</_>
        <_>
          7 8 1 1 2.</_>
        <_>
          8 9 1 1 2.</_></rects>
      <tilted>0</tilted></_>
    <_>
      <rects>
        <_>
          7 9 6 2 -1.</_>
        <_>
          7 10 6 1 2.</_></rects>
      <tilted>0</tilted></_>
    <_>
      <rects>
        <_>
          7 10 8 1 -1.</_>
        <_>
          11 10 4 1 2.</_></rects>
      <tilted>0</tilted></_>
    <_>
      <rects>
        <_>
          7 11 4 2 -1.</_>
        <_>
          9 11 2 2 2.</_></rects>
      <tilted>0</tilted></_>
    <_>
      <rects>
        <_>
          7 11 9 1 -1.</_>
        <_>
          10 11 3 1 3.</_></rects>
      <tilted>0</tilted></_>
    <_>
      <rects>
        <_>
          7 11 5 6 -1.</_>
        <_>
          7 13 5 2 3.</_></rects>
      <tilted>0</tilted></_>
    <_>
      <rects>
        <_>
          8 0 8 10 -1.</_>
        <_>
          8 0 4 5 2.</_>
        <_>
          12 5 4 5 2.</_></rects>
      <tilted>0</tilted></_>
    <_>
      <rects>
        <_>
          8 1 2 6 -1.</_>
        <_>
          8 3 2 2 3.</_></rects>
      <tilted>0</tilted></_>
    <_>
      <rects>
        <_>
          8 1 2 9 -1.</_>
        <_>
          8 4 2 3 3.</_></rects>
      <tilted>0</tilted></_>
    <_>
      <rects>
        <_>
          8 5 3 9 -1.</_>
        <_>
          8 8 3 3 3.</_></rects>
      <tilted>0</tilted></_>
    <_>
      <rects>
        <_>
          8 6 6 4 -1.</_>
        <_>
          10 6 2 4 3.</_></rects>
      <tilted>0</tilted></_>
    <_>
      <rects>
        <_>
          8 8 3 3 -1.</_>
        <_>
          9 8 1 3 3.</_></rects>
      <tilted>0</tilted></_>
    <_>
      <rects>
        <_>
          8 9 6 2 -1.</_>
        <_>
          11 9 3 2 2.</_></rects>
      <tilted>0</tilted></_>
    <_>
      <rects>
        <_>
          8 9 4 2 -1.</_>
        <_>
          8 10 4 1 2.</_></rects>
      <tilted>0</tilted></_>
    <_>
      <rects>
        <_>
          8 10 4 3 -1.</_>
        <_>
          10 10 2 3 2.</_></rects>
      <tilted>0</tilted></_>
    <_>
      <rects>
        <_>
          8 10 6 4 -1.</_>
        <_>
          10 10 2 4 3.</_></rects>
      <tilted>0</tilted></_>
    <_>
      <rects>
        <_>
          8 10 8 3 -1.</_>
        <_>
          8 11 8 1 3.</_></rects>
      <tilted>0</tilted></_>
    <_>
      <rects>
        <_>
          8 12 6 6 -1.</_>
        <_>
          8 12 3 3 2.</_>
        <_>
          11 15 3 3 2.</_></rects>
      <tilted>0</tilted></_>
    <_>
      <rects>
        <_>
          8 14 2 4 -1.</_>
        <_>
          8 16 2 2 2.</_></rects>
      <tilted>0</tilted></_>
    <_>
      <rects>
        <_>
          8 14 6 4 -1.</_>
        <_>
          8 14 3 2 2.</_>
        <_>
          11 16 3 2 2.</_></rects>
      <tilted>0</tilted></_>
    <_>
      <rects>
        <_>
          9 0 1 18 -1.</_>
        <_>
          9 6 1 6 3.</_></rects>
      <tilted>0</tilted></_>
    <_>
      <rects>
        <_>
          9 0 2 9 -1.</_>
        <_>
          9 3 2 3 3.</_></rects>
      <tilted>0</tilted></_>
    <_>
      <rects>
        <_>
          9 1 2 9 -1.</_>
        <_>
          9 4 2 3 3.</_></rects>
      <tilted>0</tilted></_>
    <_>
      <rects>
        <_>
          9 1 6 8 -1.</_>
        <_>
          9 1 3 4 2.</_>
        <_>
          12 5 3 4 2.</_></rects>
      <tilted>0</tilted></_>
    <_>
      <rects>
        <_>
          9 5 6 5 -1.</_>
        <_>
          11 5 2 5 3.</_></rects>
      <tilted>0</tilted></_>
    <_>
      <rects>
        <_>
          9 8 2 3 -1.</_>
        <_>
          9 9 2 1 3.</_></rects>
      <tilted>0</tilted></_>
    <_>
      <rects>
        <_>
          9 8 6 2 -1.</_>
        <_>
          11 8 2 2 3.</_></rects>
      <tilted>0</tilted></_>
    <_>
      <rects>
        <_>
          9 9 3 6 -1.</_>
        <_>
          9 11 3 2 3.</_></rects>
      <tilted>0</tilted></_>
    <_>
      <rects>
        <_>
          9 10 6 2 -1.</_>
        <_>
          11 10 2 2 3.</_></rects>
      <tilted>0</tilted></_>
    <_>
      <rects>
        <_>
          9 13 2 2 -1.</_>
        <_>
          10 13 1 2 2.</_></rects>
      <tilted>0</tilted></_>
    <_>
      <rects>
        <_>
          10 0 1 9 -1.</_>
        <_>
          10 3 1 3 3.</_></rects>
      <tilted>0</tilted></_>
    <_>
      <rects>
        <_>
          10 0 1 15 -1.</_>
        <_>
          10 5 1 5 3.</_></rects>
      <tilted>0</tilted></_>
    <_>
      <rects>
        <_>
          10 2 1 12 -1.</_>
        <_>
          10 6 1 4 3.</_></rects>
      <tilted>0</tilted></_>
    <_>
      <rects>
        <_>
          10 3 1 12 -1.</_>
        <_>
          10 7 1 4 3.</_></rects>
      <tilted>0</tilted></_>
    <_>
      <rects>
        <_>
          10 4 2 9 -1.</_>
        <_>
          10 7 2 3 3.</_></rects>
      <tilted>0</tilted></_>
    <_>
      <rects>
        <_>
          10 6 3 9 -1.</_>
        <_>
          10 9 3 3 3.</_></rects>
      <tilted>0</tilted></_>
    <_>
      <rects>
        <_>
          10 7 6 8 -1.</_>
        <_>
          10 7 3 4 2.</_>
        <_>
          13 11 3 4 2.</_></rects>
      <tilted>0</tilted></_>
    <_>
      <rects>
        <_>
          10 8 1 2 -1.</_>
        <_>
          10 9 1 1 2.</_></rects>
      <tilted>0</tilted></_>
    <_>
      <rects>
        <_>
          10 9 1 4 -1.</_>
        <_>
          10 11 1 2 2.</_></rects>
      <tilted>0</tilted></_>
    <_>
      <rects>
        <_>
          10 12 8 2 -1.</_>
        <_>
          10 12 4 1 2.</_>
        <_>
          14 13 4 1 2.</_></rects>
      <tilted>0</tilted></_>
    <_>
      <rects>
        <_>
          10 15 2 2 -1.</_>
        <_>
          10 15 1 1 2.</_>
        <_>
          11 16 1 1 2.</_></rects>
      <tilted>0</tilted></_>
    <_>
      <rects>
        <_>
          13 0 4 4 -1.</_>
        <_>
          13 2 4 2 2.</_></rects>
      <tilted>0</tilted></_>
    <_>
      <rects>
        <_>
          13 1 2 2 -1.</_>
        <_>
          13 1 1 1 2.</_>
        <_>
          14 2 1 1 2.</_></rects>
      <tilted>0</tilted></_>
    <_>
      <rects>
        <_>
          13 11 3 1 -1.</_>
        <_>
          14 11 1 1 3.</_></rects>
      <tilted>0</tilted></_>
    <_>
      <rects>
        <_>
          14 9 1 3 -1.</_>
        <_>
          14 10 1 1 3.</_></rects>
      <tilted>0</tilted></_>
    <_>
      <rects>
        <_>
          14 10 3 7 -1.</_>
        <_>
          15 10 1 7 3.</_></rects>
      <tilted>0</tilted></_>
    <_>
      <rects>
        <_>
          14 14 1 3 -1.</_>
        <_>
          14 15 1 1 3.</_></rects>
      <tilted>0</tilted></_>
    <_>
      <rects>
        <_>
          14 17 3 1 -1.</_>
        <_>
          15 17 1 1 3.</_></rects>
      <tilted>0</tilted></_>
    <_>
      <rects>
        <_>
          15 0 2 3 -1.</_>
        <_>
          15 1 2 1 3.</_></rects>
      <tilted>0</tilted></_>
    <_>
      <rects>
        <_>
          15 1 1 3 -1.</_>
        <_>
          15 2 1 1 3.</_></rects>
      <tilted>0</tilted></_>
    <_>
      <rects>
        <_>
          15 1 2 6 -1.</_>
        <_>
          15 3 2 2 3.</_></rects>
      <tilted>0</tilted></_>
    <_>
      <rects>
        <_>
          15 4 2 4 -1.</_>
        <_>
          15 4 1 2 2.</_>
        <_>
          16 6 1 2 2.</_></rects>
      <tilted>0</tilted></_>
    <_>
      <rects>
        <_>
          15 4 3 3 -1.</_>
        <_>
          15 5 3 1 3.</_></rects>
      <tilted>0</tilted></_>
    <_>
      <rects>
        <_>
          15 5 2 4 -1.</_>
        <_>
          15 5 1 2 2.</_>
        <_>
          16 7 1 2 2.</_></rects>
      <tilted>0</tilted></_>
    <_>
      <rects>
        <_>
          15 7 1 3 -1.</_>
        <_>
          15 8 1 1 3.</_></rects>
      <tilted>0</tilted></_>
    <_>
      <rects>
        <_>
          15 11 2 2 -1.</_>
        <_>
          15 11 1 1 2.</_>
        <_>
          16 12 1 1 2.</_></rects>
      <tilted>0</tilted></_>
    <_>
      <rects>
        <_>
          15 15 2 2 -1.</_>
        <_>
          15 15 1 1 2.</_>
        <_>
          16 16 1 1 2.</_></rects>
      <tilted>0</tilted></_>
    <_>
      <rects>
        <_>
          16 0 2 8 -1.</_>
        <_>
          16 0 1 4 2.</_>
        <_>
          17 4 1 4 2.</_></rects>
      <tilted>0</tilted></_>
    <_>
      <rects>
        <_>
          16 1 2 2 -1.</_>
        <_>
          16 1 1 1 2.</_>
        <_>
          17 2 1 1 2.</_></rects>
      <tilted>0</tilted></_>
    <_>
      <rects>
        <_>
          16 15 2 1 -1.</_>
        <_>
          17 15 1 1 2.</_></rects>
      <tilted>0</tilted></_></features></cascade>
</opencv_storage>
