<?xml version="1.0"?>
<opencv_storage>
<stage4>
  <maxWeakCount>12</maxWeakCount>
  <stageThreshold>-1.3190048933029175e+00</stageThreshold>
  <weakClassifiers>
    <_>
      <internalNodes>
        0 -1 37956 2.5054069235920906e-02</internalNodes>
      <leafValues>
        -3.2264527678489685e-01 6.6033965349197388e-01</leafValues></_>
    <_>
      <internalNodes>
        0 -1 24998 -1.9673427939414978e-01</internalNodes>
      <leafValues>
        4.7165116667747498e-01 -5.4776388406753540e-01</leafValues></_>
    <_>
      <internalNodes>
        0 -1 31016 -4.8507548868656158e-02</internalNodes>
      <leafValues>
        6.3594442605972290e-01 -2.5373446941375732e-01</leafValues></_>
    <_>
      <internalNodes>
        0 -1 24034 -2.3738250136375427e-02</internalNodes>
      <leafValues>
        7.1169418096542358e-01 -2.4889178574085236e-01</leafValues></_>
    <_>
      <internalNodes>
        0 -1 264 -8.6360782384872437e-02</internalNodes>
      <leafValues>
        4.5126283168792725e-01 -3.0512607097625732e-01</leafValues></_>
    <_>
      <internalNodes>
        0 -1 35174 -1.4219682663679123e-02</internalNodes>
      <leafValues>
        5.1928329467773438e-01 -2.7873972058296204e-01</leafValues></_>
    <_>
      <internalNodes>
        0 -1 39038 3.0133029446005821e-02</internalNodes>
      <leafValues>
        -1.4057627320289612e-01 7.6325815916061401e-01</leafValues></_>
    <_>
      <internalNodes>
        0 -1 38097 3.0555088073015213e-02</internalNodes>
      <leafValues>
        -2.1014036238193512e-01 5.9570086002349854e-01</leafValues></_>
    <_>
      <internalNodes>
        0 -1 680 -2.2815125994384289e-03</internalNodes>
      <leafValues>
        -7.5760912895202637e-01 1.7468746006488800e-01</leafValues></_>
    <_>
      <internalNodes>
        0 -1 27456 -3.8029160350561142e-02</internalNodes>
      <leafValues>
        6.1806029081344604e-01 -2.0120067894458771e-01</leafValues></_>
    <_>
      <internalNodes>
        0 -1 48834 1.4243756886571646e-03</internalNodes>
      <leafValues>
        1.9232729077339172e-01 -7.2566926479339600e-01</leafValues></_>
    <_>
      <internalNodes>
        0 -1 40029 5.0625443458557129e-02</internalNodes>
      <leafValues>
        -1.9661614298820496e-01 7.1234577894210815e-01</leafValues></_></weakClassifiers></stage4>
</opencv_storage>
