<?xml version="1.0"?>
<opencv_storage>
<cascade>
  <stageType>BOOST</stageType>
  <featureType>HAAR</featureType>
  <height>18</height>
  <width>18</width>
  <stageParams>
    <boostType>GAB</boostType>
    <minHitRate>9.9500000476837158e-01</minHitRate>
    <maxFalseAlarm>5.0000000000000000e-01</maxFalseAlarm>
    <weightTrimRate>9.4999999999999996e-01</weightTrimRate>
    <maxDepth>1</maxDepth>
    <maxWeakCount>100</maxWeakCount></stageParams>
  <featureParams>
    <maxCatCount>0</maxCatCount>
    <featSize>1</featSize>
    <mode>BASIC</mode></featureParams>
  <stageNum>10</stageNum>
  <stages>
    <!-- stage 0 -->
    <_>
      <maxWeakCount>5</maxWeakCount>
      <stageThreshold>-8.1088310480117798e-01</stageThreshold>
      <weakClassifiers>
        <_>
          <internalNodes>
            0 -1 35 -7.9535588622093201e-02</internalNodes>
          <leafValues>
            9.1066664457321167e-01 -6.2888890504837036e-01</leafValues></_>
        <_>
          <internalNodes>
            0 -1 59 -1.0707843303680420e-01</internalNodes>
          <leafValues>
            6.6699272394180298e-01 -4.9813970923423767e-01</leafValues></_>
        <_>
          <internalNodes>
            0 -1 67 6.4528942108154297e-02</internalNodes>
          <leafValues>
            -3.1148293614387512e-01 8.2585316896438599e-01</leafValues></_>
        <_>
          <internalNodes>
            0 -1 70 2.7287116274237633e-02</internalNodes>
          <leafValues>
            -2.3516553640365601e-01 9.2016810178756714e-01</leafValues></_>
        <_>
          <internalNodes>
            0 -1 63 -3.6690846085548401e-02</internalNodes>
          <leafValues>
            8.6279404163360596e-01 -2.4596364796161652e-01</leafValues></_></weakClassifiers></_>
    <!-- stage 1 -->
    <_>
      <maxWeakCount>7</maxWeakCount>
      <stageThreshold>-9.1909819841384888e-01</stageThreshold>
      <weakClassifiers>
        <_>
          <internalNodes>
            0 -1 35 -1.2100049108266830e-01</internalNodes>
          <leafValues>
            9.2041265964508057e-01 -4.3048897385597229e-01</leafValues></_>
        <_>
          <internalNodes>
            0 -1 49 -4.8567030578851700e-02</internalNodes>
          <leafValues>
            8.7617474794387817e-01 -1.3071726262569427e-01</leafValues></_>
        <_>
          <internalNodes>
            0 -1 26 7.6930306386202574e-04</internalNodes>
          <leafValues>
            2.5300782918930054e-01 -8.8354086875915527e-01</leafValues></_>
        <_>
          <internalNodes>
            0 -1 45 -1.0240380465984344e-01</internalNodes>
          <leafValues>
            4.2296904325485229e-01 -3.7302017211914063e-01</leafValues></_>
        <_>
          <internalNodes>
            0 -1 72 2.4172121658921242e-02</internalNodes>
          <leafValues>
            -2.4334274232387543e-01 6.5433818101882935e-01</leafValues></_>
        <_>
          <internalNodes>
            0 -1 79 3.2091762870550156e-02</internalNodes>
          <leafValues>
            -2.2771716117858887e-01 7.9834210872650146e-01</leafValues></_>
        <_>
          <internalNodes>
            0 -1 88 3.6215118598192930e-04</internalNodes>
          <leafValues>
            2.8073692321777344e-01 -6.6450065374374390e-01</leafValues></_></weakClassifiers></_>
    <!-- stage 2 -->
    <_>
      <maxWeakCount>8</maxWeakCount>
      <stageThreshold>-8.3682411909103394e-01</stageThreshold>
      <weakClassifiers>
        <_>
          <internalNodes>
            0 -1 34 -8.4783844649791718e-02</internalNodes>
          <leafValues>
            8.1111854314804077e-01 -4.5314222574234009e-01</leafValues></_>
        <_>
          <internalNodes>
            0 -1 50 -1.1739479005336761e-01</internalNodes>
          <leafValues>
            8.2125389575958252e-01 -1.4669466018676758e-01</leafValues></_>
        <_>
          <internalNodes>
            0 -1 4 -8.9541822671890259e-02</internalNodes>
          <leafValues>
            5.6818008422851563e-01 -2.3450350761413574e-01</leafValues></_>
        <_>
          <internalNodes>
            0 -1 18 3.8791946135461330e-03</internalNodes>
          <leafValues>
            2.0520591735839844e-01 -8.1157284975051880e-01</leafValues></_>
        <_>
          <internalNodes>
            0 -1 0 3.2822877168655396e-02</internalNodes>
          <leafValues>
            -3.6205992102622986e-01 4.4149017333984375e-01</leafValues></_>
        <_>
          <internalNodes>
            0 -1 60 -4.6424917876720428e-02</internalNodes>
          <leafValues>
            8.1439352035522461e-01 -1.8927660584449768e-01</leafValues></_>
        <_>
          <internalNodes>
            0 -1 88 -1.0654523503035307e-03</internalNodes>
          <leafValues>
            -8.0284821987152100e-01 2.4727171659469604e-01</leafValues></_>
        <_>
          <internalNodes>
            0 -1 16 -8.4720866288989782e-04</internalNodes>
          <leafValues>
            -7.3815530538558960e-01 1.4282493293285370e-01</leafValues></_></weakClassifiers></_>
    <!-- stage 3 -->
    <_>
      <maxWeakCount>10</maxWeakCount>
      <stageThreshold>-1.0338727235794067e+00</stageThreshold>
      <weakClassifiers>
        <_>
          <internalNodes>
            0 -1 29 -1.5794017910957336e-01</internalNodes>
          <leafValues>
            8.7719297409057617e-01 -2.6178011298179626e-01</leafValues></_>
        <_>
          <internalNodes>
            0 -1 42 -1.3434177637100220e-01</internalNodes>
          <leafValues>
            8.1159096956253052e-01 -1.0149373859167099e-01</leafValues></_>
        <_>
          <internalNodes>
            0 -1 33 -6.7035675048828125e-02</internalNodes>
          <leafValues>
            6.8063867092132568e-01 -1.5968030691146851e-01</leafValues></_>
        <_>
          <internalNodes>
            0 -1 6 3.6920630373060703e-03</internalNodes>
          <leafValues>
            2.0963340997695923e-01 -6.4876168966293335e-01</leafValues></_>
        <_>
          <internalNodes>
            0 -1 87 1.1443727416917682e-03</internalNodes>
          <leafValues>
            2.0901517570018768e-01 -5.8503425121307373e-01</leafValues></_>
        <_>
          <internalNodes>
            0 -1 25 -1.3043433427810669e-03</internalNodes>
          <leafValues>
            -7.7274620532989502e-01 1.2781597673892975e-01</leafValues></_>
        <_>
          <internalNodes>
            0 -1 84 1.9650431349873543e-03</internalNodes>
          <leafValues>
            1.0934961587190628e-01 -9.4005173444747925e-01</leafValues></_>
        <_>
          <internalNodes>
            0 -1 94 -8.2308799028396606e-04</internalNodes>
          <leafValues>
            -7.3679077625274658e-01 1.2588119506835938e-01</leafValues></_>
        <_>
          <internalNodes>
            0 -1 5 3.4649431472644210e-04</internalNodes>
          <leafValues>
            2.0811499655246735e-01 -5.2138066291809082e-01</leafValues></_>
        <_>
          <internalNodes>
            0 -1 12 2.0459629595279694e-03</internalNodes>
          <leafValues>
            1.5599252283573151e-01 -6.9059562683105469e-01</leafValues></_></weakClassifiers></_>
    <!-- stage 4 -->
    <_>
      <maxWeakCount>7</maxWeakCount>
      <stageThreshold>-6.7654478549957275e-01</stageThreshold>
      <weakClassifiers>
        <_>
          <internalNodes>
            0 -1 64 -1.0223597288131714e-01</internalNodes>
          <leafValues>
            7.5417500734329224e-01 -3.6434108018875122e-01</leafValues></_>
        <_>
          <internalNodes>
            0 -1 15 3.8274019956588745e-02</internalNodes>
          <leafValues>
            -2.5525933504104614e-01 6.3304889202117920e-01</leafValues></_>
        <_>
          <internalNodes>
            0 -1 41 -4.4249191880226135e-02</internalNodes>
          <leafValues>
            6.0930305719375610e-01 -2.2987151145935059e-01</leafValues></_>
        <_>
          <internalNodes>
            0 -1 43 -1.0358071886003017e-03</internalNodes>
          <leafValues>
            -8.2575494050979614e-01 2.1079213917255402e-01</leafValues></_>
        <_>
          <internalNodes>
            0 -1 78 2.3882852867245674e-02</internalNodes>
          <leafValues>
            -2.6365709304809570e-01 6.4475405216217041e-01</leafValues></_>
        <_>
          <internalNodes>
            0 -1 1 3.5887926816940308e-02</internalNodes>
          <leafValues>
            -3.1707710027694702e-01 4.9859893321990967e-01</leafValues></_>
        <_>
          <internalNodes>
            0 -1 56 6.1279395595192909e-03</internalNodes>
          <leafValues>
            -2.7280688285827637e-01 5.6264221668243408e-01</leafValues></_></weakClassifiers></_>
    <!-- stage 5 -->
    <_>
      <maxWeakCount>10</maxWeakCount>
      <stageThreshold>-9.0712869167327881e-01</stageThreshold>
      <weakClassifiers>
        <_>
          <internalNodes>
            0 -1 71 2.5324150919914246e-02</internalNodes>
          <leafValues>
            -3.0616995692253113e-01 6.8981182575225830e-01</leafValues></_>
        <_>
          <internalNodes>
            0 -1 68 -7.2011895477771759e-02</internalNodes>
          <leafValues>
            5.7338249683380127e-01 -2.8197023272514343e-01</leafValues></_>
        <_>
          <internalNodes>
            0 -1 27 -1.8960924353450537e-03</internalNodes>
          <leafValues>
            -8.6737412214279175e-01 1.8244376778602600e-01</leafValues></_>
        <_>
          <internalNodes>
            0 -1 15 5.8814443647861481e-02</internalNodes>
          <leafValues>
            -2.5991955399513245e-01 5.8556658029556274e-01</leafValues></_>
        <_>
          <internalNodes>
            0 -1 14 -1.8020871793851256e-03</internalNodes>
          <leafValues>
            -8.5470724105834961e-01 1.1660113185644150e-01</leafValues></_>
        <_>
          <internalNodes>
            0 -1 19 3.0685181263834238e-03</internalNodes>
          <leafValues>
            1.3149960339069366e-01 -8.3157384395599365e-01</leafValues></_>
        <_>
          <internalNodes>
            0 -1 22 8.8021147530525923e-04</internalNodes>
          <leafValues>
            1.2431596219539642e-01 -8.1404936313629150e-01</leafValues></_>
        <_>
          <internalNodes>
            0 -1 8 1.2287421850487590e-03</internalNodes>
          <leafValues>
            1.0344050079584122e-01 -9.0353757143020630e-01</leafValues></_>
        <_>
          <internalNodes>
            0 -1 89 -9.4264716608449817e-04</internalNodes>
          <leafValues>
            -7.0868462324142456e-01 1.4022690057754517e-01</leafValues></_>
        <_>
          <internalNodes>
            0 -1 85 2.3887003771960735e-03</internalNodes>
          <leafValues>
            1.0547666996717453e-01 -9.3219089508056641e-01</leafValues></_></weakClassifiers></_>
    <!-- stage 6 -->
    <_>
      <maxWeakCount>13</maxWeakCount>
      <stageThreshold>-9.8795861005783081e-01</stageThreshold>
      <weakClassifiers>
        <_>
          <internalNodes>
            0 -1 55 -4.8179022967815399e-02</internalNodes>
          <leafValues>
            6.8463075160980225e-01 -2.5529542565345764e-01</leafValues></_>
        <_>
          <internalNodes>
            0 -1 31 -9.3985453248023987e-02</internalNodes>
          <leafValues>
            7.0329922437667847e-01 -2.3622241616249084e-01</leafValues></_>
        <_>
          <internalNodes>
            0 -1 13 2.4690260179340839e-03</internalNodes>
          <leafValues>
            2.2910045087337494e-01 -6.4306062459945679e-01</leafValues></_>
        <_>
          <internalNodes>
            0 -1 32 -2.5007408112287521e-03</internalNodes>
          <leafValues>
            -6.6002321243286133e-01 1.4461046457290649e-01</leafValues></_>
        <_>
          <internalNodes>
            0 -1 83 1.8761141691356897e-03</internalNodes>
          <leafValues>
            1.1108562350273132e-01 -7.9808217287063599e-01</leafValues></_>
        <_>
          <internalNodes>
            0 -1 86 -2.7936706319451332e-03</internalNodes>
          <leafValues>
            -6.6625696420669556e-01 1.3169494271278381e-01</leafValues></_>
        <_>
          <internalNodes>
            0 -1 53 8.3050459623336792e-02</internalNodes>
          <leafValues>
            -1.4378719031810760e-01 8.2722836732864380e-01</leafValues></_>
        <_>
          <internalNodes>
            0 -1 74 2.6029337197542191e-02</internalNodes>
          <leafValues>
            -1.3494423031806946e-01 8.0534636974334717e-01</leafValues></_>
        <_>
          <internalNodes>
            0 -1 7 9.8186638206243515e-04</internalNodes>
          <leafValues>
            2.6398423314094543e-01 -4.4705393910408020e-01</leafValues></_>
        <_>
          <internalNodes>
            0 -1 20 -2.8695482760667801e-03</internalNodes>
          <leafValues>
            -8.2030266523361206e-01 1.1873103678226471e-01</leafValues></_>
        <_>
          <internalNodes>
            0 -1 92 2.5938553735613823e-03</internalNodes>
          <leafValues>
            1.3094817101955414e-01 -7.0702379941940308e-01</leafValues></_>
        <_>
          <internalNodes>
            0 -1 3 1.8689782591536641e-03</internalNodes>
          <leafValues>
            1.3320356607437134e-01 -6.4950031042098999e-01</leafValues></_>
        <_>
          <internalNodes>
            0 -1 2 2.8181914240121841e-03</internalNodes>
          <leafValues>
            1.2151775509119034e-01 -7.3883616924285889e-01</leafValues></_></weakClassifiers></_>
    <!-- stage 7 -->
    <_>
      <maxWeakCount>10</maxWeakCount>
      <stageThreshold>-6.5417110919952393e-01</stageThreshold>
      <weakClassifiers>
        <_>
          <internalNodes>
            0 -1 58 8.6222603917121887e-02</internalNodes>
          <leafValues>
            -3.1220656633377075e-01 6.8863046169281006e-01</leafValues></_>
        <_>
          <internalNodes>
            0 -1 48 -1.0885623097419739e-01</internalNodes>
          <leafValues>
            6.0178399085998535e-01 -2.4625176191329956e-01</leafValues></_>
        <_>
          <internalNodes>
            0 -1 44 -1.4702479355037212e-02</internalNodes>
          <leafValues>
            -9.0841895341873169e-01 1.6260050237178802e-01</leafValues></_>
        <_>
          <internalNodes>
            0 -1 52 5.2755024284124374e-02</internalNodes>
          <leafValues>
            -2.0139992237091064e-01 7.4107712507247925e-01</leafValues></_>
        <_>
          <internalNodes>
            0 -1 69 2.0511470735073090e-02</internalNodes>
          <leafValues>
            -2.2300812602043152e-01 5.8693987131118774e-01</leafValues></_>
        <_>
          <internalNodes>
            0 -1 57 -2.9605571180582047e-02</internalNodes>
          <leafValues>
            6.1261343955993652e-01 -1.9927777349948883e-01</leafValues></_>
        <_>
          <internalNodes>
            0 -1 24 9.0212066425010562e-04</internalNodes>
          <leafValues>
            1.8326620757579803e-01 -8.4171307086944580e-01</leafValues></_>
        <_>
          <internalNodes>
            0 -1 39 -6.2622621655464172e-02</internalNodes>
          <leafValues>
            2.5208425521850586e-01 -4.2638704180717468e-01</leafValues></_>
        <_>
          <internalNodes>
            0 -1 11 1.6895916778594255e-03</internalNodes>
          <leafValues>
            1.5418815612792969e-01 -7.1559143066406250e-01</leafValues></_>
        <_>
          <internalNodes>
            0 -1 80 9.9657746031880379e-03</internalNodes>
          <leafValues>
            -1.6433446109294891e-01 7.6095139980316162e-01</leafValues></_></weakClassifiers></_>
    <!-- stage 8 -->
    <_>
      <maxWeakCount>12</maxWeakCount>
      <stageThreshold>-9.1349816322326660e-01</stageThreshold>
      <weakClassifiers>
        <_>
          <internalNodes>
            0 -1 28 -1.3038091361522675e-01</internalNodes>
          <leafValues>
            7.7640843391418457e-01 -6.4873419702053070e-02</leafValues></_>
        <_>
          <internalNodes>
            0 -1 54 -3.7984229624271393e-02</internalNodes>
          <leafValues>
            8.6381500959396362e-01 -1.0544849187135696e-01</leafValues></_>
        <_>
          <internalNodes>
            0 -1 37 -7.6519005000591278e-02</internalNodes>
          <leafValues>
            6.6266089677810669e-01 -2.6752629876136780e-01</leafValues></_>
        <_>
          <internalNodes>
            0 -1 76 1.3198021799325943e-02</internalNodes>
          <leafValues>
            2.1435923874378204e-01 -7.7222341299057007e-01</leafValues></_>
        <_>
          <internalNodes>
            0 -1 38 5.8078251779079437e-02</internalNodes>
          <leafValues>
            -1.6158074140548706e-01 7.4960893392562866e-01</leafValues></_>
        <_>
          <internalNodes>
            0 -1 95 6.1002303846180439e-04</internalNodes>
          <leafValues>
            1.5572515130043030e-01 -6.0079634189605713e-01</leafValues></_>
        <_>
          <internalNodes>
            0 -1 9 -1.8768038135021925e-03</internalNodes>
          <leafValues>
            -7.3937171697616577e-01 1.2856447696685791e-01</leafValues></_>
        <_>
          <internalNodes>
            0 -1 93 -9.4145676121115685e-04</internalNodes>
          <leafValues>
            -8.0472016334533691e-01 1.0812522470951080e-01</leafValues></_>
        <_>
          <internalNodes>
            0 -1 21 1.4217188581824303e-02</internalNodes>
          <leafValues>
            -2.4227263033390045e-01 3.9372554421424866e-01</leafValues></_>
        <_>
          <internalNodes>
            0 -1 90 -4.8926519230008125e-03</internalNodes>
          <leafValues>
            -7.1905231475830078e-01 1.3541339337825775e-01</leafValues></_>
        <_>
          <internalNodes>
            0 -1 10 -1.9400042947381735e-03</internalNodes>
          <leafValues>
            -5.1431727409362793e-01 1.8913282454013824e-01</leafValues></_>
        <_>
          <internalNodes>
            0 -1 47 -1.3140738010406494e-02</internalNodes>
          <leafValues>
            6.2093251943588257e-01 -1.7914344370365143e-01</leafValues></_></weakClassifiers></_>
    <!-- stage 9 -->
    <_>
      <maxWeakCount>17</maxWeakCount>
      <stageThreshold>-8.8259863853454590e-01</stageThreshold>
      <weakClassifiers>
        <_>
          <internalNodes>
            0 -1 73 2.8340883553028107e-02</internalNodes>
          <leafValues>
            -2.0703934133052826e-01 6.9735008478164673e-01</leafValues></_>
        <_>
          <internalNodes>
            0 -1 65 8.6201444268226624e-02</internalNodes>
          <leafValues>
            -2.4710410833358765e-01 5.6349045038223267e-01</leafValues></_>
        <_>
          <internalNodes>
            0 -1 62 -1.3089494779706001e-02</internalNodes>
          <leafValues>
            8.4095042943954468e-01 -9.6436105668544769e-02</leafValues></_>
        <_>
          <internalNodes>
            0 -1 40 -1.4010079205036163e-01</internalNodes>
          <leafValues>
            6.4974427223205566e-01 -1.7385756969451904e-01</leafValues></_>
        <_>
          <internalNodes>
            0 -1 75 3.5098232328891754e-03</internalNodes>
          <leafValues>
            3.1866031885147095e-01 -3.5674428939819336e-01</leafValues></_>
        <_>
          <internalNodes>
            0 -1 82 -5.3624715656042099e-04</internalNodes>
          <leafValues>
            -5.3030008077621460e-01 1.7583140730857849e-01</leafValues></_>
        <_>
          <internalNodes>
            0 -1 36 1.1048577725887299e-02</internalNodes>
          <leafValues>
            -1.1492966115474701e-01 8.6263543367385864e-01</leafValues></_>
        <_>
          <internalNodes>
            0 -1 30 -3.4051639959216118e-03</internalNodes>
          <leafValues>
            -9.2255967855453491e-01 1.3170839846134186e-01</leafValues></_>
        <_>
          <internalNodes>
            0 -1 17 2.8495669830590487e-03</internalNodes>
          <leafValues>
            1.1158232390880585e-01 -6.6784805059432983e-01</leafValues></_>
        <_>
          <internalNodes>
            0 -1 91 -3.2913908362388611e-03</internalNodes>
          <leafValues>
            -6.9393813610076904e-01 1.0608323663473129e-01</leafValues></_>
        <_>
          <internalNodes>
            0 -1 77 -2.9045129194855690e-03</internalNodes>
          <leafValues>
            6.6046905517578125e-01 -1.5188626945018768e-01</leafValues></_>
        <_>
          <internalNodes>
            0 -1 66 1.2430559145286679e-03</internalNodes>
          <leafValues>
            1.4379848539829254e-01 -8.0246436595916748e-01</leafValues></_>
        <_>
          <internalNodes>
            0 -1 81 -3.4810209181159735e-03</internalNodes>
          <leafValues>
            5.9550446271896362e-01 -1.8516895174980164e-01</leafValues></_>
        <_>
          <internalNodes>
            0 -1 51 -1.2129315733909607e-01</internalNodes>
          <leafValues>
            6.8908274173736572e-01 -1.1283969134092331e-01</leafValues></_>
        <_>
          <internalNodes>
            0 -1 61 1.7478181049227715e-02</internalNodes>
          <leafValues>
            -1.1568743735551834e-01 8.0916172266006470e-01</leafValues></_>
        <_>
          <internalNodes>
            0 -1 46 -3.6282449960708618e-02</internalNodes>
          <leafValues>
            1.9703510403633118e-01 -5.2228128910064697e-01</leafValues></_>
        <_>
          <internalNodes>
            0 -1 23 -2.1225982345640659e-03</internalNodes>
          <leafValues>
            -7.5339895486831665e-01 1.1579922586679459e-01</leafValues></_></weakClassifiers></_></stages>
  <features>
    <_>
      <rects>
        <_>
          0 0 16 6 -1.</_>
        <_>
          0 2 16 2 3.</_></rects>
      <tilted>0</tilted></_>
    <_>
      <rects>
        <_>
          0 0 17 6 -1.</_>
        <_>
          0 2 17 2 3.</_></rects>
      <tilted>0</tilted></_>
    <_>
      <rects>
        <_>
          0 1 3 5 -1.</_>
        <_>
          1 1 1 5 3.</_></rects>
      <tilted>0</tilted></_>
    <_>
      <rects>
        <_>
          0 1 6 2 -1.</_>
        <_>
          0 1 3 1 2.</_>
        <_>
          3 2 3 1 2.</_></rects>
      <tilted>0</tilted></_>
    <_>
      <rects>
        <_>
          0 1 10 12 -1.</_>
        <_>
          0 1 5 6 2.</_>
        <_>
          5 7 5 6 2.</_></rects>
      <tilted>0</tilted></_>
    <_>
      <rects>
        <_>
          0 2 2 2 -1.</_>
        <_>
          0 2 1 1 2.</_>
        <_>
          1 3 1 1 2.</_></rects>
      <tilted>0</tilted></_>
    <_>
      <rects>
        <_>
          0 3 2 12 -1.</_>
        <_>
          1 3 1 12 2.</_></rects>
      <tilted>0</tilted></_>
    <_>
      <rects>
        <_>
          0 3 4 3 -1.</_>
        <_>
          0 4 4 1 3.</_></rects>
      <tilted>0</tilted></_>
    <_>
      <rects>
        <_>
          0 4 3 1 -1.</_>
        <_>
          1 4 1 1 3.</_></rects>
      <tilted>0</tilted></_>
    <_>
      <rects>
        <_>
          0 5 4 2 -1.</_>
        <_>
          0 5 2 1 2.</_>
        <_>
          2 6 2 1 2.</_></rects>
      <tilted>0</tilted></_>
    <_>
      <rects>
        <_>
          0 5 2 4 -1.</_>
        <_>
          0 7 2 2 2.</_></rects>
      <tilted>0</tilted></_>
    <_>
      <rects>
        <_>
          0 6 4 2 -1.</_>
        <_>
          0 6 2 1 2.</_>
        <_>
          2 7 2 1 2.</_></rects>
      <tilted>0</tilted></_>
    <_>
      <rects>
        <_>
          0 7 6 2 -1.</_>
        <_>
          0 7 3 1 2.</_>
        <_>
          3 8 3 1 2.</_></rects>
      <tilted>0</tilted></_>
    <_>
      <rects>
        <_>
          0 7 4 3 -1.</_>
        <_>
          0 8 4 1 3.</_></rects>
      <tilted>0</tilted></_>
    <_>
      <rects>
        <_>
          0 11 2 3 -1.</_>
        <_>
          0 12 2 1 3.</_></rects>
      <tilted>0</tilted></_>
    <_>
      <rects>
        <_>
          0 12 12 6 -1.</_>
        <_>
          0 12 6 3 2.</_>
        <_>
          6 15 6 3 2.</_></rects>
      <tilted>0</tilted></_>
    <_>
      <rects>
        <_>
          0 13 2 1 -1.</_>
        <_>
          1 13 1 1 2.</_></rects>
      <tilted>0</tilted></_>
    <_>
      <rects>
        <_>
          0 13 2 5 -1.</_>
        <_>
          1 13 1 5 2.</_></rects>
      <tilted>0</tilted></_>
    <_>
      <rects>
        <_>
          0 13 3 5 -1.</_>
        <_>
          1 13 1 5 3.</_></rects>
      <tilted>0</tilted></_>
    <_>
      <rects>
        <_>
          1 0 3 3 -1.</_>
        <_>
          2 0 1 3 3.</_></rects>
      <tilted>0</tilted></_>
    <_>
      <rects>
        <_>
          1 3 2 3 -1.</_>
        <_>
          1 4 2 1 3.</_></rects>
      <tilted>0</tilted></_>
    <_>
      <rects>
        <_>
          1 5 12 4 -1.</_>
        <_>
          5 5 4 4 3.</_></rects>
      <tilted>0</tilted></_>
    <_>
      <rects>
        <_>
          1 7 2 2 -1.</_>
        <_>
          1 7 1 1 2.</_>
        <_>
          2 8 1 1 2.</_></rects>
      <tilted>0</tilted></_>
    <_>
      <rects>
        <_>
          1 7 2 3 -1.</_>
        <_>
          1 8 2 1 3.</_></rects>
      <tilted>0</tilted></_>
    <_>
      <rects>
        <_>
          1 13 1 2 -1.</_>
        <_>
          1 14 1 1 2.</_></rects>
      <tilted>0</tilted></_>
    <_>
      <rects>
        <_>
          1 13 4 2 -1.</_>
        <_>
          1 13 2 1 2.</_>
        <_>
          3 14 2 1 2.</_></rects>
      <tilted>0</tilted></_>
    <_>
      <rects>
        <_>
          1 15 2 2 -1.</_>
        <_>
          1 15 1 1 2.</_>
        <_>
          2 16 1 1 2.</_></rects>
      <tilted>0</tilted></_>
    <_>
      <rects>
        <_>
          2 1 2 3 -1.</_>
        <_>
          2 2 2 1 3.</_></rects>
      <tilted>0</tilted></_>
    <_>
      <rects>
        <_>
          2 8 15 2 -1.</_>
        <_>
          7 8 5 2 3.</_></rects>
      <tilted>0</tilted></_>
    <_>
      <rects>
        <_>
          2 8 15 3 -1.</_>
        <_>
          7 8 5 3 3.</_></rects>
      <tilted>0</tilted></_>
    <_>
      <rects>
        <_>
          3 0 2 3 -1.</_>
        <_>
          4 0 1 3 2.</_></rects>
      <tilted>0</tilted></_>
    <_>
      <rects>
        <_>
          3 0 8 10 -1.</_>
        <_>
          3 0 4 5 2.</_>
        <_>
          7 5 4 5 2.</_></rects>
      <tilted>0</tilted></_>
    <_>
      <rects>
        <_>
          3 1 3 3 -1.</_>
        <_>
          4 1 1 3 3.</_></rects>
      <tilted>0</tilted></_>
    <_>
      <rects>
        <_>
          3 1 8 8 -1.</_>
        <_>
          3 1 4 4 2.</_>
        <_>
          7 5 4 4 2.</_></rects>
      <tilted>0</tilted></_>
    <_>
      <rects>
        <_>
          3 8 12 3 -1.</_>
        <_>
          7 8 4 3 3.</_></rects>
      <tilted>0</tilted></_>
    <_>
      <rects>
        <_>
          3 8 12 4 -1.</_>
        <_>
          7 8 4 4 3.</_></rects>
      <tilted>0</tilted></_>
    <_>
      <rects>
        <_>
          3 10 2 8 -1.</_>
        <_>
          3 10 1 4 2.</_>
        <_>
          4 14 1 4 2.</_></rects>
      <tilted>0</tilted></_>
    <_>
      <rects>
        <_>
          3 10 9 3 -1.</_>
        <_>
          6 10 3 3 3.</_></rects>
      <tilted>0</tilted></_>
    <_>
      <rects>
        <_>
          3 12 8 6 -1.</_>
        <_>
          3 12 4 3 2.</_>
        <_>
          7 15 4 3 2.</_></rects>
      <tilted>0</tilted></_>
    <_>
      <rects>
        <_>
          4 1 12 12 -1.</_>
        <_>
          4 5 12 4 3.</_></rects>
      <tilted>0</tilted></_>
    <_>
      <rects>
        <_>
          4 6 9 4 -1.</_>
        <_>
          7 6 3 4 3.</_></rects>
      <tilted>0</tilted></_>
    <_>
      <rects>
        <_>
          4 8 12 1 -1.</_>
        <_>
          8 8 4 1 3.</_></rects>
      <tilted>0</tilted></_>
    <_>
      <rects>
        <_>
          4 9 9 5 -1.</_>
        <_>
          7 9 3 5 3.</_></rects>
      <tilted>0</tilted></_>
    <_>
      <rects>
        <_>
          5 0 2 1 -1.</_>
        <_>
          6 0 1 1 2.</_></rects>
      <tilted>0</tilted></_>
    <_>
      <rects>
        <_>
          5 0 12 1 -1.</_>
        <_>
          11 0 6 1 2.</_></rects>
      <tilted>0</tilted></_>
    <_>
      <rects>
        <_>
          5 1 10 8 -1.</_>
        <_>
          5 5 10 4 2.</_></rects>
      <tilted>0</tilted></_>
    <_>
      <rects>
        <_>
          5 3 11 15 -1.</_>
        <_>
          5 8 11 5 3.</_></rects>
      <tilted>0</tilted></_>
    <_>
      <rects>
        <_>
          5 7 1 9 -1.</_>
        <_>
          5 10 1 3 3.</_></rects>
      <tilted>0</tilted></_>
    <_>
      <rects>
        <_>
          5 7 9 4 -1.</_>
        <_>
          8 7 3 4 3.</_></rects>
      <tilted>0</tilted></_>
    <_>
      <rects>
        <_>
          5 8 9 2 -1.</_>
        <_>
          8 8 3 2 3.</_></rects>
      <tilted>0</tilted></_>
    <_>
      <rects>
        <_>
          5 8 9 4 -1.</_>
        <_>
          8 8 3 4 3.</_></rects>
      <tilted>0</tilted></_>
    <_>
      <rects>
        <_>
          6 5 9 4 -1.</_>
        <_>
          9 5 3 4 3.</_></rects>
      <tilted>0</tilted></_>
    <_>
      <rects>
        <_>
          6 5 6 10 -1.</_>
        <_>
          6 5 3 5 2.</_>
        <_>
          9 10 3 5 2.</_></rects>
      <tilted>0</tilted></_>
    <_>
      <rects>
        <_>
          6 6 6 10 -1.</_>
        <_>
          6 6 3 5 2.</_>
        <_>
          9 11 3 5 2.</_></rects>
      <tilted>0</tilted></_>
    <_>
      <rects>
        <_>
          6 9 4 3 -1.</_>
        <_>
          8 9 2 3 2.</_></rects>
      <tilted>0</tilted></_>
    <_>
      <rects>
        <_>
          6 10 12 8 -1.</_>
        <_>
          6 10 6 4 2.</_>
        <_>
          12 14 6 4 2.</_></rects>
      <tilted>0</tilted></_>
    <_>
      <rects>
        <_>
          6 12 9 1 -1.</_>
        <_>
          9 12 3 1 3.</_></rects>
      <tilted>0</tilted></_>
    <_>
      <rects>
        <_>
          6 14 12 4 -1.</_>
        <_>
          6 14 6 2 2.</_>
        <_>
          12 16 6 2 2.</_></rects>
      <tilted>0</tilted></_>
    <_>
      <rects>
        <_>
          7 0 10 12 -1.</_>
        <_>
          7 0 5 6 2.</_>
        <_>
          12 6 5 6 2.</_></rects>
      <tilted>0</tilted></_>
    <_>
      <rects>
        <_>
          7 0 8 18 -1.</_>
        <_>
          7 6 8 6 3.</_></rects>
      <tilted>0</tilted></_>
    <_>
      <rects>
        <_>
          7 1 8 8 -1.</_>
        <_>
          7 1 4 4 2.</_>
        <_>
          11 5 4 4 2.</_></rects>
      <tilted>0</tilted></_>
    <_>
      <rects>
        <_>
          7 2 4 6 -1.</_>
        <_>
          7 2 2 3 2.</_>
        <_>
          9 5 2 3 2.</_></rects>
      <tilted>0</tilted></_>
    <_>
      <rects>
        <_>
          7 6 6 1 -1.</_>
        <_>
          10 6 3 1 2.</_></rects>
      <tilted>0</tilted></_>
    <_>
      <rects>
        <_>
          7 8 6 4 -1.</_>
        <_>
          9 8 2 4 3.</_></rects>
      <tilted>0</tilted></_>
    <_>
      <rects>
        <_>
          8 0 3 18 -1.</_>
        <_>
          8 6 3 6 3.</_></rects>
      <tilted>0</tilted></_>
    <_>
      <rects>
        <_>
          8 0 8 10 -1.</_>
        <_>
          8 0 4 5 2.</_>
        <_>
          12 5 4 5 2.</_></rects>
      <tilted>0</tilted></_>
    <_>
      <rects>
        <_>
          8 1 3 1 -1.</_>
        <_>
          9 1 1 1 3.</_></rects>
      <tilted>0</tilted></_>
    <_>
      <rects>
        <_>
          8 1 8 10 -1.</_>
        <_>
          8 1 4 5 2.</_>
        <_>
          12 6 4 5 2.</_></rects>
      <tilted>0</tilted></_>
    <_>
      <rects>
        <_>
          8 1 5 8 -1.</_>
        <_>
          8 5 5 4 2.</_></rects>
      <tilted>0</tilted></_>
    <_>
      <rects>
        <_>
          8 7 6 3 -1.</_>
        <_>
          10 7 2 3 3.</_></rects>
      <tilted>0</tilted></_>
    <_>
      <rects>
        <_>
          8 8 6 4 -1.</_>
        <_>
          10 8 2 4 3.</_></rects>
      <tilted>0</tilted></_>
    <_>
      <rects>
        <_>
          8 9 6 2 -1.</_>
        <_>
          11 9 3 2 2.</_></rects>
      <tilted>0</tilted></_>
    <_>
      <rects>
        <_>
          8 10 6 4 -1.</_>
        <_>
          10 10 2 4 3.</_></rects>
      <tilted>0</tilted></_>
    <_>
      <rects>
        <_>
          8 10 6 2 -1.</_>
        <_>
          11 10 3 2 2.</_></rects>
      <tilted>0</tilted></_>
    <_>
      <rects>
        <_>
          8 14 3 4 -1.</_>
        <_>
          8 16 3 2 2.</_></rects>
      <tilted>0</tilted></_>
    <_>
      <rects>
        <_>
          8 17 8 1 -1.</_>
        <_>
          12 17 4 1 2.</_></rects>
      <tilted>0</tilted></_>
    <_>
      <rects>
        <_>
          9 1 8 1 -1.</_>
        <_>
          13 1 4 1 2.</_></rects>
      <tilted>0</tilted></_>
    <_>
      <rects>
        <_>
          9 2 1 2 -1.</_>
        <_>
          9 3 1 1 2.</_></rects>
      <tilted>0</tilted></_>
    <_>
      <rects>
        <_>
          9 11 6 3 -1.</_>
        <_>
          11 11 2 3 3.</_></rects>
      <tilted>0</tilted></_>
    <_>
      <rects>
        <_>
          10 2 4 10 -1.</_>
        <_>
          10 2 2 5 2.</_>
        <_>
          12 7 2 5 2.</_></rects>
      <tilted>0</tilted></_>
    <_>
      <rects>
        <_>
          10 3 1 6 -1.</_>
        <_>
          10 5 1 2 3.</_></rects>
      <tilted>0</tilted></_>
    <_>
      <rects>
        <_>
          12 6 3 3 -1.</_>
        <_>
          13 6 1 3 3.</_></rects>
      <tilted>0</tilted></_>
    <_>
      <rects>
        <_>
          12 17 3 1 -1.</_>
        <_>
          13 17 1 1 3.</_></rects>
      <tilted>0</tilted></_>
    <_>
      <rects>
        <_>
          14 0 4 2 -1.</_>
        <_>
          14 0 2 1 2.</_>
        <_>
          16 1 2 1 2.</_></rects>
      <tilted>0</tilted></_>
    <_>
      <rects>
        <_>
          14 17 3 1 -1.</_>
        <_>
          15 17 1 1 3.</_></rects>
      <tilted>0</tilted></_>
    <_>
      <rects>
        <_>
          15 10 2 4 -1.</_>
        <_>
          15 10 1 2 2.</_>
        <_>
          16 12 1 2 2.</_></rects>
      <tilted>0</tilted></_>
    <_>
      <rects>
        <_>
          15 10 3 4 -1.</_>
        <_>
          16 10 1 4 3.</_></rects>
      <tilted>0</tilted></_>
    <_>
      <rects>
        <_>
          15 12 3 3 -1.</_>
        <_>
          15 13 3 1 3.</_></rects>
      <tilted>0</tilted></_>
    <_>
      <rects>
        <_>
          16 1 2 2 -1.</_>
        <_>
          16 1 1 1 2.</_>
        <_>
          17 2 1 1 2.</_></rects>
      <tilted>0</tilted></_>
    <_>
      <rects>
        <_>
          16 7 1 3 -1.</_>
        <_>
          16 8 1 1 3.</_></rects>
      <tilted>0</tilted></_>
    <_>
      <rects>
        <_>
          16 10 2 7 -1.</_>
        <_>
          17 10 1 7 2.</_></rects>
      <tilted>0</tilted></_>
    <_>
      <rects>
        <_>
          16 12 1 6 -1.</_>
        <_>
          16 14 1 2 3.</_></rects>
      <tilted>0</tilted></_>
    <_>
      <rects>
        <_>
          16 12 2 6 -1.</_>
        <_>
          16 12 1 3 2.</_>
        <_>
          17 15 1 3 2.</_></rects>
      <tilted>0</tilted></_>
    <_>
      <rects>
        <_>
          17 0 1 2 -1.</_>
        <_>
          17 1 1 1 2.</_></rects>
      <tilted>0</tilted></_>
    <_>
      <rects>
        <_>
          17 6 1 3 -1.</_>
        <_>
          17 7 1 1 3.</_></rects>
      <tilted>0</tilted></_>
    <_>
      <rects>
        <_>
          17 11 1 2 -1.</_>
        <_>
          17 12 1 1 2.</_></rects>
      <tilted>0</tilted></_></features></cascade>
</opencv_storage>
