<?xml version="1.0"?>
<opencv_storage>
<stage7>
  <maxWeakCount>10</maxWeakCount>
  <stageThreshold>-6.5417110919952393e-01</stageThreshold>
  <weakClassifiers>
    <_>
      <internalNodes>
        0 -1 32600 8.6222603917121887e-02</internalNodes>
      <leafValues>
        -3.1220656633377075e-01 6.8863046169281006e-01</leafValues></_>
    <_>
      <internalNodes>
        0 -1 27198 -1.0885623097419739e-01</internalNodes>
      <leafValues>
        6.0178399085998535e-01 -2.4625176191329956e-01</leafValues></_>
    <_>
      <internalNodes>
        0 -1 24945 -1.4702479355037212e-02</internalNodes>
      <leafValues>
        -9.0841895341873169e-01 1.6260050237178802e-01</leafValues></_>
    <_>
      <internalNodes>
        0 -1 30484 5.2755024284124374e-02</internalNodes>
      <leafValues>
        -2.0139992237091064e-01 7.4107712507247925e-01</leafValues></_>
    <_>
      <internalNodes>
        0 -1 37562 2.0511470735073090e-02</internalNodes>
      <leafValues>
        -2.2300812602043152e-01 5.8693987131118774e-01</leafValues></_>
    <_>
      <internalNodes>
        0 -1 32226 -2.9605571180582047e-02</internalNodes>
      <leafValues>
        6.1261343955993652e-01 -1.9927777349948883e-01</leafValues></_>
    <_>
      <internalNodes>
        0 -1 10390 9.0212066425010562e-04</internalNodes>
      <leafValues>
        1.8326620757579803e-01 -8.4171307086944580e-01</leafValues></_>
    <_>
      <internalNodes>
        0 -1 21231 -6.2622621655464172e-02</internalNodes>
      <leafValues>
        2.5208425521850586e-01 -4.2638704180717468e-01</leafValues></_>
    <_>
      <internalNodes>
        0 -1 3176 1.6895916778594255e-03</internalNodes>
      <leafValues>
        1.5418815612792969e-01 -7.1559143066406250e-01</leafValues></_>
    <_>
      <internalNodes>
        0 -1 42124 9.9657746031880379e-03</internalNodes>
      <leafValues>
        -1.6433446109294891e-01 7.6095139980316162e-01</leafValues></_></weakClassifiers></stage7>
</opencv_storage>
