<?xml version="1.0"?>
<opencv_storage>
<stage4>
  <maxWeakCount>7</maxWeakCount>
  <stageThreshold>-1.1333243846893311e+00</stageThreshold>
  <weakClassifiers>
    <_>
      <internalNodes>
        0 -1 40867 8.6261332035064697e-03</internalNodes>
      <leafValues>
        -6.1185187101364136e-01 7.0318841934204102e-01</leafValues></_>
    <_>
      <internalNodes>
        0 -1 33741 9.1386064887046814e-02</internalNodes>
      <leafValues>
        -3.8144692778587341e-01 8.0029010772705078e-01</leafValues></_>
    <_>
      <internalNodes>
        0 -1 39302 -2.9056746512651443e-02</internalNodes>
      <leafValues>
        5.3640663623809814e-01 -5.4190003871917725e-01</leafValues></_>
    <_>
      <internalNodes>
        0 -1 38373 -4.5046992599964142e-02</internalNodes>
      <leafValues>
        7.1021449565887451e-01 -3.5901573300361633e-01</leafValues></_>
    <_>
      <internalNodes>
        0 -1 37552 -1.5685619786381721e-02</internalNodes>
      <leafValues>
        6.1307024955749512e-01 -3.6969149112701416e-01</leafValues></_>
    <_>
      <internalNodes>
        0 -1 34146 -1.2275225017219782e-03</internalNodes>
      <leafValues>
        -7.4028843641281128e-01 2.9277402162551880e-01</leafValues></_>
    <_>
      <internalNodes>
        0 -1 31965 2.5528570637106895e-02</internalNodes>
      <leafValues>
        -2.6665976643562317e-01 7.9256343841552734e-01</leafValues></_></weakClassifiers></stage4>
</opencv_storage>
